tree
version=v3
num_class=1
num_tree_per_iteration=1
label_index=0
max_feature_idx=56
objective=binary sigmoid:1
feature_names=checkpoint_elapsed_time cutscene_click_elapsed_time map_click_elapsed_time map_hover_elapsed_time navigate_click_elapsed_time notebook_click_elapsed_time notification_click_elapsed_time object_click_elapsed_time object_hover_elapsed_time observation_click_elapsed_time person_click_elapsed_time capitol_0_hall_elapsed_time capitol_1_hall_elapsed_time drycleaner_frontdesk_elapsed_time historicalsociety_basement_elapsed_time historicalsociety_closet_dirty_elapsed_time historicalsociety_collection_elapsed_time historicalsociety_entry_elapsed_time historicalsociety_frontdesk_elapsed_time historicalsociety_stacks_elapsed_time humanecology_frontdesk_elapsed_time kohlcenter_halloffame_elapsed_time library_frontdesk_elapsed_time library_microfiche_elapsed_time historicalsociety_closet_elapsed_time historicalsociety_cage_elapsed_time historicalsociety_collection_flag_elapsed_time wildlife_center_elapsed_time flaghouse_entry_elapsed_time capitol_2_hall_elapsed_time fullscreen hq music level_5_counts level_6_counts level_7_counts level_8_counts level_9_counts level_10_counts level_11_counts level_12_counts checkpoint_counts cutscene_click_counts map_click_counts map_hover_counts navigate_click_counts notebook_click_counts notification_click_counts object_click_counts object_hover_counts observation_click_counts person_click_counts notebook_next_counts notebook_open_counts notebook_prev_counts map_hover_duration object_hover_duration
feature_infos=[893:1184397914] [13702:23039504657] [3387:8749289629] [0:35512194686] [36074:111951994599] [0:24497192047] [3621:12398750406] [7623:53263182069] [0:24517071026] [88:3755590673] [42656:183623994361] [3187:17488994704] [8019:29606388194] [12804:80431067508] [1043:6556656123] [20860:87397313434] [0:5298788391] [5423:16531270869] [21926:59588846227] [9700:54474663546] [0:71731718718] [0:21663591743] [20344:57769336546] [6449:42013684061] none none none none none none [0:1404] [0:1489] [0:14255] [9:1436] [57:3132] [0:1121] [18:440] [24:2656] [10:1569] [34:2948] [5:953] [1:3] [11:114] [4:616] [0:197] [50:7871] [0:2588] [8:72] [13:2709] [0:146] [1:38] [85:389] [0:23] [0:31] [0:36] [0:47596873] [0:245241631]
tree_sizes=3375 3439 3432 3423 3420 3433 3438 3456 3438 3450 3456 3460 3456 3447 3450 3447 3460 3455 3456 3440 3446 3457 3427 3451 3464 3433 3440 3463 3444 3442 3452 3436 3438 3456 3459 3444 3447 3451 3447 3478 3438 3446 3432 3447 3454 3444 3446 3438 3458 3460 3458 3453 3450 3450 3448 3451 3455 3450 3444 3447 3446 3441 3450 3456 3462 3450 3458 3468 3446 3466 3457 3458 3447 3468 3450 3455 3464 3460 3449 3457 3450 3455 3463 3456 3435 3456 3449 3446 3451 3452 3452 3463 3444 3447 3448 3440 3435 3445 3456 3444 3448 3442 3434 3462 3469 3426 3458 3434 3470 3454 3457 3458 3441 3454 3455 3445 3461 3452 3447 3442 3445 3456 3430 3457 3452 3438 3448 3452 3442 3454 3437 3465 3442 3451 3458 3457 3448 3451 3460 3429 3452 3433 3426 3444 3456 3424 3452 3443 3447 3449 3447 3454 3454 3458 3446 3434 3435 3449 3445 3457 3462 3447 3433 3454 3450 3451 3447 3455 3426 3452 3437 3461 3474 3435 3460 3454 3458 3448 3455 3448 3451 3456 3440 3437 3445 3463 3454 3460 3453 3466 3451 3454 3452 3443 3438 3459 3443 3461 3455 3441 3463 3454 3463 3450 3443 3450 3424 3456 3462 3472 3434 3441 3465 3447 3460 3488 3436 3460 3444 3439 3457 3453 3446 3443 3465 3448 3441 3452 3462 3445 3459 3441 3473 3451 3452 3447 3449 3444 3451 3461 3439 3456 3439 3427 3430 3437 3470 3434 3427 3454 3450 3446 3449 3422 3441 3425 3427 3451 3446 3447 3452 3435 3429 3448 3460 3443 3430 3441 3440 3445 3439 3436 3449 3440 3440 3426 3438 3441 3409 3450 3443 3435 3439 3434 3424 3447 3452 3441 3432 3427 3435 3431 3440 3454 3462 3428 3425 3450 3406 3435 3450 3418 3438 3426 3436 3454 3405 3411 3432 3431 3424 3434 3408 3411 3418 3435 3421 3448 3432 3433 3420 3430 3420 3436 3420 3440 3427 3441 3446 3446 3421 3423 3434 3420 3431 3433 3437 3419 3455 3445 3417 3435 3431 3431 3445 3432 3422 3424 3426 3449 3436 3426 3420 3441 3443 3422 3421 3435 3414 3428 3428 3449 3448 3417 3431 3443 3442 3439 3425 3411 3447 3445 3436 3439 3435 3424 3419 3442 3431 3411 3412 3409 3428 3425 3433 3414 3437 3426 3448 3424 3420 3447 3434 3439 3410 3420 3428 3435 3427 3426 3435 3429 3414 3425 3428 3432 3436 3414 3438 3422 3434 3422 3426 3411 3425 3433 3450 3387 3423 3435 3456 3423 3413 3439 3430 3416 3427 3406 3427 3424 3422

Tree=0
num_leaves=31
num_cat=0
split_feature=48 7 56 56 39 12 33 9 48 56 33 37 18 5 32 38 35 5 46 38 1 20 12 5 23 33 32 12 54 32
split_gain=804.803 173.945 127.68 61.3127 51.7063 40.7916 40.3659 25.0358 23.1775 20.9643 21.6561 20.8151 23.1821 20.8053 19.6823 19.1949 18.9201 18.5201 17.7742 16.5338 15.195 15.0696 14.7886 19.943 14.6547 14.4433 13.9466 13.1935 13.0014 12.7142
threshold=26.500000000000004 25572955.500000004 27355.500000000004 36302.000000000007 103.50000000000001 2038354.0000000002 24.500000000000004 846053.50000000012 18.500000000000004 20956.000000000004 22.500000000000004 52.500000000000007 37321324.500000007 2222383.0000000005 281.50000000000006 17.500000000000004 61.500000000000007 12645134.000000002 17.500000000000004 14.500000000000002 6746078.0000000009 19805868.000000004 1696671.5000000002 5194532.0000000009 2846794.0000000005 12.500000000000002 543.50000000000011 2694436.5000000005 3.5000000000000004 342.50000000000006
decision_type=2 2 2 2 2 2 2 2 2 2 2 2 2 2 2 2 2 2 2 2 2 2 2 2 2 2 2 2 2 2
left_child=2 3 5 17 7 19 8 16 13 10 -7 14 -13 27 -8 22 -3 18 -2 -1 -5 -15 23 -10 -21 -26 -6 -4 -9 -17
right_child=1 4 6 20 26 9 11 28 15 -11 -12 12 -14 21 -16 29 -18 -19 -20 24 -22 -23 -24 -25 25 -27 -28 -29 -30 -31
leaf_value=-0.95918485832279199 -0.96483284968840133 -0.96722603553155195 -0.96067423590501977 -0.97088263900217597 -0.9750677558521853 -0.95418852930469122 -0.96179321658072037 -0.97343811215393572 -0.96461792662026968 -0.96468043745300047 -0.96492093258990286 -0.96827068628247159 -0.94461002511878411 -0.96034833962270605 -0.97301581508009771 -0.96046325365590168 -0.97386986318251856 -0.95000422172353305 -0.9745744073851641 -0.93473332711008894 -0.95509942151511551 -0.95013048167040681 -0.96720247198077935 -0.95401568060706465 -0.94743590963346713 -0.95498737280109958 -0.97808485563437741 -0.96805875375481254 -0.95839024568264009 -0.96725939412695949
leaf_weight=54.244604349136353 307.91790115833282 134.0160813331604 85.754337757825851 456.69170573353767 432.95969133079052 58.432606890797615 18.746297091245651 795.91991160809994 160.73952612280846 83.16176475584507 27.720588251948357 11.168006777763368 6.5811468511819831 30.113732561469078 93.930914148688316 146.38066026568413 63.019466817378998 7.9771476984024039 19.942869246006012 4.3874312341213217 6.1822894662618628 27.720588251948357 250.08358034491539 19.942869246006012 32.70630556344986 112.27835385501385 237.12071533501148 33.70344902575016 5.7834320813417426 33.90287771821022
leaf_count=272 1544 672 430 2290 2171 293 94 3991 806 417 139 56 33 151 471 734 316 40 100 22 31 139 1254 100 164 563 1189 169 29 170
internal_value=-0.968802 -0.97215 -0.962407 -0.968312 -0.973986 -0.957472 -0.96441 -0.972545 -0.963557 -0.961099 -0.957642 -0.969563 -0.959498 -0.960374 -0.971149 -0.964481 -0.969351 -0.965059 -0.965425 -0.954456 -0.970672 -0.955451 -0.965628 -0.963448 -0.952739 -0.953284 -0.976135 -0.962758 -0.97333 -0.961741
internal_weight=0 2467.53 1291.7 798.712 1668.82 372.932 918.768 998.739 788.342 169.315 86.1532 130.426 17.7492 177.292 112.677 611.05 197.036 335.838 327.861 203.617 462.874 57.8343 430.766 180.682 149.372 144.985 670.08 119.458 801.703 180.284
internal_count=18850 12373 6477 4005 8368 1870 4607 5008 3953 849 432 654 89 889 565 3064 988 1684 1644 1021 2321 290 2160 906 749 727 3360 599 4020 904
is_linear=0
shrinkage=1


Tree=1
num_leaves=31
num_cat=0
split_feature=48 7 56 56 39 33 12 9 48 37 18 56 33 5 32 38 35 5 46 38 1 20 12 5 23 33 32 12 54 38
split_gain=787.697 171.105 123.898 60.0281 51.0529 39.4055 39.3844 24.6356 22.5323 20.3431 22.3766 20.3352 20.9439 20.1373 19.2866 18.6897 18.5777 17.941 17.4085 15.9161 14.8272 14.5037 14.428 19.3331 13.9482 13.8379 13.8121 12.8443 12.7355 12.5155
threshold=26.500000000000004 25572955.500000004 27355.500000000004 36302.000000000007 103.50000000000001 24.500000000000004 2038354.0000000002 846053.50000000012 18.500000000000004 52.500000000000007 37321324.500000007 20956.000000000004 22.500000000000004 2222383.0000000005 281.50000000000006 17.500000000000004 61.500000000000007 12645134.000000002 17.500000000000004 14.500000000000002 6746078.0000000009 19805868.000000004 1696671.5000000002 5194532.0000000009 2846794.0000000005 12.500000000000002 543.50000000000011 2694436.5000000005 3.5000000000000004 26.500000000000004
decision_type=2 2 2 2 2 2 2 2 2 2 2 2 2 2 2 2 2 2 2 2 2 2 2 2 2 2 2 2 2 2
left_child=2 3 6 17 7 8 19 16 13 14 -11 12 -8 27 -7 22 -3 18 29 -1 -5 -15 23 -10 -21 -26 -6 -4 -9 -2
right_child=1 4 5 20 26 9 11 28 15 10 -12 -13 -14 21 -16 -17 -18 -19 -20 24 -22 -23 -24 -25 25 -27 -28 -29 -30 -31
leaf_value=0.0094797957515896161 0.0030775000140435666 0.0015590449929613821 0.008017033912366054 -0.0020618224114892546 -0.0062207906112763806 0.0069167662919501702 0.014372647945383087 -0.0045994482500905003 0.0041343707378715087 0.00052582503501334363 0.023692304747251713 0.0040727155499482486 0.0038354838124163818 0.0083372732229632356 -0.004179695313885525 0.0069678384914979002 -0.0050287673569755307 0.018453595995705133 -0.0057297025922410242 0.033220240155804368 0.01348224443163326 0.018330675493910008 0.0015823391360331154 0.014541527336589682 0.020950986663252853 0.013591811061905308 -0.0092288790215997538 0.00073551728052301463 0.010259410729491492 0.0087246463033422133
leaf_weight=54.478736639022827 262.31691467761993 134.11104011535645 86.067254394292831 456.26413628458977 431.73791298270226 18.805299162864685 58.815412566065788 794.25866170227528 161.04173019528389 11.170675396919252 6.6523653119802466 83.315785825252533 27.768935635685921 30.228016138076782 93.752729818224907 180.85504189133644 62.875665783882141 8.0443078279495221 19.891028106212616 4.4541401267051688 6.2202744632959357 27.952410042285919 250.26343363523483 20.075060427188873 33.019100964069366 112.97383967041969 236.12873131036758 33.714713364839554 5.8104525357484809 46.150195956230164
leaf_count=272 1313 672 430 2290 2171 94 293 3991 806 56 33 417 139 151 471 904 316 40 100 22 31 139 1254 100 164 563 1189 169 29 231
internal_value=0 -0.00331928 0.00631284 0.000485086 -0.00514474 0.00433945 0.0111595 -0.00371157 0.00517985 -0.000753961 0.0091726 0.00759954 0.0109932 0.00831191 -0.00232579 0.00426943 -0.000543701 0.00369914 0.00333768 0.014111 -0.00185276 0.0131385 0.00313814 0.0052879 0.0157881 0.0152562 -0.00728432 0.00596752 -0.00449154 0.00392238
internal_weight=0 2463.81 1295.4 798.887 1664.92 920.579 374.826 997.056 790.198 130.381 17.823 169.9 86.5843 177.962 112.558 612.235 196.987 336.402 328.358 204.926 462.484 58.1804 431.38 181.117 150.447 145.993 667.867 119.782 800.069 308.467
internal_count=18850 12373 6477 4005 8368 4607 1870 5008 3953 654 89 849 432 889 565 3064 988 1684 1644 1021 2321 290 2160 906 749 727 3360 599 4020 1544
is_linear=0
shrinkage=0.01


Tree=2
num_leaves=31
num_cat=0
split_feature=48 7 56 56 39 33 12 9 48 37 18 5 32 46 56 4 35 5 46 1 38 33 1 56 55 20 38 32 37 12
split_gain=770.993 168.31 120.261 58.7716 50.4079 38.4705 38.0589 24.2414 21.9097 19.8841 21.6123 19.4984 18.8995 18.445 18.3674 18.512 18.2788 17.3869 17.0507 15.5912 14.8074 14.7842 14.4702 14.4258 15.7259 13.9685 13.9153 13.6796 13.4505 12.506
threshold=26.500000000000004 25572955.500000004 27355.500000000004 36302.000000000007 103.50000000000001 24.500000000000004 2229161.0000000005 846053.50000000012 18.500000000000004 52.500000000000007 37321324.500000007 2222383.0000000005 281.50000000000006 22.500000000000004 20956.000000000004 60762118.000000007 55.500000000000007 12645134.000000002 17.500000000000004 1738070.0000000002 14.500000000000002 12.500000000000002 6746078.0000000009 20120.500000000004 324.00000000000006 19805868.000000004 17.500000000000004 543.50000000000011 45.500000000000007 2694436.5000000005
decision_type=2 2 2 2 2 2 2 2 2 2 2 2 2 2 2 2 2 2 2 2 2 2 2 2 2 2 2 2 2 2
left_child=2 3 6 17 7 8 19 16 11 12 -11 29 -7 26 15 28 -3 18 -2 -1 -21 -22 -5 24 -23 -13 -10 -6 -8 -4
right_child=1 4 5 22 27 9 14 -9 13 10 -12 25 -14 -15 -16 -17 -18 -19 -20 20 21 23 -24 -25 -26 -27 -28 -29 -30 -31
leaf_value=0.030065906811112719 0.0038763044015490545 0.0019737061514931054 0.0079084616986665711 -0.0020431123630606446 -0.0061760686376033797 0.0068264202842966181 0.017988194327499121 -0.0044557200945965856 0.0028886307648670812 0.00052044304743169799 0.023213523485721702 0.0082231995071942888 -0.0041457670905859492 0.012415704856975381 0.0038435321105832494 0.0046895961052435568 -0.0042331015413363043 0.018121076920046532 -0.0056872277100855897 0.0087977265355930392 0.020596881431519352 0.0087230414954733698 0.013267796305742888 0.010481363897856016 0.021331939572238046 0.018001322921671909 0.0063124937032840844 -0.0091752545154738362 0.0066415192131665923 0.00072792079384968538
leaf_weight=5.6801787614822379 309.00878055393696 117.22959305346012 86.374795138835907 455.84008157253265 430.52166655659676 18.863345950841904 33.877410769462585 798.44417756795883 421.96227940917015 11.173315644264223 6.7213227599859229 30.340299397706985 93.575675457715988 26.275369435548782 78.663803994655609 31.787291556596756 79.707989618182182 8.1096673011779767 19.839444756507874 54.707276225090027 34.729792565107346 14.14015546441078 6.2574164271354666 75.065679714083672 32.919919595122337 28.178040832281113 165.16494584083557 235.13866077363491 15.105464950203894 33.725856825709343
leaf_count=28 1544 587 430 2290 2171 94 168 4020 2110 56 33 151 471 131 393 158 401 40 100 272 171 70 31 372 163 139 823 1189 75 169
internal_value=0 -0.00329111 0.00623209 0.0004801 -0.00510527 0.00428768 0.0109933 -0.00368068 0.00511615 -0.0007468 0.00904409 0.00819833 -0.00230502 0.00421864 0.00728285 0.0106325 -0.000538421 0.00365605 0.00329934 0.0137164 0.0132774 0.0148398 -0.00183578 0.0132026 0.0175433 0.0129316 0.0038518 -0.0072355 0.0144891 0.00589207
internal_weight=0 2460.1 1299.03 799.055 1661.04 922.355 376.677 995.382 792.022 130.334 17.8946 178.619 112.439 613.403 159.434 80.7702 196.938 336.958 328.848 217.243 211.563 156.856 462.097 122.126 47.0601 58.5183 587.127 665.66 48.9829 120.101
internal_count=18850 12373 6477 4005 8368 4607 1870 5008 3953 654 89 889 565 3064 794 401 988 1684 1644 1076 1048 776 2321 605 233 290 2933 3360 243 599
is_linear=0
shrinkage=0.01


Tree=3
num_leaves=31
num_cat=0
split_feature=48 56 48 39 12 56 33 7 45 48 12 5 48 39 34 1 37 16 38 19 56 37 48 5 52 48 5 15 17 38
split_gain=756.316 180.333 80.175 72.4956 48.8997 37.0591 27.5364 22.9915 21.8614 21.0072 17.6166 16.3739 16.3369 19.0205 15.971 15.8439 15.3189 16.7082 15.2733 15.2491 14.3875 14.1578 13.9935 14.5505 13.8347 13.7794 13.4289 13.1443 12.3956 12.3776
threshold=32.500000000000007 27355.500000000004 24.500000000000004 103.50000000000001 2019832.0000000002 36500.500000000007 23.500000000000004 7535719.0000000009 54.500000000000007 46.500000000000007 3499167.5000000005 8868429.0000000019 21.500000000000004 39.500000000000007 86.500000000000014 2559193.0000000005 37.500000000000007 3720095.5000000005 17.500000000000004 44119152.500000007 37572.500000000007 55.500000000000007 17.500000000000004 2222383.0000000005 1.0000000180025095e-35 17.500000000000004 996929.50000000012 7500061.0000000009 12927047.500000002 26.500000000000004
decision_type=2 2 2 2 2 2 2 2 2 2 2 2 2 2 2 2 2 2 2 2 2 2 2 2 2 2 2 2 2 2
left_child=1 4 6 5 12 9 8 -6 -3 -2 16 22 26 -14 15 18 -4 24 -15 -5 -13 25 23 -10 -18 -8 27 -1 -23 -9
right_child=3 2 10 19 7 -7 21 29 11 -11 -12 20 13 14 -16 -17 17 -19 -20 -21 -22 28 -24 -25 -26 -27 -28 -29 -30 -31
leaf_value=0.025146420295718508 0.0026989911824084629 0.023770827835243521 -0.0012909033805059732 -0.0040160065464673331 0.013195214178350231 -0.0038482768500766426 0.012746067263246742 0.0041230523119153498 0.0061815461626800019 -0.0029211981688775225 -0.001961147127843804 0.01629367077073976 -0.009615012246453265 0.0013348176035251772 0.005120985254213061 0.017008878729646033 0.0030175722113830994 -0.0078017716220996226 0.016347448930870298 -0.0077386003958554118 0.0069714108492811237 -0.0018839537421795271 0.0041782273147596321 0.01515629425139609 0.012866911835983879 -0.0020441226287553015 0.019779919690747827 0.011825200950006328 0.020448986459946965 0.011602232739094678
leaf_weight=8.1719072014093381 157.3941309005022 6.6409995555877677 127.10317473113537 137.83448722958565 43.183560341596603 971.88891074061394 6.7813204973936072 166.23130241036415 75.81438347697258 115.17333367466927 255.2959665954113 23.839086577296257 4.6501984745264044 16.386539950966839 32.076005175709724 48.167232245206833 197.38429528474808 13.354836791753767 11.555574744939802 545.71230953931808 54.185703441500664 4.1936227083206159 452.16802024841309 23.715617910027504 15.371835231781004 88.598768994212151 45.338942751288414 79.148091733455658 6.1008713692426682 25.524986565113068
leaf_count=40 787 33 637 696 214 4896 34 827 377 579 1281 118 23 81 159 238 989 67 57 2764 269 21 2254 117 77 445 223 390 30 127
internal_value=0 0.00460257 0.00273077 -0.00437153 0.00986436 -0.0029344 0.00493718 0.00660315 0.00572218 0.000324181 4.02083e-05 0.00553184 0.0129854 0.0101883 0.0110395 0.0135338 0.00148675 0.00304814 0.00754335 -0.00698795 0.00981966 0.000209932 0.00492543 0.00832001 0.0037292 -0.000992572 0.0153645 0.0130719 0.0113513 0.00511862
internal_weight=0 1830.98 1350.55 1928 480.434 1244.46 742.038 234.94 636.364 272.567 608.51 629.723 245.494 112.836 108.185 76.1093 353.214 226.111 27.9421 683.547 78.0248 105.675 551.698 99.53 212.756 95.3801 132.659 87.32 10.2945 191.756
internal_count=18850 9128 6749 9722 2379 6262 3698 1168 3168 1366 3051 3135 1211 558 535 376 1770 1133 138 3460 387 530 2748 494 1066 479 653 430 51 954
is_linear=0
shrinkage=0.01


Tree=4
num_leaves=31
num_cat=0
split_feature=48 56 48 39 12 56 33 7 45 48 11 5 48 39 34 1 19 38 56 37 37 12 48 5 8 48 5 56 32 15
split_gain=741.214 175.421 78.3109 71.5257 47.3237 36.4285 26.8587 22.2891 21.0982 20.5884 17.3779 15.9059 15.7508 18.5484 15.4522 15.273 15.0764 14.8061 13.8989 13.8125 13.6932 16.8586 13.6108 14.0791 13.5595 13.4462 12.9895 14.161 14.7871 12.5725
threshold=32.500000000000007 27355.500000000004 24.500000000000004 103.50000000000001 2019832.0000000002 36500.500000000007 23.500000000000004 7535719.0000000009 54.500000000000007 46.500000000000007 5757598.5000000009 8868429.0000000019 21.500000000000004 39.500000000000007 86.500000000000014 2559193.0000000005 44119152.500000007 17.500000000000004 37572.500000000007 55.500000000000007 37.500000000000007 3390356.5000000005 17.500000000000004 2222383.0000000005 24342408.500000004 17.500000000000004 10045244.500000002 19632.000000000004 238.50000000000003 10054915.500000002
decision_type=2 2 2 2 2 2 2 2 2 2 2 2 2 2 2 2 2 2 2 2 2 2 2 2 2 2 2 2 2 2
left_child=1 4 6 5 12 9 8 -6 -3 -2 20 22 26 -14 15 17 -5 -15 -13 25 -4 24 23 -10 -22 -8 27 28 -1 -29
right_child=3 2 10 16 7 -7 19 -9 11 -11 -12 18 13 14 -16 -17 -18 -19 -20 -21 21 -23 -24 -25 -26 -27 -28 29 -30 -31
leaf_value=0.0076952653823612075 0.0026687654922368433 0.02328883119631402 -0.0014077144528636199 -0.0039831814597083457 0.012987880585127551 -0.003816498798315718 0.012546550087053576 0.0050559209772407607 0.0061029862644783163 -0.0028958316340931128 -0.0032076906527266549 0.016016319341702147 -0.0095593457474206309 0.0013206960194580486 0.0050583529275357794 0.016714647572650846 -0.0076886770144402299 0.016069679721900095 0.0068804879495233257 0.011182947035728459 0.0034878972054127114 -0.00074484704261568277 0.004128745845325181 0.014906353368687768 0.017680908595132109 -0.0020255594126985278 0.030702237368664322 0.017357921418692617 0.021901043417774546 0.0092035298021876984
leaf_weight=9.2075372189283353 157.58398927748203 6.7103057503700247 165.49828781187534 137.58194418251514 43.432929053902626 970.19014438986778 6.8200694620609275 192.19010899960995 76.021335452795029 115.02116942405701 129.66772682964802 24.008521407842636 4.6306035071611396 16.39608828723431 32.148070096969604 48.5231644064188 543.77292247116566 11.637346938252447 54.351886317133904 10.34449742734432 183.75141988694668 122.61502011120319 453.00691814720631 23.871343046426773 6.9871869981288901 88.517025470733643 5.1375313252210608 29.009842067956924 35.885310783982277 54.296231389045715
leaf_count=45 787 33 830 696 214 4896 34 954 377 579 652 118 23 81 159 238 2764 57 269 51 919 615 2254 117 35 445 25 142 175 266
internal_value=0 0.00454727 0.00270016 -0.00433655 0.00972372 -0.00290897 0.0048771 0.00651804 0.0056506 0.000320877 3.9782e-05 0.0054631 0.0127833 0.0100415 0.0108765 0.0133197 -0.00694045 0.00744335 0.00967958 0.000207735 0.000919161 0.0021481 0.00486552 0.00820673 0.00400782 -0.000983124 0.0151103 0.0144865 0.0190004 0.0120432
internal_weight=0 1834.67 1352.17 1924.15 482.495 1242.8 743.652 235.623 637.97 272.605 608.52 631.26 246.872 113.335 108.705 76.5566 681.355 28.0334 78.3604 105.682 478.852 313.354 552.9 99.8927 190.739 95.3371 133.536 128.399 45.0928 83.3061
internal_count=18850 9128 6749 9722 2379 6262 3698 1168 3168 1366 3051 3135 1211 558 535 376 3460 138 387 530 2399 1569 2748 494 954 479 653 628 220 408
is_linear=0
shrinkage=0.01


Tree=5
num_leaves=31
num_cat=0
split_feature=48 56 48 39 12 56 33 7 45 48 11 5 48 39 34 19 1 38 50 13 12 8 56 34 56 48 5 48 5 56
split_gain=726.433 170.676 76.4952 70.5686 45.8182 35.808 26.1999 21.6149 20.3744 20.1781 17.0494 15.4549 15.1936 18.0912 14.9568 14.9059 14.7306 14.3582 13.6221 13.4715 14.0381 14.9835 13.6434 16.1787 13.4334 13.241 13.6287 12.7974 12.7151 12.4736
threshold=32.500000000000007 27355.500000000004 24.500000000000004 103.50000000000001 2019832.0000000002 36500.500000000007 23.500000000000004 7535719.0000000009 54.500000000000007 46.500000000000007 5757598.5000000009 8868429.0000000019 21.500000000000004 39.500000000000007 86.500000000000014 44119152.500000007 2559193.0000000005 17.500000000000004 5.5000000000000009 8987651.0000000019 3652584.5000000005 22783336.500000004 37825.500000000007 99.500000000000014 37572.500000000007 17.500000000000004 2222383.0000000005 17.500000000000004 996929.50000000012 19632.000000000004
decision_type=2 2 2 2 2 2 2 2 2 2 2 2 2 2 2 2 2 2 2 2 2 2 2 2 2 2 2 2 2 2
left_child=1 4 6 5 12 9 8 -6 -3 -2 19 25 28 -14 16 -5 17 -15 27 -4 21 22 23 -21 -13 26 -10 -8 29 -1
right_child=3 2 10 15 7 -7 18 -9 11 -11 -12 24 13 14 -16 -17 -18 -19 -20 20 -22 -23 -24 -25 -26 -27 -28 -29 -30 -31
leaf_value=0.017654936891246181 0.0026389222106296094 0.022826548512574315 -0.012474357188597889 -0.003950590018795018 0.012785854147881637 -0.0037849495436792454 0.01228443777556449 0.0049941946157269698 0.0060257269059396995 -0.0028706616057380457 -0.0031802523221042323 0.015747263203313627 -0.0095041207874233362 0.0013067328275180898 0.0049966775101018433 -0.0076390771357074004 0.016429507045237286 0.015800221062039523 0.018200034262444386 0.004010251917236537 -0.0011810759507835443 0.01374493364289699 0.00049997784958350736 0.020479467628323547 0.0067911547455616105 0.0040799694621012012 0.014663471187595223 -0.0014946979421021824 0.01912491032485902 0.0098263909711822969
leaf_weight=31.793029651045799 157.77149146795273 6.7773977220058432 7.4042922854423514 137.33106100559235 43.676770880818367 968.50275337696075 7.258628010749816 192.61769174039364 76.225061342120171 114.8701463341713 129.47954142093658 24.173700451850891 4.6110335439443579 16.405528903007511 32.219076991081238 541.84023554623127 48.869884833693504 11.717047169804571 4.0459028780460349 85.675170838832855 169.74873475730419 11.234734341502188 198.57358030974865 6.4111945480108252 54.515352800488472 453.83429071307182 24.023300662636757 94.383951559662819 46.034400209784508 56.563985332846642
leaf_count=154 787 33 37 696 214 4896 36 954 377 579 652 118 23 81 159 2764 238 57 20 427 852 56 995 32 269 2254 117 474 223 276
internal_value=0 0.00449284 0.00266995 -0.00430181 0.00958618 -0.00288374 0.00481797 0.00643441 0.00558019 0.000317609 3.93612e-05 0.00539547 0.0125866 0.00989823 0.0107174 -0.00689325 0.0131114 0.00734533 0.000205588 0.000909575 0.00111969 0.00241336 0.00197536 0.00515686 0.00954252 0.00480651 0.00809566 -0.000510685 0.0148635 0.0126433
internal_weight=0 1838.27 1353.76 1920.32 484.508 1241.14 745.238 236.294 639.549 272.642 608.527 632.772 248.214 113.823 109.212 679.171 76.9925 28.1226 105.688 479.048 471.643 301.895 290.66 92.0864 78.6891 554.083 100.248 101.643 134.391 88.357
internal_count=18850 9128 6749 9722 2379 6262 3698 1168 3168 1366 3051 3135 1211 558 535 3460 376 138 530 2399 2362 1510 1454 459 387 2748 494 510 653 430
is_linear=0
shrinkage=0.01


Tree=6
num_leaves=31
num_cat=0
split_feature=48 56 48 39 12 56 33 7 16 45 11 5 19 48 39 34 1 48 37 38 37 37 12 44 48 22 10 56 48 8
split_gain=711.963 166.092 74.7264 69.6239 44.3792 35.1975 25.5597 20.9674 20.0948 19.6874 16.727 15.0202 14.7374 14.6633 17.6483 14.4834 14.2148 13.9886 13.9665 13.9283 13.3966 13.3523 16.1953 13.0452 13.4505 18.5171 18.5811 12.9897 12.8223 12.8094
threshold=32.500000000000007 27355.500000000004 24.500000000000004 103.50000000000001 2019832.0000000002 36500.500000000007 23.500000000000004 7535719.0000000009 342244.50000000006 54.500000000000007 5757598.5000000009 8868429.0000000019 44119152.500000007 21.500000000000004 39.500000000000007 86.500000000000014 2559193.0000000005 45.500000000000007 36.500000000000007 17.500000000000004 55.500000000000007 37.500000000000007 3390356.5000000005 16.500000000000004 17.500000000000004 23992964.000000004 53705329.500000007 37572.500000000007 17.500000000000004 24342408.500000004
decision_type=2 2 2 2 2 2 2 2 2 2 2 2 2 2 2 2 2 2 2 2 2 2 2 2 2 2 2 2 2 2
left_child=1 4 6 5 13 8 9 -6 17 -3 21 23 -5 -1 -15 16 19 18 -2 -16 28 -4 29 24 25 26 -11 -13 -8 -23
right_child=3 2 10 12 7 -7 20 -9 -10 11 -12 27 -14 14 15 -17 -18 -19 -20 -21 -22 22 -24 -25 -26 -27 -28 -29 -30 -31
leaf_value=0.014623655245721375 -0.0024971615295910697 0.022382747031869502 -0.0013988855202196849 -0.0039182311511631023 0.01258892291258731 -0.0037536290467272593 0.012160757272324327 0.0049334064562138267 -0.0051279079138110062 0.0085971765666034445 -0.0031530223134977231 0.015486113540066128 -0.0075897976918930105 -0.0094493265030085854 0.0012929261380567063 0.0049359372398882356 0.01615301680733832 -0.0012902947467194805 0.0055834822499545326 0.015538684175504889 0.010976343265648215 0.0034225075377649424 -0.00072676486639681461 0.0001769982939455475 0.0044764899322282279 0.015324304692008439 -0.0042880397327663237 0.0067033709039592028 -0.0019976169878446553 0.017124674874712146
leaf_weight=135.22508804500103 27.300815686583519 6.8423294425010672 165.42755568027496 137.08183267712593 43.915203660726547 966.8267138749361 6.8954256027936927 193.03903092443943 54.327983647584915 49.629877820611 129.29271587729454 24.334719657897949 539.91442313790321 4.5914919674396506 16.414863616228107 32.289043605327606 49.207603394985199 92.267684400081635 98.780428096652031 11.794722884893416 10.406769871711729 184.21536982059479 122.51173162460327 56.115283191204071 406.07085609436035 28.981515124440193 14.449956223368643 54.67614957690239 88.393700048327446 7.085017502307891
leaf_count=653 136 33 830 696 214 4896 34 954 273 244 652 118 2764 23 81 159 238 465 492 57 51 919 615 278 2013 142 71 269 445 35
internal_value=0 0.00443926 0.00264014 -0.00426733 0.00945165 -0.00285871 0.00475974 0.00635222 0.000314375 0.00551092 3.89344e-05 0.00532891 -0.00684636 0.012395 0.00975819 0.0105621 0.0129086 0.00166848 0.00383375 0.00724923 0.000203462 0.000900083 0.002112 0.00474841 0.00526235 0.00869143 0.00569157 0.00940839 -0.000973072 0.00392998
internal_weight=0 1841.81 1355.33 1916.5 486.477 1239.5 746.797 236.954 272.677 641.101 608.532 634.258 676.996 249.523 114.298 109.706 77.4172 218.349 126.081 28.2096 105.696 479.24 313.812 555.247 499.132 93.0613 64.0798 79.0109 95.2891 191.3
internal_count=18850 9128 6749 9722 2379 6262 3698 1168 1366 3168 3051 3135 3460 1211 558 535 376 1093 628 138 530 2399 1569 2748 2470 457 315 387 479 954
is_linear=0
shrinkage=0.01


Tree=7
num_leaves=31
num_cat=0
split_feature=48 56 48 39 12 56 33 16 45 38 55 3 43 1 19 44 33 56 38 3 32 37 22 7 48 37 37 56 9 32
split_gain=697.799 161.745 73.0124 68.6914 43.9931 34.5964 23.4631 19.7232 18.4901 17.2542 19.6364 16.7119 15.451 15.1038 14.571 14.4254 14.074 15.8201 17.0704 15.4659 20.2154 13.9499 13.7963 17.9271 13.6844 13.6465 13.1653 13.1509 12.4449 12.144
threshold=32.500000000000007 30106.000000000004 24.500000000000004 103.50000000000001 2229161.0000000005 36500.500000000007 23.500000000000004 342244.50000000006 54.500000000000007 17.500000000000004 4759.5000000000009 113621281.00000001 8.5000000000000018 25355575.500000004 44119152.500000007 16.500000000000004 36.500000000000007 20956.000000000004 26.500000000000004 1199253.5000000002 291.50000000000006 37.500000000000007 25644952.500000004 12192142.500000002 45.500000000000007 36.500000000000007 55.500000000000007 37825.500000000007 846053.50000000012 543.50000000000011
decision_type=2 2 2 2 2 2 2 2 2 2 2 2 2 2 2 2 2 2 2 2 2 2 2 2 2 2 2 2 2 2
left_child=1 4 6 5 9 7 8 24 -3 -1 -11 15 13 21 -5 22 17 19 -19 -6 -21 27 -10 -24 25 -2 -8 -4 -7 -16
right_child=3 2 12 14 16 28 26 -9 11 10 -12 -13 -14 -15 29 -17 -18 18 -20 20 -22 -23 23 -25 -26 -27 -28 -29 -30 -31
leaf_value=0.0093460814248505584 -0.0024749475401698549 0.022384539265088006 0.0046204193617774862 -0.003886102826037336 0.0050079048381855206 -0.0017819397947540733 -0.0013219655721379937 -0.0050884824981156226 0.0041676646121664449 0.016334695010247112 0.0065611482944394764 0.019742616430656362 -0.0030460843723184119 -0.011669529824068556 -0.0063583705686517623 0.00023420552984552119 -0.0029023417996490502 0.0032551232019461403 0.017234268529915303 0.021531141993438401 0.0087358259738465928 0.0023523473287542251 0.015068565509950092 0.0063325077821024681 -0.0012781452008524849 0.0055139365755512496 0.011377660871885782 -0.0029827519906645218 -0.0043869741185276999 -0.0094497845091975983
leaf_weight=224.06608939170837 27.270541206002235 6.2782350778579703 28.198806509375572 136.8342572748661 49.494678109884262 246.17426389455795 84.322215065360069 54.202058225870132 304.93046852946281 89.634355172514915 26.674444645643234 7.7154812961816779 153.8636237680912 9.6963685005903226 332.21272164583206 58.646272093057632 18.17516054213047 142.10949930548668 9.3075347989797574 17.691768854856491 40.875807732343674 259.11117757856846 27.526021525263786 160.19569438695908 92.213604211807251 99.024822756648064 9.0379109978675825 117.71640214323997 718.98778313398361 205.78292831778526
leaf_count=1089 136 30 141 696 243 1245 424 273 1505 434 130 38 774 49 1704 290 90 703 46 86 200 1296 135 789 465 492 44 592 3651 1060
internal_value=0 0.00438652 0.00228552 -0.00423311 0.00855852 -0.00283389 0.00455175 0.000311153 0.00531877 0.0109682 0.0140932 0.00512711 -0.000339689 0.000664393 -0.00679977 0.00492256 0.0056045 0.00620036 0.00411441 0.00912319 0.012601 0.000959668 0.00548067 0.00761349 0.00165055 0.00378892 -9.25532e-05 -0.0015134 -0.00372253 -0.00754083
internal_weight=0 1845.27 1227.24 1912.7 618.029 1237.87 658.652 272.711 565.292 340.375 116.309 559.014 568.586 414.723 674.83 551.298 277.654 259.479 151.417 108.062 58.5676 405.026 492.652 187.722 218.509 126.295 93.3601 145.915 965.162 537.996
internal_count=18850 9128 6107 9722 3021 6262 3255 1366 2787 1653 564 2757 2852 2078 3460 2719 1368 1278 749 529 286 2029 2429 924 1093 628 468 733 4896 2764
is_linear=0
shrinkage=0.01


Tree=8
num_leaves=31
num_cat=0
split_feature=48 56 48 39 12 56 33 7 11 45 11 5 19 15 39 5 39 48 13 12 8 50 56 34 32 44 56 48 5 9
split_gain=683.927 157.712 71.2976 67.7711 41.949 34.0051 24.3643 20.0732 19.3626 18.4569 16.246 14.4859 14.4068 14.1858 15.3417 14.9023 14.6299 13.3318 13.2747 13.388 14.2447 13.0721 12.9873 15.6046 12.6235 13.7652 12.5205 12.4444 13.0813 12.2536
threshold=32.500000000000007 27355.500000000004 24.500000000000004 103.50000000000001 2019832.0000000002 36500.500000000007 23.500000000000004 7535719.0000000009 5025642.0000000009 54.500000000000007 5757598.5000000009 8868429.0000000019 44119152.500000007 7500061.0000000009 40.500000000000007 1017494.5000000001 57.500000000000007 45.500000000000007 8987651.0000000019 3652584.5000000005 22783336.500000004 5.5000000000000009 37825.500000000007 99.500000000000014 298.50000000000006 18.500000000000004 37572.500000000007 17.500000000000004 2222383.0000000005 846053.50000000012
decision_type=2 2 2 2 2 2 2 2 2 2 2 2 2 2 2 2 2 2 2 2 2 2 2 2 2 2 2 2 2 2
left_child=1 4 6 5 13 8 9 -6 17 -3 18 27 -5 -1 -15 -16 -17 24 -4 20 22 -8 23 -20 -2 -26 -13 28 -11 -7
right_child=3 2 10 12 7 29 21 -9 -10 11 -12 26 -14 14 15 16 -18 -19 19 -21 -22 -23 -24 -25 25 -27 -28 -29 -30 -31
leaf_value=0.021653934819231072 -0.0021446562719995483 0.021567018670455455 -0.012431319151096215 -0.0038542030064610097 0.012261022275185971 -0.0017655665296364353 -0.00051106543244071128 0.0048012171485000152 -0.0046328462508972842 0.0057781445595950975 -0.0031131255052559209 0.015125989468003453 -0.0074922058970433658 0.0024492354493221408 0.01007207950718057 0.017588955284927411 0.0077031373107457829 -0.0013706921100893172 0.0038910089293962766 -0.0011573429745436428 0.013337849873520952 0.01771583015415721 0.00048309152883458094 0.019974729630850369 0.0067594045804952856 -0.0049802213841906437 0.006537808533243478 0.0039242760456314838 0.014192805742125154 -0.0043519531604222584
leaf_weight=14.470770776271818 28.151411652565002 6.9627931863069525 7.3717599064111701 136.58834359049797 44.312611550092697 245.97362054884434 101.63613395392895 193.95324872434139 61.447319567203522 76.877968057990074 129.01789923012257 24.557625383138657 536.08263039588928 17.518094003200531 133.19049732387066 67.538333579897881 19.232726514339447 83.240804418921471 86.05992229282856 169.55604521930218 11.361007422208784 4.0932450145483008 198.71836718916893 6.486940309405326 88.647215321660042 11.256132706999777 54.979711070656776 456.47568012773991 24.318750470876694 717.5332700163126
leaf_count=69 140 33 37 696 214 1245 510 954 310 377 652 118 2764 85 641 323 93 420 427 852 56 20 995 32 440 56 269 2254 117 3651
internal_value=0 0.0043345 0.00257994 -0.00419915 0.0091967 -0.00280927 0.00464373 0.00618859 0.000307967 0.00537398 3.68753e-05 0.00519704 -0.0067535 0.0120414 0.0114557 0.012173 0.0153978 0.00174482 0.000884343 0.00109223 0.00235262 0.000194577 0.00192414 0.00501837 0.00377002 0.0054367 0.00918946 0.00462763 0.00780029 -0.00369167
internal_weight=0 1848.69 1358.47 1908.92 490.216 1236.25 749.902 238.266 272.743 644.173 608.572 637.21 672.671 251.95 237.48 219.962 86.7711 211.296 479.554 472.182 302.626 105.729 291.265 92.5469 128.055 99.9033 79.5373 557.672 101.197 963.507
internal_count=18850 9128 6749 9722 2379 6262 3698 1168 1366 3168 3051 3135 3460 1211 1142 1057 416 1056 2399 2362 1510 530 1454 459 636 496 387 2748 494 4896
is_linear=0
shrinkage=0.01


Tree=9
num_leaves=31
num_cat=0
split_feature=48 56 48 39 12 56 11 16 38 55 48 6 19 45 33 56 38 3 32 37 48 37 21 15 32 55 48 12 8 37
split_gain=670.35 153.752 69.9128 66.8621 41.5264 33.4232 25.4018 19.2444 16.5354 18.7244 14.5422 15.97 14.2444 14.096 13.6677 15.2046 16.559 14.8618 19.3487 13.322 13.1048 13.2203 12.2192 12.0957 12.0821 11.8077 11.6992 11.5872 19.1471 11.9722
threshold=32.500000000000007 30106.000000000004 20.500000000000004 103.50000000000001 2229161.0000000005 36500.500000000007 5835980.5000000009 342244.50000000006 17.500000000000004 4759.5000000000009 24.500000000000004 4177241.5000000005 44119152.500000007 56.500000000000007 36.500000000000007 20956.000000000004 26.500000000000004 1199253.5000000002 291.50000000000006 40.500000000000007 45.500000000000007 36.500000000000007 5638209.0000000009 9717148.0000000019 543.50000000000011 3987.5000000000005 27.500000000000004 3390356.5000000005 22783336.500000004 35.500000000000007
decision_type=2 2 2 2 2 2 2 2 2 2 2 2 2 2 2 2 2 2 2 2 2 2 2 2 2 2 2 2 2 2
left_child=1 4 13 5 8 7 10 20 26 -10 11 -4 -5 -3 15 17 -17 -6 -19 -15 21 -2 -7 -22 -14 -21 -1 28 29 -12
right_child=3 2 6 12 14 22 -8 -9 9 -11 27 -13 24 19 -16 16 -18 18 -20 25 23 -23 -24 -25 -26 -27 -28 -29 -30 -31
leaf_value=0.0097728607999415691 -0.0024589448551683257 0.020339317478555618 -0.0029595139118890352 -0.0038225309184435736 0.0048781685072075975 -0.0033273867540984563 -0.0027061005872014627 -0.0050388891525417877 0.01587689456985859 0.0063685095374439397 -0.0023764805092232762 0.004182241298319388 -0.0062611063983821474 0.0045736851198998323 -0.002914266028045918 0.0031625327421820259 0.016871002741731408 0.020973921616292746 0.0085217838169719916 0.012888265738524377 0.014594282785880508 0.0054033505977104544 -0.0074685045259001341 -0.0020752494714110846 -0.0093561921177596884 0.0058125659337857332 0.001612330916560534 -0.0016322092117913316 0.01450333037516038 0.0024368918208194134
leaf_weight=206.66310602426529 27.248542711138725 6.9289763867855063 35.589343458414078 136.34408330917358 49.721499934792519 884.36450265347958 167.43417650461197 54.041980177164078 90.651171967387199 26.843516558408737 70.115633517503738 260.45478217303753 330.04839996993542 220.86669220030308 18.18554912507534 142.60977551341057 9.3919339179992658 17.910044834017754 41.147424414753914 43.496204629540443 4.5808624178171149 99.413043424487114 77.498102635145187 87.48883256316185 204.13009552657604 51.518744558095932 19.199999749660492 165.60134644806385 11.225288093090056 196.47190538048744
leaf_count=995 136 33 176 696 243 4501 844 273 434 130 352 1285 1704 1084 90 703 46 86 200 213 23 492 395 442 1060 253 94 833 55 979
internal_value=0 0.00428333 0.00223361 -0.00416543 0.00833354 -0.00278485 0.000811038 0.000304805 0.0106619 0.0137046 0.00160742 0.00332369 -0.0067075 0.00623013 0.00546771 0.00605222 0.00400956 0.00890653 0.0122981 0.00592064 0.00162507 0.00371195 -0.00366104 -0.00124587 -0.00744386 0.0090517 0.00907916 0.000461556 0.00170963 0.00117092
internal_weight=0 1852.03 1229.7 1905.16 622.324 1234.64 906.892 272.773 343.358 117.495 739.458 296.044 670.523 322.811 278.966 260.781 152.002 108.779 59.0575 315.882 218.731 126.662 961.863 92.0697 534.178 95.0149 225.863 443.414 277.813 266.588
internal_count=18850 9128 6107 9722 3021 6262 4524 1366 1653 564 3680 1461 3460 1583 1368 1278 749 529 286 1550 1093 628 4896 465 2764 466 1089 2219 1386 1331
is_linear=0
shrinkage=0.01


Tree=10
num_leaves=31
num_cat=0
split_feature=48 56 48 39 12 16 56 33 7 45 11 19 5 48 39 34 1 48 13 38 9 22 37 11 48 44 48 22 10 56
split_gain=657.051 149.845 68.0683 65.9653 39.6922 32.8686 31.2564 23.5218 19.2283 17.5344 15.6703 14.0841 14.0486 13.9737 16.811 13.838 13.6193 13.2447 13.0734 13.0194 12.8507 14.3863 12.6882 12.5792 12.4533 12.3207 12.5312 17.4765 17.9892 12.0253
threshold=32.500000000000007 27355.500000000004 24.500000000000004 103.50000000000001 2019832.0000000002 280117.00000000006 37346.500000000007 23.500000000000004 7535719.0000000009 54.500000000000007 5757598.5000000009 44119152.500000007 8868429.0000000019 21.500000000000004 39.500000000000007 86.500000000000014 2559193.0000000005 45.500000000000007 8987651.0000000019 17.500000000000004 853915.50000000012 20916841.500000004 55.500000000000007 2551187.5000000005 17.500000000000004 16.500000000000004 17.500000000000004 23992964.000000004 53705329.500000007 37572.500000000007
decision_type=2 2 2 2 2 2 2 2 2 2 2 2 2 2 2 2 2 2 2 2 2 2 2 2 2 2 2 2 2 2
left_child=1 4 7 5 13 6 17 9 -6 -3 18 -5 25 -1 -15 16 19 -2 -4 -16 21 23 24 -20 -9 26 27 28 -11 -14
right_child=3 2 10 11 8 -7 -8 22 -10 12 -12 -13 29 14 15 -17 -18 -19 20 -21 -22 -23 -24 -25 -26 -27 -28 -29 -30 -31
leaf_value=0.013856914199336745 0.0036883325068816876 0.020921271852499309 -0.012382904731360613 -0.0037910853463881599 0.011946207924141148 -0.0048984117275127541 -0.0027912455333703079 0.011905393524098114 0.0046736436142938249 0.0082291757998361244 -0.0030643845779490743 -0.007395841004642364 0.014782722749343542 -0.0095366283303107095 0.00096372977588112061 0.0044683188755316582 0.015335204254104055 -0.0012271976062197157 0.0017564034668354068 0.014605114479799106 -0.00055381612990431902 0.0050058958841290588 0.010581262908292999 -0.0068283336428541777 -0.0020008992263876894 7.9393422655684909e-05 0.0042532250803898738 0.014683004908796296 -0.0044032864676300373 0.0063972485806680747
leaf_weight=137.9061229377985 130.76911115646362 7.0588444471359244 7.3347134292125693 136.10148352384567 44.694863021373749 454.24870909750462 553.63941659033298 6.9455511868000022 194.83430816233158 50.205135807394981 128.68295758962631 532.28001517057419 24.770976334810257 4.6222931891679755 16.636840716004375 32.827920734882355 50.212588459253311 94.375312775373459 83.989010319113731 12.07383933663368 239.79624581336975 127.38589876890182 10.526159286499022 21.422206282615662 88.406333073973656 56.352666020393372 409.40001301467419 29.463522911071777 14.537038654088972 55.237402975559235
leaf_count=653 648 33 37 696 214 2316 2821 34 954 244 652 2764 118 23 81 159 238 477 419 57 1200 636 51 107 445 278 2013 142 71 269
internal_value=0 0.00423286 0.00252135 -0.00413196 0.00895179 -0.00276062 -0.00151369 0.00453166 0.00603067 0.00524666 3.44374e-05 -0.00666181 0.00507377 0.0117035 0.00915155 0.00992454 0.012194 0.00162786 0.000865324 0.00670041 0.00107094 0.00274454 0.000162238 1.17693e-05 -0.000987947 0.00451372 0.00500991 0.00829832 0.00539272 0.00899343
internal_weight=0 1855.32 1361.51 1901.41 493.809 1233.03 778.784 752.904 239.529 647.026 608.611 668.381 639.967 254.28 116.373 111.751 78.9233 225.144 479.928 28.7107 472.593 232.797 105.878 105.411 95.3519 559.958 503.606 94.2057 64.7422 80.0084
internal_count=18850 9128 6749 9722 2379 6262 3946 3698 1168 3168 3051 3460 3135 1211 558 535 376 1125 2399 138 2362 1162 530 526 479 2748 2470 457 315 387
is_linear=0
shrinkage=0.01


Tree=11
num_leaves=31
num_cat=0
split_feature=48 56 48 39 12 16 56 11 38 55 16 23 32 17 45 48 37 48 6 49 46 18 0 22 38 36 37 3 55 48
split_gain=644.032 146.319 66.9865 65.0797 39.2955 32.3523 30.6726 24.4406 15.9077 17.893 14.0352 14.9299 13.9515 13.3532 13.3521 12.9578 12.8665 11.9014 12.3259 12.8506 13.4422 12.4199 11.87 13.1597 15.5435 11.8073 11.7877 11.5455 11.3825 11.172
threshold=32.500000000000007 30106.000000000004 20.500000000000004 103.50000000000001 2229161.0000000005 280117.00000000006 37346.500000000007 5835980.5000000009 17.500000000000004 4759.5000000000009 1.0000000180025095e-35 4496996.5000000009 543.50000000000011 8035202.0000000009 56.500000000000007 45.500000000000007 40.500000000000007 26.500000000000004 8113203.0000000009 20.500000000000004 24.500000000000004 37796720.500000007 20591162.000000004 49791960.500000007 26.500000000000004 40.500000000000007 36.500000000000007 5665396.5000000009 3987.5000000000005 27.500000000000004
decision_type=2 2 2 2 2 2 2 2 2 2 2 2 2 2 2 2 2 2 2 2 2 2 2 2 2 2 2 2 2 2
left_child=1 4 14 5 8 6 15 10 29 -10 11 -4 -5 -6 -3 26 -16 18 19 20 -13 -21 23 -15 -25 -8 -2 -28 -18 -1
right_child=3 2 7 12 13 -7 25 -9 9 -11 -12 17 -14 22 16 -17 28 -19 -20 21 -22 -23 -24 24 -26 -27 27 -29 -30 -31
leaf_value=0.009497938131115399 -0.0021802347641342226 0.019721291781687265 -0.010535236993913849 -0.0055549591651466983 0.0076208208284040046 -0.0048605439399608246 -0.0038346704063136456 -0.002666115815852813 0.015450050912758036 0.0061872183010399252 -0.0013240993597051361 0.0036025650355072259 -0.0085892348949316195 0.0021336591071285079 0.004459063698850213 -0.0012156107670944845 0.012596632784207933 0.00064248172343252783 0.0080118378547724949 0.00050952132628973327 0.019110469255374695 -0.013929910390127274 -0.012016787346913024 0.0058132756236784064 0.022876471203191341 -0.00076697101094184343 0.0073066466939858479 -7.9181858830926311e-05 0.0056720965984965342 0.0015367232405610956
leaf_weight=208.31646643579006 27.452177941799164 7.022895708680152 9.0346057862043363 433.18846395611763 133.6446535140276 453.21500137448311 360.47359703481197 167.08143171668053 91.601367488503456 27.001640513539314 136.8030706346035 224.58869136869907 233.06321370601654 109.64797140657902 221.76779954135418 94.322412148118019 43.845286682248116 231.09308755397797 52.798591107130051 74.102593287825584 5.7320301532745352 6.4775727391242972 4.9215404838323584 25.25481079518795 6.7696445286273947 192.44896453619003 73.863430470228195 29.665008783340454 51.765062868595123 19.256169959902763
leaf_count=995 137 33 45 2243 650 2316 1839 844 434 130 684 1108 1217 537 1084 477 213 1157 260 366 28 32 24 124 33 982 364 147 253 94
internal_value=0 0.00418321 0.00218256 -0.00409872 0.00811835 -0.00273658 -0.00149965 0.000788651 0.0103718 0.0133412 0.00156802 0.00222326 -0.00661639 0.00533464 0.00608289 0.00161042 0.0057811 0.00241706 0.00354462 0.00278597 0.00398851 -0.000651217 0.0032504 0.00378076 0.00942026 -0.00276693 0.00364552 0.00519031 0.00884757 0.0088243
internal_weight=0 1858.53 1232.11 1897.69 626.414 1231.44 778.226 907.712 346.176 118.603 740.63 603.827 666.252 280.239 324.401 225.303 317.378 594.793 363.699 310.901 230.321 80.5802 146.594 141.672 32.0245 552.923 130.981 103.528 95.6103 227.573
internal_count=18850 9128 6107 9722 3021 6262 3946 4524 1653 564 3680 2996 3460 1368 1583 1125 1550 2951 1794 1534 1136 398 718 694 157 2821 648 511 466 1089
is_linear=0
shrinkage=0.01


Tree=12
num_leaves=31
num_cat=0
split_feature=48 56 48 39 12 16 56 33 7 45 12 19 16 37 37 45 15 39 5 39 9 48 52 50 32 48 36 37 48 44
split_gain=631.277 142.628 65.1236 64.2043 37.5254 31.8433 30.0992 22.6803 18.5224 16.6639 15.4053 13.9467 13.8031 15.3844 13.688 14.1438 13.4715 14.4874 14.0815 13.8464 13.4707 12.6774 12.6482 12.5741 11.9158 11.7221 11.6123 11.5196 11.4888 12.4931
threshold=32.500000000000007 27355.500000000004 24.500000000000004 103.50000000000001 2019832.0000000002 280117.00000000006 37346.500000000007 23.500000000000004 7535719.0000000009 54.500000000000007 3499167.5000000005 44119152.500000007 4048077.5000000005 37.500000000000007 40.500000000000007 95.500000000000014 7500061.0000000009 40.500000000000007 996929.50000000012 57.500000000000007 938622.00000000012 45.500000000000007 1.0000000180025095e-35 5.5000000000000009 543.50000000000011 17.500000000000004 40.500000000000007 36.500000000000007 17.500000000000004 9.5000000000000018
decision_type=2 2 2 2 2 2 2 2 2 2 2 2 2 2 2 2 2 2 2 2 2 2 2 2 2 2 2 2 2 2
left_child=1 4 7 5 16 6 21 9 -6 -3 12 -5 13 -4 28 20 -1 -18 -19 -20 -16 27 -15 25 -13 -9 -8 -2 -11 -30
right_child=3 2 10 11 8 -7 26 23 -10 14 -12 24 -14 22 15 -17 17 18 19 -21 -22 -23 -24 -25 -26 -27 -28 -29 29 -31
leaf_value=0.020647567730244322 -0.0021605421033720528 0.020304950668151953 -0.0010293938800191229 -0.0037084274609853279 0.011665591376865408 -0.0048229287773794835 -0.0038031388509557336 0.011550217453751841 0.0045527337299026442 0.007120407578031388 -0.0018514761707195588 -0.0061258981549666873 -0.0067230220916286712 0.0027676252184003079 0.012796919843887622 0.004785297236547306 0.0021141595958061215 0.0094404994208039123 0.016662688738039399 0.0072959438955189221 0.004888507352522416 -0.0012041271670959015 0.012068238137017434 0.01721229550945606 -0.0092167051484154175 -0.0015100142873423691 -0.00075957327337331057 0.0051268053785921523 0.0049097674910719103 0.0010535132389075902
leaf_weight=14.783517837524412 27.425504267215729 7.1508470922708502 119.13185776770115 135.46316741406918 45.037534341216087 452.18744172155857 359.83082564175129 7.4116631001234046 195.67220193147659 88.341219753026962 253.89961932599545 327.02945026755333 19.870494186878204 200.05782790482044 59.564353451132774 124.24688410758972 17.736484482884407 133.59212809801102 70.011791080236435 20.37472927570343 33.737804174423218 94.26998582482338 15.774951010942457 4.143062323331832 201.6410518437624 94.442969396710396 192.38033974170685 103.76111851632595 175.96181245148182 160.76968052983284
leaf_count=69 137 33 598 696 214 2316 1839 36 954 426 1281 1704 100 994 290 606 85 632 328 97 164 477 78 20 1060 474 982 511 861 788
internal_value=0 0.0041342 0.00246339 -0.00406573 0.00871946 -0.00271275 -0.00148575 0.00442404 0.00588357 0.00512372 2.91563e-05 -0.00657122 0.00137483 0.0018552 0.00495479 0.00699486 0.0113808 0.010814 0.0115029 0.0145513 0.00993726 0.00159319 0.0034474 0.000134981 -0.00730477 -0.000559659 -0.00274282 0.00360333 0.0039107 0.00306863
internal_weight=0 1861.71 1364.51 1893.99 497.208 1229.86 777.668 755.77 240.71 649.773 608.735 664.134 354.835 334.965 642.622 217.549 256.499 241.715 223.979 90.3865 93.3022 225.457 215.833 105.998 528.671 101.855 552.211 131.187 425.073 336.731
internal_count=18850 9128 6749 9722 2379 6262 3946 3698 1168 3168 3051 3460 1770 1670 3135 1060 1211 1142 1057 425 454 1125 1072 530 2764 510 2821 648 2075 1649
is_linear=0
shrinkage=0.01


Tree=13
num_leaves=31
num_cat=0
split_feature=48 56 48 39 12 9 11 38 55 37 32 56 19 16 23 33 56 38 3 35 45 15 7 36 56 17 15 54 10 10
split_gain=618.791 139.302 64.2708 63.3413 37.1735 31.3563 23.7074 15.2977 17.1168 13.9999 14.7993 14.1764 13.7897 13.5349 14.6366 13.1223 14.4094 15.887 14.1354 18.4556 12.6425 12.36 12.1053 12.6798 13.2891 14.999 11.9629 11.8536 11.83 14.9232
threshold=32.500000000000007 30106.000000000004 20.500000000000004 103.50000000000001 2229161.0000000005 846053.50000000012 5835980.5000000009 17.500000000000004 4759.5000000000009 40.500000000000007 362.50000000000006 24468.000000000004 44119152.500000007 1.0000000180025095e-35 4496996.5000000009 36.500000000000007 20956.000000000004 26.500000000000004 1199253.5000000002 34.500000000000007 56.500000000000007 96221052.000000015 24753592.000000004 30.500000000000004 36500.500000000007 6711855.0000000009 23064345.000000004 3.5000000000000004 113815257.50000001 116750102.00000001
decision_type=2 2 2 2 2 2 2 2 2 2 2 2 2 2 2 2 2 2 2 2 2 2 2 2 2 2 2 2 2 2
left_child=1 4 20 5 7 9 13 -1 -9 -2 -11 -12 -5 14 -4 16 18 -18 -6 -20 -3 -22 23 26 25 -25 -7 28 -24 -30
right_child=3 2 6 12 15 22 -8 8 -10 10 11 -13 -14 -15 -16 -17 17 -19 19 -21 21 -23 27 24 -26 -27 -28 -29 29 -31
leaf_value=0.0085788146006634224 -0.0027269547525014233 0.019127651577054903 -0.010485283181813637 -0.0036777972801411108 0.0046221341284336057 -0.0083857255963525699 -0.002639584395082249 0.015038665215323162 0.0060093358192864323 0.0035207621179489065 0.0039152932992139464 -0.0037732658787962303 -0.0072576156075000921 -0.0013094304777629081 0.0023656623600598376 -0.0029918424747429431 0.002963903401904357 0.016299502241070976 0.024116402549369021 0.0093110312665864777 0.0053795047225524686 0.020070143595678998 -0.0050914227005431434 0.018041303522807715 -0.0018200525289818568 0.0023240727098164842 0.0074239763562234246 0.010548423349594604 0.0096173821260529604 -0.002805873668838665
leaf_weight=229.22270251810551 151.99712969362736 7.1134433895349494 8.9965431839227659 135.22662641108036 50.168637335300446 30.129625797271729 166.84712500870228 92.520613476634026 27.157429084181786 125.58558516204357 34.322777643799782 79.594582721590996 526.79402233660221 136.70378829538822 595.98182000219822 18.255043238401413 143.68259982764721 9.5256662219762784 10.136994928121565 49.695965498685837 312.9729128330946 5.8338815718889228 548.10718913376331 8.1247802823781949 54.164612039923668 24.027772575616837 5.6900738924741736 5.3510995060205451 10.331414669752119 150.85251094400883
leaf_count=1089 770 33 45 696 243 153 844 434 130 633 171 404 2764 684 2951 90 703 46 48 238 1522 28 2812 40 277 119 29 27 53 774
internal_value=0 0.00408596 0.00213288 -0.004033 0.00791069 -0.0026891 0.000766238 0.0100918 0.0129897 -0.000353206 0.00115326 -0.00145674 -0.00652639 0.0015324 0.00217456 0.00520698 0.00577562 0.00379304 0.00853692 0.0118194 0.00594253 0.00564833 -0.00378199 -0.000872581 0.00120302 0.00629573 -0.0058743 -0.00427922 -0.00439108 -0.00200958
internal_weight=0 1864.82 1234.45 1890.3 630.366 1228.28 908.529 348.901 119.678 391.5 239.503 113.917 662.021 741.682 604.978 281.465 263.21 153.208 110.002 59.833 325.92 318.807 836.779 122.137 86.3172 32.1526 35.8197 714.642 709.291 161.184
internal_count=18850 9128 6107 9722 3021 6262 4524 1653 564 1978 1208 575 3460 3680 2996 1368 1278 749 529 286 1583 1550 4284 618 436 159 182 3666 3639 827
is_linear=0
shrinkage=0.01


Tree=14
num_leaves=31
num_cat=0
split_feature=48 56 48 39 12 16 56 33 3 45 38 55 43 1 32 44 37 22 7 33 56 38 3 32 56 37 48 36 46 35
split_gain=606.559 135.769 63.147 62.4883 36.1146 31.1574 29.1782 20.6375 15.4924 15.7441 14.8182 16.5644 14.5828 14.5473 13.7087 13.4026 13.2803 12.9974 16.7568 12.8185 14.0211 15.4231 13.7177 18.0306 12.789 12.41 12.2698 11.4305 11.2368 12.2454
threshold=32.500000000000007 30106.000000000004 24.500000000000004 103.50000000000001 2229161.0000000005 280117.00000000006 37346.500000000007 23.500000000000004 113621281.00000001 54.500000000000007 17.500000000000004 4759.5000000000009 8.5000000000000018 25355575.500000004 543.50000000000011 16.500000000000004 37.500000000000007 25644952.500000004 12192142.500000002 36.500000000000007 20956.000000000004 26.500000000000004 1199253.5000000002 291.50000000000006 37825.500000000007 55.500000000000007 45.500000000000007 40.500000000000007 20.500000000000004 29.500000000000004
decision_type=2 2 2 2 2 2 2 2 2 2 2 2 2 2 2 2 2 2 2 2 2 2 2 2 2 2 2 2 2 2
left_child=1 4 7 5 10 6 26 8 9 -3 -1 -12 13 16 -5 17 24 -11 -19 20 22 -22 -6 -24 -4 -9 -2 -8 29 -20
right_child=3 2 12 14 19 -7 27 25 -10 15 11 -13 -14 -15 -16 -17 -18 18 28 -21 21 -23 23 -25 -26 -27 -28 -29 -30 -31
leaf_value=0.0084641710818146847 0.003551233502794134 0.020083102944817046 0.0045432336550084666 -0.0054263379323949371 0.0045670759541889946 -0.0047579469708058913 -0.0037467103835580485 -0.0013559502166169005 0.018832445121285731 0.003798152832478557 0.014803127740538585 0.0059347706428481807 -0.0029752218090761985 -0.011546941485422553 -0.0084499694863481769 3.1316050675436262e-05 0.0022766556087772047 0.014245886567233711 0.018029975851993767 -0.0029657975354622089 0.0029305409380939325 0.016028307788973409 0.01991515282492962 0.0080187952674029978 -0.0029474493463296542 0.010898355354403739 -0.0011781544889418452 -0.00072366920190983718 0.01339764530160672 0.0043185322468209482
leaf_weight=230.00020608305931 131.43901687860489 6.5871449559926978 28.278213083744049 429.56105011701584 50.265219375491142 450.40653419494629 358.67666192352772 84.447733595967293 7.8798537552356711 309.06691426038742 93.050117209553719 27.223318234086037 153.27782443165779 9.578326001763342 230.3591050952673 59.156039133667946 259.88142286241055 28.117365896701813 6.8359275311231604 18.231320485472679 143.86423210799694 9.5896435528993589 18.328602954745293 41.786761552095413 117.4944894015789 9.1605488210916501 94.149763584136963 192.04584230482578 17.738918364048004 138.0466475635767
leaf_count=1089 648 30 141 2243 243 2316 1839 424 38 1505 434 130 774 49 1217 290 1296 135 33 90 703 46 86 200 592 44 477 982 85 671
internal_value=0 0.00403837 0.00210965 -0.00400049 0.00780697 -0.00266565 -0.00145172 0.00419674 0.00490741 0.00471339 0.00995153 0.0127958 -0.000339149 0.000633923 -0.0064818 0.00453226 0.000921539 0.00506499 0.00711773 0.00514382 0.00570421 0.00374905 0.00842233 0.0116459 -0.00149434 -0.000156738 0.00157742 -0.00269253 0.00588526 0.00496547
internal_weight=0 1867.89 1235.55 1886.64 632.339 1226.72 776.311 667.037 573.429 565.549 350.274 120.273 568.51 415.232 659.92 558.962 405.654 499.806 190.739 282.066 263.834 153.454 110.381 60.1154 145.773 93.6083 225.589 550.723 162.621 144.883
internal_count=18850 9128 6107 9722 3021 6262 3946 3255 2787 2749 1653 564 2852 2078 3460 2719 2029 2429 924 1368 1278 749 529 286 733 468 1125 2821 789 704
is_linear=0
shrinkage=0.01


Tree=15
num_leaves=31
num_cat=0
split_feature=48 56 39 48 12 16 56 33 7 45 12 19 16 37 48 39 5 34 1 52 50 38 48 32 44 48 22 10 5 56
split_gain=594.58 132.479 61.6458 61.1974 34.7869 30.6656 28.6322 21.4011 17.5679 15.4317 14.7897 13.6552 13.4078 14.7818 13.3693 15.9857 13.314 13.2271 13.0585 12.3029 12.1516 12.0499 12.0049 11.7544 11.4818 11.5466 16.5823 17.3637 11.475 11.4176
threshold=32.500000000000007 27355.500000000004 103.50000000000001 24.500000000000004 2019832.0000000002 280117.00000000006 37346.500000000007 23.500000000000004 7535719.0000000009 54.500000000000007 3499167.5000000005 44119152.500000007 4048077.5000000005 37.500000000000007 21.500000000000004 39.500000000000007 8868429.0000000019 86.500000000000014 2559193.0000000005 1.0000000180025095e-35 5.5000000000000009 17.500000000000004 45.500000000000007 543.50000000000011 16.500000000000004 17.500000000000004 23992964.000000004 53050338.500000007 1927750.0000000002 37572.500000000007
decision_type=2 2 2 2 2 2 2 2 2 2 2 2 2 2 2 2 2 2 2 2 2 2 2 2 2 2 2 2 2 2
left_child=1 4 5 7 14 6 22 9 -6 -3 12 -4 13 -5 -1 -16 24 18 21 -15 -9 -17 -2 -13 25 26 27 -11 -28 -18
right_child=2 3 11 10 8 -7 -8 20 -10 16 -12 23 -14 19 15 17 29 -19 -20 -21 -22 -23 -24 -25 -26 -27 28 -29 -30 -31
leaf_value=0.013012530312749635 0.0035102878587339147 0.019424938320198572 -0.0035968345961611371 -0.0010236648182067229 0.011259838067790278 -0.0047210146880333533 -0.0026689932844798829 -0.00057812483808791922 0.0043673694752758754 0.0080226999237261488 -0.0018268653950718053 -0.0059931462608875568 -0.0066636406214707813 0.0026919290484881233 -0.009675682244118777 0.00057359394493820988 0.014172414844914554 0.0039147517547278602 0.014434023488852473 0.011835617791056635 0.016812741128863277 0.013557171022213694 -0.0011670069095173631 -0.0090800298801019478 -2.9185591294099844e-05 0.0039939194781818668 0.0091099813919272386 -0.0038309532518532785 0.021821586764768194 0.0060583692102035951
leaf_weight=140.86724069714546 131.64143636822701 7.282180815935134 134.60082164406776 119.09495577216148 45.529415234923363 449.39587664604187 550.02717411518097 101.93022309243679 196.94557978212833 49.013670638203621 253.57995416224003 324.05592539906502 19.792609184980392 200.64565697312355 4.6704928129911414 16.898853749036792 25.150591835379601 33.46378093957901 51.325306206941605 15.87974178791046 4.1827020645141593 12.38839617371559 94.098872259259224 199.17508311569691 56.615586429834366 413.26243263483047 18.409788951277736 16.523830741643906 11.561286360025404 55.857218086719513
leaf_count=653 648 33 696 598 214 2316 2821 510 954 235 1281 1704 100 994 23 81 118 159 238 78 20 57 477 1060 278 2013 88 80 54 269
internal_value=0 0.00399152 -0.0039682 0.00237986 0.0083852 -0.00264237 -0.00143823 0.0042729 0.00566157 0.00494909 1.80788e-05 -0.00643746 0.00133441 0.00180608 0.010929 0.00845738 0.00478601 0.00919978 0.0113937 0.00336252 0.000107379 0.0060656 0.00156058 -0.00716821 0.00424277 0.00471814 0.00785184 0.00503406 0.0140135 0.00857755
internal_weight=0 1870.87 1883 1368.78 502.089 1225.16 775.767 759.79 242.475 653.677 608.993 657.832 355.413 335.62 259.614 118.747 646.394 114.076 80.6126 216.525 106.113 29.2872 225.74 523.231 565.387 508.771 95.5086 65.5375 29.9711 81.0078
internal_count=18850 9128 9722 6749 2379 6262 3946 3698 1168 3168 3051 3460 1770 1670 1211 558 3135 535 376 1072 530 138 1125 2764 2748 2470 457 315 142 387
is_linear=0
shrinkage=0.01


Tree=16
num_leaves=31
num_cat=0
split_feature=48 56 39 48 12 9 11 38 55 37 32 56 19 16 23 17 7 36 56 17 15 45 37 32 0 22 38 54 10 10
split_gain=582.852 129.362 60.8156 60.6799 34.2134 30.407 22.7986 14.2874 15.8827 13.6978 14.4621 13.7129 13.5011 12.9094 14.3504 12.5055 11.7387 12.4103 12.6836 14.4097 11.8162 11.7366 12.1289 11.653 11.6249 12.6492 14.5748 11.6198 11.6916 14.635
threshold=32.500000000000007 30106.000000000004 103.50000000000001 20.500000000000004 2229161.0000000005 846053.50000000012 5835980.5000000009 17.500000000000004 4759.5000000000009 40.500000000000007 362.50000000000006 24468.000000000004 44119152.500000007 1.0000000180025095e-35 4496996.5000000009 8035202.0000000009 24753592.000000004 30.500000000000004 36500.500000000007 6711855.0000000009 23064345.000000004 56.500000000000007 40.500000000000007 543.50000000000011 20591162.000000004 49791960.500000007 26.500000000000004 3.5000000000000004 113815257.50000001 116750102.00000001
decision_type=2 2 2 2 2 2 2 2 2 2 2 2 2 2 2 2 2 2 2 2 2 2 2 2 2 2 2 2 2 2
left_child=1 4 5 21 7 9 13 -1 -9 -2 -11 -12 -4 14 -5 -6 17 20 19 -19 -7 -3 -23 -14 25 -17 -27 28 -18 -30
right_child=2 3 12 6 15 16 -8 8 -10 10 11 -13 23 -15 -16 24 27 18 -20 -21 -22 22 -24 -25 -26 26 -28 -29 29 -31
leaf_value=0.0082324530102269085 -0.0026706731169896941 0.018347819811836467 -0.00356700500079097 -0.010448696623344725 0.0072187345928759021 -0.0083062323599557494 -0.0026112199476007046 0.014423314416570856 0.005766236390345068 0.0035100390695570463 0.003860423271894477 -0.0037008384357818248 -0.0059507636021429123 -0.0012953760075393418 0.0022957911565055561 0.0019226714543546534 -0.0050008343036913603 0.017619448427592898 -0.001746650224739861 0.0022763113475453931 0.0074112117944447053 0.0041864687609177885 0.0084220408986786007 -0.0090303479902734476 -0.012066651013196643 0.0055355609555681621 0.021907827348108703 0.010472562605562501 0.0095737744320180257 -0.0027227430873485621
leaf_weight=231.55172936618328 151.53887414932251 7.2315064221620551 134.3703343719244 8.9678632616996747 135.33246582746506 29.945905357599258 166.58580769598484 93.897612288594246 27.369751676917076 125.62858715653419 34.391266331076622 79.268587023019791 323.10506358742714 136.60291169583797 597.59063303470612 110.53961026668549 545.03198364377022 8.2082813978195173 53.961415335536003 24.071630954742432 5.6923816949129096 223.90792843699455 96.852177739143372 198.27269060909748 4.9420272260904303 25.494183868169785 6.9113564491271964 5.3634475171566001 10.345804482698439 150.17104265093803
leaf_count=1089 770 33 696 45 650 153 844 434 130 633 171 404 1704 684 2951 537 2812 40 277 119 29 1084 466 1060 24 124 33 27 53 774
internal_value=0 0.0039454 -0.00393616 0.00206187 0.00761076 -0.00261928 0.000732397 0.00968874 0.0124694 -0.000318158 0.00117166 -0.00141295 -0.00639345 0.0014819 0.00210737 0.00502212 -0.00369919 -0.000831821 0.00121946 0.00617783 -0.00579574 0.00574941 0.00546538 -0.00712189 0.00301199 0.0035333 0.00902739 -0.00419078 -0.00430224 -0.00193019
internal_weight=0 1873.78 1879.37 1237.74 636.039 1223.62 909.747 352.819 121.267 390.827 239.288 113.66 655.748 743.161 606.558 283.22 832.792 121.88 86.2413 32.2799 35.6383 327.992 320.76 521.378 147.887 142.945 32.4055 710.912 705.549 160.517
internal_count=18850 9128 9722 6107 3021 6262 4524 1653 564 1978 1208 575 3460 3680 2996 1368 4284 618 436 159 182 1583 1550 2764 718 694 157 3666 3639 827
is_linear=0
shrinkage=0.01


Tree=17
num_leaves=31
num_cat=0
split_feature=48 56 39 48 12 16 56 33 7 45 12 19 16 37 37 45 48 39 9 34 2 52 37 48 39 48 17 32 13 36
split_gain=571.359 126.266 59.9951 58.8639 32.9809 30.0015 27.7512 20.6883 16.9511 14.7164 14.3714 13.3488 13.0663 14.4218 13.0418 13.5461 12.9638 15.5616 12.894 12.8216 12.7676 11.969 11.9523 11.7563 11.6413 11.6181 11.6139 11.5528 11.3396 11.2648
threshold=32.500000000000007 27355.500000000004 103.50000000000001 24.500000000000004 2019832.0000000002 280117.00000000006 37346.500000000007 23.500000000000004 7535719.0000000009 54.500000000000007 3499167.5000000005 44119152.500000007 4048077.5000000005 37.500000000000007 40.500000000000007 95.500000000000014 21.500000000000004 39.500000000000007 938622.00000000012 86.500000000000014 3932880.5000000005 1.0000000180025095e-35 55.500000000000007 18.500000000000004 51.500000000000007 45.500000000000007 12927047.500000002 543.50000000000011 16589666.000000002 40.500000000000007
decision_type=2 2 2 2 2 2 2 2 2 2 2 2 2 2 2 2 2 2 2 2 2 2 2 2 2 2 2 2 2 2
left_child=1 4 5 7 16 6 25 9 -6 -3 12 -4 13 -5 -11 18 -1 -18 -16 20 -19 -15 23 24 -9 -2 -24 -13 -17 -8
right_child=2 3 11 10 8 -7 29 22 -10 14 -12 27 -14 21 15 28 17 19 -20 -21 -22 -23 26 -25 -26 -27 -28 -29 -30 -31
leaf_value=0.012681882419052081 0.0034594143539761163 0.018901521044957081 -0.0035373903419340142 -0.0010274645821381713 0.01100461301869139 -0.0046572523903355232 -0.0036691941410421122 0.015536460847549633 0.0042554512487257314 0.003665641135135574 -0.0018118623649233021 -0.0059086388504142771 -0.0066071740719069304 0.0026411292019549791 0.012296892993536358 -0.00017951818141020566 -0.0096786827358192259 0.0098763842142232366 0.0046027757050725862 0.0037500383507836411 0.02403441067137925 0.011635553928835097 -0.0025168652615856595 -0.0026386307372233161 -0.0012986857804807364 -0.0011417955167106447 0.018740044681232013 -0.0089809894964568669 0.0064359959778268706 -0.0006629287276073122
leaf_weight=142.02668225765228 131.88843284547329 7.3598411977291098 134.14148488640785 119.11382837593555 45.841258138418198 447.64394323527813 357.08974108099937 7.7775166630744961 197.71878203749657 428.8261389285326 253.38565248250961 322.15933082997799 19.718759045004845 201.03988382220268 60.379119604825974 36.571737915277481 4.6713131219148627 74.281779602169991 34.071094661951065 33.652234673500061 6.9668433070182791 15.9701781719923 4.3218462318181974 79.073163747787476 8.7042317539453489 93.981429666280746 6.3418033570051193 197.37326735258102 88.876939967274666 191.48053161799908
leaf_count=653 648 33 696 598 214 2316 1839 38 954 2075 1281 1704 100 994 290 177 23 344 164 159 32 78 21 398 43 477 30 1060 429 982
internal_value=0 0.00389981 -0.00390437 0.00232562 0.00817382 -0.00259639 -0.00140517 0.00417764 0.00552573 0.0048405 8.24607e-06 -0.00634971 0.00130429 0.00176842 0.00468098 0.00666099 0.0106393 0.00821315 0.00952139 0.00894055 0.0110904 0.00330305 8.33594e-05 -0.00103725 0.00664559 0.00154491 0.0101249 -0.00707584 0.00450739 -0.00261985
internal_weight=0 1876.69 1875.76 1371.53 505.159 1222.08 774.44 762.303 243.56 656.085 609.228 653.674 355.843 336.124 648.725 219.899 261.599 119.572 94.4502 114.901 81.2486 217.01 106.219 95.5549 16.4817 225.87 10.6636 519.533 125.449 548.57
internal_count=18850 9128 9722 6749 2379 6262 3946 3698 1168 3168 3051 3460 1770 1670 3135 1060 1211 558 454 535 376 1072 530 479 81 1125 51 2764 606 2821
is_linear=0
shrinkage=0.01


Tree=18
num_leaves=31
num_cat=0
split_feature=48 56 39 48 12 9 11 38 55 37 32 56 19 23 16 33 38 7 56 45 22 17 7 36 56 17 15 32 39 49
split_gain=560.104 123.357 59.1855 58.3675 32.444 29.6936 22.1112 13.8935 15.2965 13.4102 14.1505 13.3611 13.1981 12.5927 13.6033 12.3242 13.3053 14.6198 13.7699 16.9188 13.4121 13.33 11.4686 12.161 12.2557 13.9103 11.645 11.4538 11.4523 11.4433
threshold=32.500000000000007 30106.000000000004 103.50000000000001 20.500000000000004 2229161.0000000005 846053.50000000012 5835980.5000000009 17.500000000000004 4759.5000000000009 40.500000000000007 362.50000000000006 24468.000000000004 44119152.500000007 4496996.5000000009 1.0000000180025095e-35 36.500000000000007 26.500000000000004 336674491.00000006 21364.500000000004 142.50000000000003 42626619.500000007 7335934.5000000009 24753592.000000004 30.500000000000004 36500.500000000007 6711855.0000000009 23064345.000000004 543.50000000000011 62.500000000000007 25.500000000000004
decision_type=2 2 2 2 2 2 2 2 2 2 2 2 2 2 2 2 2 2 2 2 2 2 2 2 2 2 2 2 2 2
left_child=1 4 5 -3 7 9 13 -1 -9 -2 -11 -12 -4 -5 -15 16 17 18 19 -6 21 -18 23 26 25 -25 -7 -14 29 -26
right_child=2 3 12 6 15 22 -8 8 -10 10 11 -13 27 14 -16 -17 20 -19 -20 -21 -22 -23 -24 24 28 -27 -28 -29 -30 -31
leaf_value=0.0080050525171418072 -0.002630567446854885 0.0056224285712035485 -0.0035079877547887287 -0.0097385012398330684 0.01064413078960957 -0.008240160184009953 -0.0025858684275779421 0.014075588107615989 0.0056044041963569024 0.0034843239469193343 0.0038108478211479513 -0.0036512119257702041 -0.0058667663391419704 0.0022456250746607795 -0.0012630438135113416 -0.0030351166997992559 0.021068653053388054 -0.014043326360875052 0.0029801771648753908 0.0014710098556571386 0.021946226783147959 0.0021586947318972655 -0.0041306554543812084 0.017264639092017607 -0.00039102140036951681 0.0022404176402949041 0.0073573180930682769 -0.0089319483547119858 -0.0064003724248256483 0.015805643004702403
leaf_weight=233.07348430156708 151.21352027356625 329.36215829849243 133.91427545249462 9.9308578670024854 67.518061324954033 29.793338015675545 166.35744243860245 94.671740189194679 27.510036200284958 125.74950535595417 34.454104110598564 79.04569448530674 321.21877786517143 598.75071297585964 135.50756698846817 18.292860388755798 5.0784032940864625 4.0982481241226187 137.61709822714329 28.633350521326065 9.0886591076850873 14.016538441181181 708.37316650152206 8.2789988666772825 21.968514025211338 24.104886844754219 5.7028502821922293 196.47689235210419 26.430977299809456 5.4428818523883811
leaf_count=1089 770 1583 696 50 319 153 844 434 130 633 171 404 1704 2951 679 90 24 20 668 137 43 67 3666 40 113 119 29 1060 136 28
internal_value=0 0.00385495 -0.0038728 0.00201494 0.00742193 -0.00257367 0.000710043 0.00943689 0.0121682 -0.000299487 0.00117383 -0.00138602 -0.00630624 0.00144682 0.0015981 0.00490448 0.00545038 0.00468061 0.00500886 0.00791243 0.0119472 0.0071879 -0.00364341 -0.000807865 0.00122015 0.00608139 -0.00573425 -0.00703007 -0.00170368 0.00282503
internal_weight=0 1879.51 1872.17 1239.91 639.598 1220.56 910.547 355.255 122.182 390.463 239.249 113.5 651.61 744.189 734.258 284.343 266.05 237.867 233.769 96.1514 28.1836 19.0949 830.096 121.722 86.2263 32.3839 35.4962 517.696 53.8424 27.4114
internal_count=18850 9128 9722 6107 3021 6262 4524 1653 564 1978 1208 575 3460 3680 3630 1368 1278 1144 1124 456 134 91 4284 618 436 159 182 2764 277 141
is_linear=0
shrinkage=0.01


Tree=19
num_leaves=31
num_cat=0
split_feature=48 7 56 56 39 33 9 11 56 55 37 18 48 46 32 5 46 5 1 48 34 36 8 38 12 16 2 38 31 15
split_gain=549.78 128.062 77.9915 43.063 40.36 32.6772 23.1679 20.6647 19.6736 27.2162 18.0725 20.1733 17.0422 17.0059 16.9153 16.4382 16.1955 15.1239 14.1504 13.0956 12.9922 12.6464 13.7509 12.6438 13.8634 12.5288 12.2304 12.1305 13.1798 11.9465
threshold=26.500000000000004 25572955.500000004 26342.500000000004 36302.000000000007 133.50000000000003 24.500000000000004 846053.50000000012 3229293.0000000005 20120.500000000004 324.00000000000006 52.500000000000007 37321324.500000007 18.500000000000004 22.500000000000004 281.50000000000006 12645134.000000002 17.500000000000004 2222383.0000000005 6746078.0000000009 63.500000000000007 109.50000000000001 29.500000000000004 8108843.0000000009 17.500000000000004 1696671.5000000002 363001.50000000006 3163716.0000000005 26.500000000000004 393.50000000000006 10970667.500000002
decision_type=2 2 2 2 2 2 2 2 2 2 2 2 2 2 2 2 2 2 2 2 2 2 2 2 2 2 2 2 2 2
left_child=2 3 7 15 6 12 19 8 9 -1 14 -12 17 23 26 16 27 29 -5 25 -11 22 -9 24 -14 -3 -7 -2 -29 -4
right_child=1 4 5 18 -6 10 -8 21 -10 20 11 -13 13 -15 -16 -17 -18 -19 -20 -21 -22 -23 -24 -25 -26 -27 -28 28 -30 -31
leaf_value=0.0069364251836782978 0.002452034375598963 0.002619764204958156 0.010843886427659611 -0.0018259799048037225 -0.007391955757346874 0.020023238546297888 -0.0043128075990390181 0.0016725372681657012 0.0076712738443568173 0.016762319037330369 0.00040188586083756409 0.021671410011042398 0.0043979613610591745 0.011072716857930777 -0.0041850621532087172 0.016930068651262568 -0.0059695004055866354 0.010911282167971759 0.013329721411015429 -0.0038458425952121963 -0.00078613429517267435 2.3844355257089961e-05 0.021122934646847315 0.0054913428145358335 0.00083939390996524673 -0.0039811620515359004 0.0016062050350496636 0.0095721631116274814 -0.0091890398042635164 0.0034683029816827632
leaf_weight=52.190080881118774 268.57680076360703 112.91767373681068 27.806377738714218 450.78766989707947 371.50893807411194 4.6992763876915005 985.96014353632927 7.530817583203314 161.89931073784828 89.812460735440254 12.467146039009096 6.9424065649509421 191.07874532043934 29.163585394620895 95.123465403914452 8.3422958552837354 20.163871631026268 64.946018576622009 6.2458606064319602 91.904560133814812 4.4268984496593466 36.210957035422325 7.025698110461235 181.01478615403175 256.34867395460606 38.577881380915642 15.496257498860357 43.177932843565941 4.0999986827373496 104.46387884020805
leaf_count=244 1313 575 132 2290 1988 23 5129 36 754 412 61 33 925 139 480 40 100 304 31 477 21 172 33 877 1254 199 77 211 20 500
internal_value=0 -0.00286999 0.00510819 0.000393295 -0.00450359 0.00365954 -0.00363073 0.00910016 0.0100736 0.0127297 -0.000917776 0.00800957 0.00438098 0.00360774 -0.00242035 0.00306382 0.00271956 0.00695929 -0.00161886 -0.000867779 0.015938 0.00318831 0.0110603 0.00326132 0.00235912 0.000938858 0.00589164 0.00327426 0.00794517 0.00501883
internal_weight=0 2402.26 1348.65 801.394 1600.87 989.551 1229.36 359.096 308.329 146.429 134.729 19.4096 854.822 657.606 115.319 344.361 336.019 197.216 457.034 243.4 94.2394 50.7675 14.5565 628.442 447.427 151.496 20.1955 315.855 47.2779 132.27
internal_count=18850 12373 6477 4005 8368 4805 6380 1672 1431 677 674 94 4131 3195 580 1684 1644 936 2321 1251 433 241 69 3056 2179 774 100 1544 231 632
is_linear=0
shrinkage=0.01


Tree=20
num_leaves=31
num_cat=0
split_feature=48 56 39 48 12 16 56 33 3 45 43 1 38 55 32 44 37 56 22 35 7 54 20 33 38 7 56 45 22 14
split_gain=539.034 117.659 57.7138 56.2084 31.181 29.0866 26.5121 18.4316 14.971 14.0916 13.8629 14.0895 13.525 14.7331 13.0418 12.6621 12.5871 12.4205 12.3985 16.4018 19.3992 14.042 12.1842 11.9188 12.8642 14.2884 13.1463 16.2156 12.9113 12.8634
threshold=32.500000000000007 30106.000000000004 103.50000000000001 24.500000000000004 2229161.0000000005 280117.00000000006 37346.500000000007 23.500000000000004 113621281.00000001 54.500000000000007 8.5000000000000018 25355575.500000004 17.500000000000004 4759.5000000000009 543.50000000000011 16.500000000000004 37.500000000000007 37825.500000000007 25644952.500000004 50.500000000000007 13430585.000000002 1.5000000000000002 18620956.000000004 36.500000000000007 26.500000000000004 336674491.00000006 21364.500000000004 142.50000000000003 42626619.500000007 1349872.5000000002
decision_type=2 2 2 2 2 2 2 2 2 2 2 2 2 2 2 2 2 2 2 2 2 2 2 2 2 2 2 2 2 2
left_child=1 4 5 7 12 6 -2 8 9 -3 11 16 -1 -14 -4 18 17 -5 -11 20 -20 22 -22 24 25 26 27 -6 29 -26
right_child=2 3 14 10 23 -7 -8 -9 -10 15 -12 -13 13 -15 -16 -17 -18 -19 19 -21 21 -23 -24 -25 28 -27 -28 -29 -30 -31
leaf_value=0.007801605743716954 0.0015241514452941562 0.018748584507024605 -0.005189518411978308 0.0044688659490010312 0.010365078156375536 -0.0045656844211827254 -0.0025478511096859464 -0.00018772239979277674 0.018178525713474149 0.0035128927803949953 -0.0029186118721868473 -0.0114476788328986 0.013758813614107862 0.0054660899743204519 -0.0081701809380024699 -0.00013042810370199979 0.0022005331723548714 -0.0029066618711758169 0.013794505025508256 -0.0014160835262261263 -0.0030384150040442975 0.018552636301750677 0.0062781111998771654 -0.0030315174887238644 0.019235527013814951 -0.013999517152702173 0.0028979870051066658 0.0014027055511176563 0.021425722804924035 0.0015303300363499334
leaf_weight=234.43419604003429 226.0326365083456 6.7657450139522544 422.86018158495426 28.354731559753418 68.03276763856411 445.12368601560593 546.43049974739552 93.702587217092514 7.9988828152418128 312.25215731561184 152.80231998860836 9.4798185676336271 95.37633690237999 27.630545765161514 224.85230153799057 59.559400841593742 260.65234044194221 117.23715116083622 40.821964249014854 21.879446730017662 16.181308686733246 8.2121127694845182 105.95347000658512 18.288678839802742 5.9435057044029298 4.0787778645753852 138.03423446416855 28.705681338906288 9.1884525120258314 13.254883885383604
leaf_count=1089 1125 30 2243 141 319 2316 2821 468 38 1505 774 49 434 130 1217 290 1296 592 193 105 78 39 509 90 28 20 668 137 43 63
internal_value=0 0.00377012 -0.00381254 0.00197233 0.00724243 -0.0025296 -0.00135633 0.00392724 0.00459247 0.00440236 -0.000342946 0.000603759 0.00921064 0.0118961 -0.00622425 0.00423053 0.000884982 -0.00147024 0.00474455 0.00673673 0.00777885 0.00589487 0.00504379 0.00477849 0.00531298 0.0045566 0.00487898 0.00770563 0.0116772 0.00701157
internal_weight=0 1884.82 1865.3 1241.85 642.968 1217.59 772.463 673.327 579.624 571.626 568.526 415.724 357.441 123.007 647.712 564.86 406.244 145.592 505.3 193.048 171.169 130.347 122.135 285.527 267.238 238.851 234.773 96.7384 28.3868 19.1984
internal_count=18850 9128 9722 6107 3021 6262 3946 3255 2787 2749 2852 2078 1653 564 3460 2719 2029 733 2429 924 819 626 587 1368 1278 1144 1124 456 134 91
is_linear=0
shrinkage=0.01


Tree=21
num_leaves=31
num_cat=0
split_feature=48 56 39 48 12 16 56 11 38 55 19 23 16 15 54 46 38 32 15 36 45 37 0 33 38 22 17 55 35 11
split_gain=528.435 114.769 56.9318 54.9946 30.3379 28.6245 26.0141 21.1837 13.1317 14.2923 12.9734 12.3881 13.0169 11.7384 11.4105 14.0407 13.5331 11.2459 11.2195 11.1334 10.8548 11.4961 10.6902 11.1802 11.6707 13.9314 11.1946 10.5221 10.4181 10.2808
threshold=32.500000000000007 30106.000000000004 103.50000000000001 20.500000000000004 2229161.0000000005 280117.00000000006 37346.500000000007 5835980.5000000009 17.500000000000004 4759.5000000000009 44119152.500000007 4496996.5000000009 1.0000000180025095e-35 8200659.0000000009 2.5000000000000004 16.500000000000004 27.500000000000004 543.50000000000011 11713392.000000002 40.500000000000007 56.500000000000007 40.500000000000007 20591162.000000004 36.500000000000007 26.500000000000004 42626619.500000007 7335934.5000000009 3987.5000000000005 30.500000000000004 1975643.0000000002
decision_type=2 2 2 2 2 2 2 2 2 2 2 2 2 2 2 2 2 2 2 2 2 2 2 2 2 2 2 2 2 2
left_child=1 4 5 20 8 6 14 11 -1 -10 18 -5 -13 -6 15 16 -2 -12 -4 -8 -3 -22 23 24 28 26 -26 29 -15 -23
right_child=2 3 10 7 13 -7 19 -9 9 -11 17 12 -14 22 -16 -17 -18 -19 -20 -21 21 27 -24 -25 25 -27 -28 -29 -30 -31
leaf_value=0.0077012511967434159 0.001105898702033963 0.017442429670392653 0.0077387690858115622 -0.0097069245094523159 0.013878966067161221 -0.0045300278271371763 -0.0035720432106511901 -0.0025477903130740076 0.013556767157457411 0.0054000127878464704 -0.0057475403855414822 0.0021836488007123821 -0.0012488697441591884 0.012978094247484296 0.017322891490508221 -0.0054641885475184082 0.0088828591086047189 -0.0088012386608145449 -0.0041563466229476579 -0.00057633427554572498 0.0039265186940092411 0.017368177006011964 -0.010073802332296019 -0.0030051615325242228 0.020469026489914478 0.021594932754672218 0.0020137441978301264 0.0050040789252599298 0.0037996863275883458 0.007638529413213308
leaf_weight=235.11076882481575 168.15217824280262 7.3676340430974951 8.4682290256023389 9.9045710861682874 13.345734044909475 444.14595401287079 355.09590516984463 166.00541959702969 95.827527642250061 27.688666179776192 318.53817565739155 600.16900692880154 135.4052060842514 13.144474625587462 4.4718997925519934 27.750439167022705 25.810366690158844 194.07549934089184 124.60315410792828 190.67378102242947 225.95084503293037 18.250885367393494 5.0961329936981192 18.264704287052155 4.2865474522113862 8.8413557559251768 14.091531708836554 52.934230759739876 208.98511958122253 26.817733287811279
leaf_count=1089 836 33 44 50 62 2316 1839 844 434 130 1704 2951 679 62 22 140 127 1060 652 982 1084 86 25 90 20 41 67 253 1001 127
internal_value=0 0.00372706 -0.00378159 0.00195106 0.00715079 -0.00250739 -0.00134366 0.000682804 0.00908821 0.0117283 -0.00618146 0.0014022 0.00155179 0.00472186 0.00150789 0.0011889 0.00214077 -0.00690367 -0.00339938 -0.00252544 0.00544012 0.00516716 0.00427373 0.00454695 0.00510014 0.0112804 0.0063183 0.00802752 0.00434282 0.0115786
internal_weight=0 1887.49 1861.79 1242.81 644.683 1216.1 771.955 911.484 358.627 123.516 645.685 745.479 735.574 286.056 226.185 221.713 193.963 512.614 133.071 545.77 331.321 323.954 272.71 267.614 249.349 27.2194 18.3781 98.0028 222.13 45.0686
internal_count=18850 9128 9722 6107 3021 6262 3946 4524 1653 564 3460 3680 3630 1368 1125 1103 963 2764 696 2821 1583 1550 1306 1281 1191 128 87 466 1063 213
is_linear=0
shrinkage=0.01


Tree=22
num_leaves=31
num_cat=0
split_feature=48 7 56 56 39 33 9 11 56 55 37 18 32 48 46 5 46 13 34 1 48 34 12 36 8 38 12 16 5 2
split_gain=518.488 121.97 72.8535 40.5577 39.0169 30.9943 22.7177 19.6879 18.7377 26.2523 17.6299 19.6357 16.5561 16.0219 16.3438 15.8275 15.696 14.6949 15.0346 13.826 12.8148 12.3632 12.352 12.2931 13.1717 12.2494 13.3104 12.1228 11.8123 11.7654
threshold=26.500000000000004 25572955.500000004 26342.500000000004 36302.000000000007 133.50000000000003 24.500000000000004 846053.50000000012 3229293.0000000005 20120.500000000004 324.00000000000006 52.500000000000007 37321324.500000007 281.50000000000006 18.500000000000004 22.500000000000004 12645134.000000002 17.500000000000004 25857390.000000004 74.500000000000014 6746078.0000000009 63.500000000000007 109.50000000000001 8429388.0000000019 29.500000000000004 8108843.0000000009 17.500000000000004 1696671.5000000002 363001.50000000006 5194532.0000000009 3163716.0000000005
decision_type=2 2 2 2 2 2 2 2 2 2 2 2 2 2 2 2 2 2 2 2 2 2 2 2 2 2 2 2 2 2
left_child=2 3 7 15 6 13 20 8 9 -1 12 -12 29 17 25 16 -2 -4 22 -5 27 -11 -19 24 -9 26 28 -3 -15 -7
right_child=1 4 5 19 -6 10 -8 23 -10 21 11 -13 -14 14 -16 -17 -18 18 -20 -21 -22 -23 -24 -25 -26 -27 -28 -29 -30 -31
leaf_value=0.0066321606583230512 0.0031683672685048677 0.0026314534643523107 0.0053593092647994077 -0.0017843716122931462 -0.0072611008433774698 0.019573392242749593 -0.0042236939109515838 0.0015568659393818097 0.0073855774784223919 0.016225642090104603 0.00036080025232509679 0.021284087905725793 -0.0041586918444718344 0.0034498492051890017 0.010778021450630596 0.01649998001689177 -0.005939454261269619 0.024540486986364792 0.0070301684917593865 0.013162953563725545 -0.0037613076504804522 -0.00086409056553661328 0.0046850797342377869 -9.5509978770810165e-05 0.020511428881819775 0.0053390107133688422 0.00077495868776002728 -0.0038769069527045015 0.011895254249834777 0.0015827497827226339
leaf_weight=52.657732516527176 317.03717674314976 112.8577766418457 158.43025524914265 449.81451897323132 367.60071375966072 4.7478050589561489 980.56517527997494 7.561932295560835 163.21869120001793 90.881331041455269 12.486486196517946 6.9995325207710257 94.972184777259827 173.71536986529827 29.397559568285942 8.4266456514596921 20.122649267315865 12.265443906188013 23.696157664060593 6.2746141850948325 91.441847488284111 4.4399112761020652 4.208080679178237 36.371949926018715 7.1163839399814606 181.9310919046402 257.01047067344189 38.342494308948517 18.306491062045097 15.510429367423056
leaf_count=244 1544 575 748 2290 1988 23 5129 36 754 412 61 33 480 838 139 40 100 57 111 31 477 21 20 172 33 877 1254 199 87 77
internal_value=0 -0.00280146 0.00493871 0.000379166 -0.00440431 0.00353916 -0.00354578 0.00877779 0.00972202 0.0122991 -0.000920426 0.00787661 -0.00240805 0.00423859 0.00348961 0.00296311 0.00262479 0.006729 0.0121311 -0.00157873 -0.000806172 0.0154296 0.0194685 0.00302185 0.0107465 0.00315003 0.00226314 0.000981015 0.004255 0.00579911
internal_weight=0 2392.48 1355.93 801.676 1590.81 993.677 1223.21 362.248 311.198 147.979 134.716 19.486 115.23 858.961 660.361 345.586 337.16 198.6 40.1697 456.089 242.642 95.3212 16.4735 51.0503 14.6783 630.963 449.032 151.2 192.022 20.2582
internal_count=18850 12373 6477 4005 8368 4805 6380 1672 1431 677 674 94 580 4131 3195 1684 1644 936 188 2321 1251 433 77 241 69 3056 2179 774 925 100
is_linear=0
shrinkage=0.01


Tree=23
num_leaves=31
num_cat=0
split_feature=48 56 39 48 12 16 56 33 7 45 12 32 22 17 3 0 16 37 15 39 5 39 52 50 54 46 38 36 48 13
split_gain=508.541 109.68 55.505 52.2265 29.3283 27.9225 25.1601 18.4232 15.4599 13.5521 13.5208 12.7517 12.5756 15.2393 12.5786 13.3597 12.5442 13.8108 12.1654 13.1062 12.9496 12.5835 11.6281 11.4759 11.0385 13.627 13.1674 10.9704 10.8161 10.6445
threshold=32.500000000000007 27355.500000000004 103.50000000000001 24.500000000000004 2019832.0000000002 280117.00000000006 37346.500000000007 23.500000000000004 7535719.0000000009 54.500000000000007 3499167.5000000005 543.50000000000011 25644952.500000004 6222093.5000000009 3633471.5000000005 804275.50000000012 4048077.5000000005 37.500000000000007 7500061.0000000009 40.500000000000007 996929.50000000012 57.500000000000007 1.0000000180025095e-35 5.5000000000000009 2.5000000000000004 16.500000000000004 27.500000000000004 40.500000000000007 17.500000000000004 9563254.5000000019
decision_type=2 2 2 2 2 2 2 2 2 2 2 2 2 2 2 2 2 2 2 2 2 2 2 2 2 2 2 2 2 2
left_child=1 4 5 7 18 6 24 9 -6 -3 16 -4 14 -14 15 -11 17 -5 -1 -20 -21 -22 -19 28 25 26 -2 -8 -9 -16
right_child=2 3 11 10 8 -7 27 23 -10 12 -12 -13 13 -15 29 -17 -18 22 19 20 21 -23 -24 -25 -26 -27 -28 -29 -30 -31
leaf_value=0.018501523482654884 0.0010851751913562523 0.017886940366301007 -0.0050748531204120083 -0.0010405893480235232 0.01028668427125771 -0.0044667410843859737 -0.003520814985605982 0.010894563731953282 0.0038973423716905319 0.0062307115479155045 -0.0017785975532098781 -0.0080374955577483028 0.013864384879704733 0.005337247540267054 -0.010068864431794942 -0.0059354090258852063 -0.006530105050068096 0.0025413014460983962 0.0012146429631260205 0.0080586747621687466 0.014831119691634614 0.0060683380573180266 0.011375821529548137 0.016153219586273509 0.016975462014546083 -0.0053977135026197767 0.0087414017518988724 -0.00054403682484194834 -0.0015446373697553506 0.0022095684434369086
leaf_weight=15.451643303036688 168.29095295071602 7.5082908421754828 419.61008986830711 119.16942282021046 46.7073083370924 442.40427201986313 354.04407602548599 7.5481424182653418 200.14694467186928 146.37647631764412 252.92333129048347 222.22156344354153 23.024663805961609 233.54458495974541 7.2786124646663657 9.6190622597932798 19.61398646235466 201.79415574669838 18.315622940659523 138.8201084882021 72.98567970097065 21.132752910256386 16.086125060915947 4.2460756599903098 4.5097645968198767 27.637690097093582 25.923307985067368 190.37209282815456 94.555261343717575 235.66494131088257
leaf_count=69 836 33 2243 598 214 2316 1839 36 954 699 1281 1217 109 1115 35 46 100 994 85 632 328 97 78 20 22 140 127 982 474 1131
internal_value=0 0.00364545 -0.00372243 0.0021763 0.00759023 -0.00246426 -0.00131489 0.0039086 0.00510627 0.00452836 -1.00461e-05 -0.00610061 0.00437534 0.00610248 0.00326458 0.00548052 0.0012441 0.0016965 0.00988929 0.00935966 0.0100001 0.0128636 0.00319356 4.48326e-05 0.00148703 0.00117218 0.00210711 -0.00247989 -0.000625051 0.00184171
internal_weight=0 1892.51 1855.01 1378.95 513.56 1213.18 770.778 769.366 246.854 663.017 609.587 641.832 655.508 256.569 398.939 155.996 356.664 337.05 266.706 251.254 232.939 94.1184 217.88 106.349 226.362 221.852 194.214 544.416 102.103 242.944
internal_count=18850 9128 9722 6749 2379 6262 3946 3698 1168 3168 3051 3460 3135 1224 1911 745 1770 1670 1211 1142 1057 425 1072 530 1125 1103 963 2821 510 1166
is_linear=0
shrinkage=0.01


Tree=24
num_leaves=31
num_cat=0
split_feature=48 56 39 48 12 9 11 37 32 56 19 38 55 23 16 33 2 56 35 17 54 32 7 10 10 33 36 17 15 56
split_gain=498.562 107.244 54.7491 51.9157 28.5232 27.5675 20.2862 13.0482 13.8473 13.2429 12.7633 12.7194 13.6568 12.1683 12.4359 11.2124 12.3568 11.2007 11.1576 11.1486 11.1344 11.0437 10.9631 11.6776 14.4767 14.857 11.6129 11.6848 11.5191 10.9114
threshold=32.500000000000007 30106.000000000004 103.50000000000001 20.500000000000004 2229161.0000000005 846053.50000000012 5835980.5000000009 40.500000000000007 363.50000000000006 24468.000000000004 44119152.500000007 17.500000000000004 5275.5000000000009 4496996.5000000009 1.0000000180025095e-35 36.500000000000007 34257731.000000007 32749.500000000004 34.500000000000007 3698351.0000000005 3.5000000000000004 543.50000000000011 24753592.000000004 113815257.50000001 116750102.00000001 36.500000000000007 30.500000000000004 5957331.5000000009 23064345.000000004 20956.000000000004
decision_type=2 2 2 2 2 2 2 2 2 2 2 2 2 2 2 2 2 2 2 2 2 2 2 2 2 2 2 2 2 2
left_child=1 4 5 -3 11 7 13 -2 18 -10 17 -1 -13 -5 -15 16 29 -4 -9 -20 22 -12 26 -24 25 -25 28 -28 -7 -6
right_child=2 3 10 6 15 20 -8 8 9 -11 21 12 -14 14 -16 -17 -18 -19 19 -21 -22 -23 23 24 -26 -27 27 -29 -30 -31
leaf_value=0.0074083897579631406 -0.0025563663082607225 0.0052649852667685775 0.0017734538438326844 -0.0096716853367642998 0.0078183327338947443 -0.0081334974721277778 -0.0025126656170265812 -0.0067188805096921487 0.0037987437524432876 -0.0036583241020753054 -0.0056303790186306799 0.012918539595563817 0.0043487583313888342 0.0021190405340424144 -0.0012362259860272144 -0.0030289209290237764 -0.0075058725046928997 -0.004963761349803507 -0.011580541982716989 0.0049213869185712649 0.0096745674503735789 -0.0086728749768592277 -0.0047693578843647517 0.00046313218008862326 -0.0024756824909742429 0.025293719131978851 0.0099192443039076358 -0.00037244927021289656 0.0074006059815238112 0.0036843583343566899
leaf_weight=237.0449074357748 150.59513449668884 333.18975229561329 32.824812710285187 9.875116288661955 110.43484091758728 29.541035205125809 165.67837201058865 9.926715359091757 34.394573092460632 77.420703053474426 315.90157705545425 101.88596631586552 22.747181385755539 601.63941207528114 135.30813738703728 18.284259647130966 7.6008104532957068 99.406945511698723 4.2480622678995124 112.9048003256321 6.3838138580322257 191.70213794708252 537.15090394020081 6.4068443179130536 148.14847685396671 3.8623219281435013 13.027637749910353 72.011025786399841 5.69366630911827 151.3516823798418
leaf_count=1089 770 1583 172 50 515 153 844 50 170 398 1704 458 106 2951 679 90 37 524 21 569 32 1060 2812 33 774 20 65 366 29 726
internal_value=0 0.00360411 -0.00369215 0.00188655 0.00689902 -0.0024426 0.000652957 -0.00025108 0.00120213 -0.00136452 -0.00605855 0.00876819 0.0113544 0.00135523 0.00150299 0.004549 0.00506334 -0.00329134 0.00346048 0.00432301 -0.00348073 -0.00677941 -0.00358367 -0.0040657 -0.00167979 0.00980213 -0.000795949 0.0012042 -0.0056233 0.00542828
internal_weight=0 1895.04 1851.55 1245.69 649.35 1211.72 912.501 389.49 238.895 111.815 639.835 361.678 124.633 746.823 736.948 287.672 269.387 132.232 127.08 117.153 822.226 507.604 815.842 695.569 158.418 10.2692 120.273 85.0387 35.2347 261.787
internal_count=18850 9128 9722 6107 3021 6262 4524 1978 1208 568 3460 1653 564 3680 3630 1368 1278 696 640 590 4284 2764 4252 3639 827 53 613 431 182 1241
is_linear=0
shrinkage=0.01


Tree=25
num_leaves=31
num_cat=0
split_feature=48 7 56 56 39 33 9 11 56 55 37 18 32 5 46 48 46 5 1 48 36 8 38 34 16 38 31 51 49 15
split_gain=489.046 115.905 67.9305 38.5256 37.7659 29.4316 22.0744 18.7062 17.9322 25.1055 17.174 19.038 16.1863 15.2961 15.2355 15.1347 15.7998 14.2999 13.5017 12.4912 11.9399 12.6728 11.9076 11.8249 11.7622 11.536 12.775 11.5195 12.718 11.4499
threshold=26.500000000000004 25572955.500000004 26342.500000000004 36302.000000000007 133.50000000000003 24.500000000000004 846053.50000000012 3229293.0000000005 20120.500000000004 324.00000000000006 52.500000000000007 37321324.500000007 281.50000000000006 12645134.000000002 17.500000000000004 18.500000000000004 22.500000000000004 2222383.0000000005 6746078.0000000009 63.500000000000007 29.500000000000004 8108843.0000000009 15.500000000000002 109.50000000000001 363001.50000000006 26.500000000000004 393.50000000000006 120.50000000000001 17.500000000000004 10970667.500000002
decision_type=2 2 2 2 2 2 2 2 2 2 2 2 2 2 2 2 2 2 2 2 2 2 2 2 2 2 2 2 2 2
left_child=2 3 7 13 6 15 19 8 9 -1 12 -12 -7 14 25 17 22 29 -5 24 21 -9 -17 -11 -3 -2 -27 28 -18 -4
right_child=1 4 5 18 -6 10 -8 20 -10 23 11 -13 -14 -15 -16 16 27 -19 -20 -21 -22 -23 -24 -25 -26 26 -28 -29 -30 -31
leaf_value=0.0063643916001705804 0.0022735031792235805 0.0026290310979998942 0.010297356060352371 -0.0017543472663507425 -0.0071326213634226943 0.0057047504691945996 -0.0041313737758366708 0.0014356701387572262 0.0071027613629502011 0.015700873943500032 0.00032660336178871505 0.020867326389152039 -0.0041302480540989636 0.016121901948770875 -0.0059074366555546577 0.0015196011427710393 0.02320036526178039 0.010327307949544853 0.012980172302328404 -0.003683600372960959 -0.00020245330068859987 0.019952795632308989 0.0042770399892387897 -0.00097400405234898831 -0.0037936127267735602 0.0091916540809781275 -0.0092435945528881371 0.0014388613218533212 0.0072718922521025735 0.0031280158912438049
leaf_weight=53.065509781241417 270.31108437478542 112.86234258115292 28.223934426903725 449.09745752811432 363.75114315748215 20.32069206237793 974.98086640238762 7.5950264781713468 164.51652890443802 91.919446602463722 12.501930043101313 7.0605154484510413 94.806544899940491 8.501427620649336 20.079074740409851 283.49435929954052 9.5084985941648537 65.953757062554359 6.3062453269958487 91.01426537334919 36.517158150672913 7.199347585439682 349.89385707676411 4.4590863138437262 38.153646141290665 43.655468165874481 4.1130551248788825 9.4947985559701902 10.601610139012335 105.70839908719063
leaf_count=244 1313 575 132 2290 1988 100 5129 36 754 412 61 33 480 40 100 1371 44 304 31 477 172 33 1685 21 199 211 20 45 50 500
internal_value=0 -0.00273439 0.00477615 0.000361849 -0.00430539 0.00342517 -0.00346036 0.00846569 0.00938055 0.0118881 -0.000922363 0.0077402 -0.00239431 0.00287383 0.00254077 0.00410379 0.0033766 0.00651578 -0.00155031 -0.000757268 0.00286793 0.0104466 0.00304285 0.0149294 0.00100637 0.00307407 0.00760431 0.010517 0.0148032 0.00463883
internal_weight=0 2382.83 1362.84 802.064 1580.76 997.569 1217.01 365.272 313.961 149.444 134.69 19.5624 115.127 346.66 338.159 862.879 662.993 199.886 455.404 242.03 51.3115 14.7944 633.388 96.3785 151.016 318.08 47.7685 29.6049 20.1101 133.932
internal_count=18850 12373 6477 4005 8368 4805 6380 1672 1431 677 674 94 580 1684 1644 4131 3195 936 2321 1251 241 69 3056 433 774 1544 231 139 94 632
is_linear=0
shrinkage=0.01


Tree=26
num_leaves=31
num_cat=0
split_feature=48 56 39 48 12 16 56 44 45 3 43 1 44 38 39 56 39 48 6 37 5 19 56 34 37 56 15 15 22 10
split_gain=479.868 102.428 53.3789 50.105 27.4956 27.0924 24.1218 16.6438 16.5131 14.7448 13.2298 13.6591 12.6254 12.4086 12.1941 16.1135 12.9832 12.1301 13.5706 12.1256 12.0588 12.0106 11.9783 11.0722 12.5486 11.1802 10.8923 10.8681 11.9802 13.814
threshold=32.500000000000007 30106.000000000004 103.50000000000001 24.500000000000004 2229161.0000000005 280117.00000000006 37346.500000000007 9.5000000000000018 54.500000000000007 113621281.00000001 8.5000000000000018 25355575.500000004 33.500000000000007 25.500000000000004 40.500000000000007 19632.000000000004 57.500000000000007 17.500000000000004 3724022.5000000005 37.500000000000007 9910058.5000000019 44119152.500000007 37825.500000000007 73.500000000000014 34.500000000000007 35092.000000000007 8200659.0000000009 11713392.000000002 61665322.000000007 79989270.000000015
decision_type=2 2 2 2 2 2 2 2 2 2 2 2 2 2 2 2 2 2 2 2 2 2 2 2 2 2 2 2 2 2
left_child=1 4 5 7 13 6 -2 8 -3 17 11 19 21 14 -1 16 -16 23 -19 22 -17 27 -5 24 -9 -25 -6 -4 -29 -30
right_child=2 3 12 10 26 -7 -8 9 -10 -11 -12 -13 -14 -15 15 20 -18 18 -20 -21 -22 -23 -24 25 -26 -27 -28 28 29 -31
leaf_value=0.0010651900594814833 0.0014732316681144817 0.022488607551820916 0.0088002776294101911 0.0043585437084642234 0.013179007514107825 -0.0043794974502209035 -0.0024125284067114633 0.002901435218075597 0.0050327696773345733 0.017884671585385398 -0.0028649568872014144 -0.011350833896345914 -0.0088768160001849623 0.016414647066606766 0.013926531625919177 0.0067933906846652592 0.0037344266806671939 -0.0091155097241477027 0.0016300788542819784 0.0021432316469293827 0.0189243197735166 -0.006093611074649498 -0.0028741847468588488 0.012080206009975687 0.018210090064284812 -0.0021982359009905484 0.0040017253980014714 -0.0044813265631925567 0.018990420687570092 -0.0030091214125883212
leaf_weight=22.804172948002815 226.45472541451454 5.5139779150485984 8.0693477541208249 28.467742040753365 13.570523202419279 439.99449430406094 542.40449173748493 9.1875538378953951 315.80913685262203 5.8923128098249427 152.34105323255062 9.3803095668554288 121.62929835915565 19.087874010205269 74.906910538673401 223.28501051664352 15.001384750008581 12.246131956577299 291.71959838271141 261.21738582849503 8.5065351426601392 403.89343674480915 117.02535930275917 7.9022962599992779 12.834497779607771 17.918965131044388 275.17766332626343 90.755669578909874 4.9358039349317533 6.768081933259964
leaf_count=105 1125 24 42 141 62 2316 2821 43 1507 28 774 49 668 86 334 1022 68 60 1412 1296 38 2209 592 37 60 84 1306 479 26 36
internal_value=0 0.00352589 -0.00363437 0.00184677 0.00673682 -0.00240054 -0.00126804 0.00368046 0.00533232 0.00219659 -0.000343665 0.000579442 -0.00597935 0.00856639 0.00813154 0.00863245 0.012226 0.00193384 0.00119716 0.0008546 0.00723858 -0.00529428 -0.001459 0.00661421 0.0118234 0.00217151 0.00443304 -0.00237337 -0.00325337 0.0062686
internal_weight=0 1899.8 1844.91 1247.46 652.34 1208.85 768.859 679.024 321.323 357.701 568.432 416.091 636.052 363.592 344.504 321.7 89.9083 351.809 303.966 406.71 231.792 514.422 145.493 47.8433 22.0221 25.8213 288.748 110.529 102.46 11.7039
internal_count=18850 9128 9722 6107 3021 6262 3946 3255 1531 1724 2852 2078 3460 1653 1567 1462 402 1696 1472 2029 1060 2792 733 224 103 121 1368 583 541 62
is_linear=0
shrinkage=0.01


Tree=27
num_leaves=31
num_cat=0
split_feature=48 56 39 48 12 16 56 33 7 5 12 44 16 37 19 48 39 34 1 52 56 44 50 36 15 22 10 54 46 38
split_gain=470.465 100.01 52.6518 48.1039 27.0121 26.6587 23.6671 17.2983 14.5375 12.9538 12.9387 12.5069 12.1711 13.2714 11.8572 11.837 14.489 11.9544 12.4849 11.314 11.2082 11.1326 11.0434 10.8236 10.6357 11.7497 13.3923 10.5891 13.2009 12.6163
threshold=32.500000000000007 27355.500000000004 103.50000000000001 24.500000000000004 2019832.0000000002 280117.00000000006 37346.500000000007 23.500000000000004 7535719.0000000009 8868429.0000000019 3499167.5000000005 33.500000000000007 4048077.5000000005 37.500000000000007 44119152.500000007 21.500000000000004 39.500000000000007 86.500000000000014 2559193.0000000005 1.0000000180025095e-35 24757.500000000004 16.500000000000004 5.5000000000000009 40.500000000000007 11713392.000000002 61665322.000000007 79989270.000000015 2.5000000000000004 16.500000000000004 27.500000000000004
decision_type=2 2 2 2 2 2 2 2 2 2 2 2 2 2 2 2 2 2 2 2 2 2 2 2 2 2 2 2 2 2
left_child=1 4 5 7 15 6 27 9 -6 21 12 14 13 -5 24 -1 -17 18 20 -15 -18 -3 -9 -8 -4 -26 -27 28 29 -2
right_child=2 3 11 10 8 -7 23 22 -10 -11 -12 -13 -14 19 -16 16 17 -19 -20 -21 -22 -23 -24 -25 25 26 -28 -29 -30 -31
leaf_value=0.01134223913450059 0.0010628830552946453 0.0042621699007223592 0.0086754284230561706 -0.0010346845684514249 0.0098482596154874057 -0.00434507598661623 -0.0034284223949761616 -0.00066363335427059242 0.0036846329708856585 0.0080018276931375504 -0.0017508459997519932 -0.0088291018711932467 -0.006468751994134353 0.0024708112926792474 -0.0060518888904514938 -0.0099587700774027964 0.0082781492395649654 0.0028829726655493432 0.012784346877803807 0.011160161212313403 -0.0057001032410855836 -0.00037434173151062436 0.015715843603481904 -0.00046510361422370702 -0.0044463696181543059 0.018626829299729922 -0.0029835249786518692 0.016548019665519539 -0.0053336783669321345 0.0085365590291078351
leaf_weight=146.64586117863655 168.43221122026443 525.67477092146873 8.1034468263387662 119.12297403812408 47.231941878795624 439.0500802397728 352.14113517105579 102.25845405459404 201.59350430965424 84.178204298019409 252.5426641702652 121.06656947731972 19.530769675970078 202.32805322110653 402.61755363643169 4.7654964327812186 22.785225316882137 34.628211632370949 53.341596931219101 16.183018550276756 7.6662666052579871 57.445619806647301 4.288890913128852 189.63459257781506 90.555495485663414 4.9815944284200651 6.7579369246959686 4.5565084666013709 27.527293667197227 26.085429117083549
