tree
version=v3
num_class=1
num_tree_per_iteration=1
label_index=0
max_feature_idx=53
objective=binary sigmoid:1
feature_names=checkpoint_elapsed_time cutscene_click_elapsed_time map_click_elapsed_time map_hover_elapsed_time navigate_click_elapsed_time notebook_click_elapsed_time notification_click_elapsed_time object_click_elapsed_time object_hover_elapsed_time observation_click_elapsed_time person_click_elapsed_time capitol_0_hall_elapsed_time historicalsociety_basement_elapsed_time historicalsociety_closet_elapsed_time historicalsociety_collection_elapsed_time historicalsociety_entry_elapsed_time historicalsociety_stacks_elapsed_time kohlcenter_halloffame_elapsed_time historicalsociety_closet_dirty_elapsed_time historicalsociety_frontdesk_elapsed_time humanecology_frontdesk_elapsed_time drycleaner_frontdesk_elapsed_time library_frontdesk_elapsed_time library_microfiche_elapsed_time capitol_1_hall_elapsed_time historicalsociety_cage_elapsed_time historicalsociety_collection_flag_elapsed_time wildlife_center_elapsed_time flaghouse_entry_elapsed_time capitol_2_hall_elapsed_time fullscreen hq music level_0_counts level_1_counts level_2_counts level_3_counts level_4_counts checkpoint_counts cutscene_click_counts map_click_counts map_hover_counts navigate_click_counts notebook_click_counts notification_click_counts object_click_counts object_hover_counts observation_click_counts person_click_counts notebook_next_counts notebook_open_counts notebook_prev_counts map_hover_duration object_hover_duration
feature_infos=[0:1987109605] [15764:83449511380] [1325:3974069577] [0:3494479810] [21907:97837651306] [0:6988455795] [2615:23842614170] [3254:21856446259] [0:10481929843] [0:2425471218] [9156:41724474270] [1309:5388385848] [710:6987216578] [11690:63578089598] [0:81463972756] [17894:77489038935] [0:4850581713] [12136:51663588664] none none none none none none none none none none none none [0:804] [0:586] [0:2628] [6:223] [18:507] [1:492] [8:879] [7:568] [0:3] [24:293] [1:121] [0:22] [25:1874] [0:86] [5:32] [6:291] [0:26] [0:53] [9:87] [0:3] [0:17] [0:3] [0:1636459] [0:221783396]
tree_sizes=3245

Tree=0
num_leaves=31
num_cat=0
split_feature=45 11 53 39 50 10 0 13 34 33 32 11 53 52 47 11 48 42 35 36 53 43 41 35 32 32 5 43 48 37
split_gain=183.625 96.0003 69.6367 48.7263 48.8351 41.7376 97.6786 103.977 36.8036 29.3893 26.6512 25.5521 24.8621 24.742 30.2101 23.2788 30.5006 58.8351 107.716 47.5582 22.6799 35.4041 42.4225 60.1455 25.4652 25.083 21.1644 17.0698 15.4397 30.302
threshold=18.500000000000004 1129660.5000000002 11707.500000000002 53.500000000000007 5.5000000000000009 1727642.5000000002 280575.50000000006 1436821.0000000002 88.500000000000014 54.500000000000007 155.50000000000003 1975580.0000000002 11101.500000000002 2967.5000000000005 2.5000000000000004 1503619.5000000002 21.500000000000004 92.500000000000014 42.500000000000007 45.500000000000007 7635.0000000000009 3.5000000000000004 1.5000000000000002 40.500000000000007 224.50000000000003 255.50000000000003 4208530.0000000009 8.5000000000000018 30.500000000000004 23.500000000000004
decision_type=2 2 2 2 2 2 2 2 2 2 2 2 2 2 2 2 2 2 2 2 2 2 2 2 2 2 2 2 2 2
left_child=10 13 3 4 5 6 11 -8 15 -5 -1 -3 -7 20 -15 16 19 18 -18 -4 21 -2 24 -24 -23 -26 -22 -19 -12 -30
right_child=1 2 8 9 -6 12 7 -9 -10 -11 28 -13 -14 14 -16 -17 17 27 -20 -21 26 22 23 -25 25 -27 -28 -29 29 -31
leaf_value=3.8398598863148146 3.8316156011994811 3.8238066873773464 3.7234668489278668 3.6782186622852979 3.7011220654006713 3.8295911099690656 3.6028050178810198 3.8021593474366768 3.7234668489278646 3.7811746811676601 3.8344033966730153 3.743577154102339 3.7475992151372339 3.8280404358351303 3.7234668489278651 3.8280088282827931 3.8262528531529547 3.8441286799747094 3.6349815061601785 3.8376064188370425 3.8329476608815658 3.8270438189415281 3.6552666835535614 3.8199963137653405 3.7124975915599698 3.8199963137653405 3.7698752454843434 3.7822508178994045 3.7762564000108592 3.8441286799747094
leaf_weight=182.72141251340508 5.5941468849778158 1.968310941010716 0.41438125073910415 0.66301000118255593 0.55941468849778164 3.4393643811345105 0.58013375103473641 0.47653843834996223 0.4143812507390966 0.47653843834996223 124.41797053441405 0.497257500886917 0.41438125073909748 0.62157187610864528 0.49725750088691711 10.546002831310032 0.55941468849778198 0.99451500177383401 0.62157187610864639 3.0664212554693222 42.929897576570511 2.3412540666759019 0.47653843834996212 0.4143812507390976 0.45581937581300724 0.4143812507390976 0.53869562596082587 0.80804343894124031 1.3260200023651116 1.3053009398281572
leaf_count=8819 270 95 20 32 27 166 28 23 20 23 6005 24 20 30 24 509 27 48 30 148 2072 113 23 20 22 20 26 39 64 63
internal_value=3.83391 3.82049 3.80488 3.78242 3.7912 3.79803 3.77315 3.69271 3.81658 3.72127 3.83741 3.80763 3.82077 3.8281 3.78156 3.81885 3.80391 3.78045 3.72558 3.82402 3.82908 3.81525 3.79294 3.73189 3.80988 3.76369 3.83217 3.81639 3.8339 3.80993
internal_weight=0 80.7836 26.4997 9.07495 7.9354 7.37599 3.52224 1.05667 17.4247 1.13955 309.771 2.46557 3.85375 54.2839 1.11883 17.0104 6.46435 2.98355 1.18099 3.4808 53.1651 9.69652 4.10237 0.89092 3.21145 0.870201 43.4686 1.80256 127.049 2.63132
internal_count=18850 3899 1279 438 383 356 170 51 841 55 14951 119 186 2620 54 821 312 144 57 168 2566 468 198 43 155 42 2098 87 6132 127
is_linear=0
shrinkage=1


end of trees

feature_importances:
capitol_0_hall_elapsed_time=3
music=3
object_hover_duration=3
level_2_counts=2
notebook_click_counts=2
person_click_counts=2
checkpoint_elapsed_time=1
notebook_click_elapsed_time=1
person_click_elapsed_time=1
historicalsociety_closet_elapsed_time=1
level_0_counts=1
level_1_counts=1
level_3_counts=1
level_4_counts=1
cutscene_click_counts=1
map_hover_counts=1
navigate_click_counts=1
object_click_counts=1
observation_click_counts=1
notebook_open_counts=1
map_hover_duration=1

parameters:
[boosting: gbdt]
[objective: binary]
[metric: binary_logloss]
[tree_learner: serial]
[device_type: cpu]
[data: ]
[valid: ]
[num_iterations: 1000]
[learning_rate: 0.01]
[num_leaves: 31]
[num_threads: 0]
[deterministic: 0]
[force_col_wise: 0]
[force_row_wise: 1]
[histogram_pool_size: -1]
[max_depth: -1]
[min_data_in_leaf: 20]
[min_sum_hessian_in_leaf: 0.001]
[bagging_fraction: 1]
[pos_bagging_fraction: 1]
[neg_bagging_fraction: 1]
[bagging_freq: 0]
[bagging_seed: 7719]
[feature_fraction: 1]
[feature_fraction_bynode: 1]
[feature_fraction_seed: 2437]
[extra_trees: 0]
[extra_seed: 11797]
[early_stopping_round: 0]
[first_metric_only: 0]
[max_delta_step: 0]
[lambda_l1: 0]
[lambda_l2: 0]
[linear_lambda: 0]
[min_gain_to_split: 0]
[drop_rate: 0.1]
[max_drop: 50]
[skip_drop: 0.5]
[xgboost_dart_mode: 0]
[uniform_drop: 0]
[drop_seed: 21238]
[top_rate: 0.2]
[other_rate: 0.1]
[min_data_per_group: 100]
[max_cat_threshold: 32]
[cat_l2: 10]
[cat_smooth: 10]
[max_cat_to_onehot: 4]
[top_k: 20]
[monotone_constraints: ]
[monotone_constraints_method: basic]
[monotone_penalty: 0]
[feature_contri: ]
[forcedsplits_filename: ]
[refit_decay_rate: 0.9]
[cegb_tradeoff: 1]
[cegb_penalty_split: 0]
[cegb_penalty_feature_lazy: ]
[cegb_penalty_feature_coupled: ]
[path_smooth: 0]
[interaction_constraints: ]
[verbosity: 1]
[saved_feature_importance_type: 0]
[linear_tree: 0]
[max_bin: 255]
[max_bin_by_feature: ]
[min_data_in_bin: 3]
[bin_construct_sample_cnt: 200000]
[data_random_seed: 38]
[is_enable_sparse: 1]
[enable_bundle: 1]
[use_missing: 1]
[zero_as_missing: 0]
[feature_pre_filter: 1]
[pre_partition: 0]
[two_round: 0]
[header: 0]
[label_column: ]
[weight_column: ]
[group_column: ]
[ignore_column: ]
[categorical_feature: ]
[forcedbins_filename: ]
[precise_float_parser: 0]
[objective_seed: 8855]
[num_class: 1]
[is_unbalance: 0]
[scale_pos_weight: 1]
[sigmoid: 1]
[boost_from_average: 1]
[reg_sqrt: 0]
[alpha: 0.9]
[fair_c: 1]
[poisson_max_delta_step: 0.7]
[tweedie_variance_power: 1.5]
[lambdarank_truncation_level: 30]
[lambdarank_norm: 1]
[label_gain: ]
[eval_at: ]
[multi_error_top_k: 1]
[auc_mu_weights: ]
[num_machines: 1]
[local_listen_port: 12400]
[time_out: 120]
[machine_list_filename: ]
[machines: ]
[gpu_platform_id: -1]
[gpu_device_id: -1]
[gpu_use_dp: 0]
[num_gpu: 1]

end of parameters

pandas_categorical:[]
