tree
version=v3
num_class=1
num_tree_per_iteration=1
label_index=0
max_feature_idx=56
objective=binary sigmoid:1
feature_names=checkpoint_elapsed_time cutscene_click_elapsed_time map_click_elapsed_time map_hover_elapsed_time navigate_click_elapsed_time notebook_click_elapsed_time notification_click_elapsed_time object_click_elapsed_time object_hover_elapsed_time observation_click_elapsed_time person_click_elapsed_time capitol_0_hall_elapsed_time capitol_1_hall_elapsed_time drycleaner_frontdesk_elapsed_time historicalsociety_basement_elapsed_time historicalsociety_closet_dirty_elapsed_time historicalsociety_collection_elapsed_time historicalsociety_entry_elapsed_time historicalsociety_frontdesk_elapsed_time historicalsociety_stacks_elapsed_time humanecology_frontdesk_elapsed_time kohlcenter_halloffame_elapsed_time library_frontdesk_elapsed_time library_microfiche_elapsed_time historicalsociety_closet_elapsed_time historicalsociety_cage_elapsed_time historicalsociety_collection_flag_elapsed_time wildlife_center_elapsed_time flaghouse_entry_elapsed_time capitol_2_hall_elapsed_time fullscreen hq music level_5_counts level_6_counts level_7_counts level_8_counts level_9_counts level_10_counts level_11_counts level_12_counts checkpoint_counts cutscene_click_counts map_click_counts map_hover_counts navigate_click_counts notebook_click_counts notification_click_counts object_click_counts object_hover_counts observation_click_counts person_click_counts notebook_next_counts notebook_open_counts notebook_prev_counts map_hover_duration object_hover_duration
feature_infos=[932:1987924809] [21749:29808532874] [3387:15900865410] [0:35512194686] [36074:159026259786] [0:24497192047] [4773:25836640659] [7623:53671247552] [0:31800103876] [318:3974610185] [45236:252413795296] [3719:17488994704] [18312:29606388194] [12804:93408941675] [1043:6556656123] [21284:99368325810] [0:3639786071] [5423:31808906827] [23606:117274545313] [9700:54474663546] [0:77507573821] [0:21663591743] [20344:81489177324] [6449:42013684061] none none none none none none [0:1459] [0:1684] [0:14255] [9:1436] [55:3132] [0:1121] [18:440] [22:2656] [10:1569] [34:2948] [5:953] [1:3] [11:114] [4:616] [0:146] [49:7871] [0:2588] [8:72] [13:2709] [0:146] [1:38] [85:389] [0:21] [0:31] [0:33] [0:47596873] [0:245241631]
tree_sizes=3248 3455 3455 3454 3462 3452 3458 3461 3466 3464 3458 3459 3465 3469 3465 3468 3470 3462 3470 3473 3461 3474 3478 3468 3459 3481 3472 3463 3465 3472 3465 3469 3468 3465 3466 3471 3469 3468 3467 3471 3480 3472 3467 3473 3473 3469 3482 3473 3464 3477 3480 3457 3476 3481 3474 3463 3467 3465 3471 3483 3472 3465 3474 3471 3456 3466 3467 3472 3460 3491 3474 3470 3486 3484 3468 3463 3479 3475 3482 3469 3472 3473 3476 3470 3470 3477 3470 3469 3455 3471 3453 3458 3470 3472 3473 3473 3479 3467 3472 3464 3464 3483 3475 3478 3469 3472 3476 3479 3473 3470 3467 3474 3472 3473 3469 3468 3475 3461 3478 3467 3467 3469 3476 3477 3475 3474 3469 3475 3469 3474 3468 3465 3462 3464 3451 3475 3461 3461 3460 3466 3462 3459 3469 3468 3461 3457 3454 3462 3464 3450 3475 3474 3462 3470 3452 3468 3469 3468 3472 3479 3463 3472 3451 3468 3463 3451 3472 3470 3488 3462 3484 3451 3478 3437 3471 3468 3459 3479 3477 3472 3467 3471 3465 3480 3471 3460 3463 3474 3468 3464 3454 3462 3459 3471 3467 3471 3467 3464 3479 3448 3473 3452 3476 3463 3472 3455 3448 3485 3447 3473 3449 3456 3449 3447 3469 3472 3455 3455 3473 3460 3478 3465 3459 3457

Tree=0
num_leaves=31
num_cat=0
split_feature=32 32 45 51 42 37 51 11 43 43 37 37 56 11 42 51 11 30 38 39 34 40 37 53 38 40 4 23 21 39
split_gain=832.114 281.553 125.179 103.221 64.8414 55.5942 53.6825 35.7711 35.8224 32.8484 32.8162 30.568 34.7145 27.7849 26.9484 23.4075 22.5831 22.1584 22.1388 21.8429 21.4598 20.5778 19.7945 18.7894 18.6903 18.5009 20.461 19.493 17.8032 17.6845
threshold=376.50000000000006 589.50000000000011 97.500000000000014 131.50000000000003 11.500000000000002 50.500000000000007 127.50000000000001 2161240.5000000005 6.5000000000000009 10.500000000000002 148.50000000000003 37.500000000000007 28751.500000000004 2736991.5000000005 16.500000000000004 126.50000000000001 4077831.0000000005 300.50000000000006 19.500000000000004 91.500000000000014 91.500000000000014 69.500000000000014 45.500000000000007 8.5000000000000018 35.500000000000007 15.500000000000002 117112670.50000001 6043745.0000000009 17780556.500000004 107.50000000000001
decision_type=2 2 2 2 2 2 2 2 2 2 2 2 2 2 2 2 2 2 2 2 2 2 2 2 2 2 2 2 2 2
left_child=2 3 11 5 15 -2 9 8 -6 -3 21 -1 17 18 29 -4 24 -13 -7 -15 -21 -8 -9 -24 25 -5 27 -27 -23 -11
right_child=1 6 4 16 7 13 10 22 -10 14 -12 12 -14 19 -16 -17 -18 -19 -20 20 -22 28 23 -25 -26 26 -28 -29 -30 -31
leaf_value=1.3830328566366417 1.3744880585491304 1.3726241265694437 1.3799801531745555 1.3627679346840831 1.3779067117830361 1.3585164276406267 1.3552031234709598 1.3784439238386557 1.3684761999832895 1.3714792938606155 1.334289576773837 1.3751727422426681 1.3808757913237737 1.3740114377222976 1.3346927816147012 1.372991259229142 1.366504253197375 1.3524337946127307 1.3684169328472362 1.3720774669757665 1.363326068974769 1.3549286245655787 1.3745563002148193 1.3620435099866635 1.3787167768320341 1.3634052105457228 1.3656558703376775 1.3429863446015851 1.3302575283651938 1.3572231935589669
leaf_weight=563.18254601955414 380.55486309528351 21.58034348487854 409.54338419437408 32.209467887878418 53.95085871219635 39.456598162651062 66.029409170150757 171.0322744846344 158.95372402667999 10.95121908187866 10.629124402999876 86.32137393951416 410.50966823101044 105.00286531448364 4.5093255043029776 54.272953391075134 74.72596549987793 4.5093255043029776 52.823527336120605 55.561332106590271 56.527616143226624 5.1535148620605451 106.29124402999878 13.527976512908934 4.3482781648635855 6.1197988986969021 8.535508990287779 19.808822751045227 6.7639882564544678 42.35545027256012
leaf_count=3497 2363 134 2543 200 335 245 410 1062 987 68 66 536 2549 652 28 337 464 28 328 345 351 32 660 84 27 38 53 123 42 263
internal_value=1.37539 1.36794 1.37907 1.37031 1.37646 1.37193 1.35612 1.37398 1.37087 1.3621 1.35077 1.38143 1.37964 1.36878 1.35817 1.37916 1.36267 1.37404 1.36418 1.37073 1.36766 1.35302 1.37626 1.37314 1.35863 1.35732 1.35223 1.34781 1.34093 1.36015
internal_weight=0 1003.65 2032.1 835.675 967.572 689.927 167.972 503.756 212.905 79.3963 88.576 1064.52 501.34 309.372 57.816 463.816 145.748 90.8307 92.2801 217.092 112.089 77.9469 290.851 119.819 71.0219 66.6736 34.4641 25.9286 11.9175 53.3067
internal_count=18850 6232 12618 5189 6008 4284 1043 3128 1322 493 550 6610 3113 1921 359 2880 905 564 573 1348 696 484 1806 744 441 414 214 161 74 331
is_linear=0
shrinkage=1


Tree=1
num_leaves=31
num_cat=0
split_feature=32 32 45 51 42 37 51 39 43 37 37 56 11 11 42 15 51 11 30 38 39 34 37 40 38 5 40 4 23 6
split_gain=813.685 270.737 123.485 99.8821 63.6816 54.1289 50.848 35.1261 31.5594 30.5188 30.2841 34.1948 27.9108 26.8675 25.2846 23.0372 23.0239 21.6294 21.401 21.2477 21.232 20.7437 19.7475 19.2612 17.9771 17.7199 17.5572 19.3426 18.303 17.4233
threshold=376.50000000000006 589.50000000000011 97.500000000000014 131.50000000000003 11.500000000000002 50.500000000000007 127.50000000000001 53.500000000000007 10.500000000000002 148.50000000000003 37.500000000000007 28751.500000000004 2284053.0000000005 2736991.5000000005 16.500000000000004 10713397.000000002 126.50000000000001 4077831.0000000005 300.50000000000006 19.500000000000004 91.500000000000014 91.500000000000014 51.500000000000007 69.500000000000014 35.500000000000007 13365246.500000002 15.500000000000002 117112670.50000001 6043745.0000000009 4096131.0000000005
decision_type=2 2 2 2 2 2 2 2 2 2 2 2 2 2 2 2 2 2 2 2 2 2 2 2 2 2 2 2 2 2
left_child=2 3 10 5 16 -2 8 15 -3 23 -1 18 -9 19 -10 -6 -4 24 -12 -7 -15 -22 -14 -8 26 -24 -5 28 -28 -21
right_child=1 6 4 17 7 13 9 12 14 -11 11 -13 22 20 -16 -17 -18 -19 -20 29 21 -23 25 -25 -26 -27 27 -29 -30 -31
leaf_value=0.0076028398471709602 -0.00089086365273113117 -0.0027321095377555692 0.0045583758300752021 -0.012400410181124378 -0.0079462581071977779 -0.016535917695345452 -0.019744362004656443 -0.0062168969099680241 -0.014947400286490248 -0.039708461995850049 -0.00021348014714387165 0.0054504384955411456 0.0012335295896712059 -0.0013620749976242308 -0.039328190448850039 0.004090085467030785 -0.0023697701644886443 -0.0087487033131109539 -0.02241638519618043 -0.013514509891140277 -0.0032713363926031224 -0.011855947635063544 -0.0032447017146525654 -0.03342597740005198 0.0033016735067893173 -0.018920533580377725 -0.011778715142113315 -0.0095793025177405653 -0.031466279488570621 -0.0019272423933278874
leaf_weight=560.61506570875645 380.75923031568527 21.615929663181305 408.42180785536766 32.452023029327393 18.065985709428787 39.853865578770638 66.824838519096375 159.41084453463554 53.79136161506176 10.88993453979492 86.332475900650024 409.16616941988468 147.04055540263653 105.08911031484604 4.618886172771453 132.72939322888851 54.35055860877037 75.122055768966675 4.571103870868682 22.64040470123291 55.671069771051407 56.934471309185028 38.034452900290489 12.162693321704863 4.3396457433700553 8.8980741798877698 6.1635565459728268 8.5850736349821073 20.191969379782677 30.402829170227051
leaf_count=3497 2363 134 2543 200 112 245 410 987 331 66 536 2549 914 652 28 824 337 464 28 140 345 351 236 74 27 55 38 53 123 188
internal_value=0 -0.00734218 0.00365072 -0.00500901 0.00106606 -0.00341804 -0.0188527 -0.00139258 -0.0130551 -0.0240148 0.00600697 0.00421789 -0.0031168 -0.00651614 -0.0168754 0.00264808 0.0037447 -0.0124989 -0.00132996 -0.0110185 -0.00459483 -0.0076118 -0.000569089 -0.0218511 -0.0164263 -0.00621673 -0.0176966 -0.0226156 -0.0268621 -0.00687303
internal_weight=0 1008.11 2027.64 838.205 966.952 691.351 169.904 504.179 80.0262 89.8775 1060.68 500.07 353.384 310.592 58.4102 150.795 462.772 146.854 90.9036 92.8971 217.695 112.606 193.973 78.9875 71.7323 46.9325 67.3926 34.9406 26.3555 53.0432
internal_count=18850 6232 12618 5189 6008 4284 1043 3128 493 550 6610 3113 2192 1921 359 936 2880 905 564 573 1348 696 1205 484 441 291 414 214 161 328
is_linear=0
shrinkage=0.01


Tree=2
num_leaves=31
num_cat=0
split_feature=32 32 45 51 42 37 51 39 43 37 56 37 11 11 42 51 15 11 30 39 38 34 37 56 8 21 34 46 4 38
split_gain=795.732 260.501 121.811 96.684 62.5417 52.7086 48.2283 34.389 30.3397 30.0022 33.6822 28.4772 27.1943 25.9881 23.7786 22.6464 22.5624 20.733 20.6801 20.6416 20.4856 20.0579 19.2897 18.7363 21.1105 18.3323 21.3538 23.5424 18.7337 17.3019
threshold=376.50000000000006 589.50000000000011 97.500000000000014 131.50000000000003 11.500000000000002 50.500000000000007 127.50000000000001 53.500000000000007 10.500000000000002 37.500000000000007 28751.500000000004 129.50000000000003 2284053.0000000005 2736991.5000000005 16.500000000000004 126.50000000000001 10713397.000000002 4077831.0000000005 300.50000000000006 91.500000000000014 18.500000000000004 91.500000000000014 51.500000000000007 44197.000000000007 14483330.500000002 1.0000000180025095e-35 113.50000000000001 23.500000000000004 161477055.50000003 35.500000000000007
decision_type=2 2 2 2 2 2 2 2 2 2 2 2 2 2 2 2 2 2 2 2 2 2 2 2 2 2 2 2 2 2
left_child=2 3 9 5 15 -2 8 16 -3 -1 18 25 -9 20 -10 -4 -6 29 -11 -15 -7 -21 -14 24 -22 28 27 -27 -8 -5
right_child=1 6 4 17 7 13 11 12 14 10 -12 -13 22 19 -16 -17 -18 -19 -20 21 23 -23 -24 -25 -26 26 -28 -29 -30 -31
leaf_value=0.0075614091162368334 -0.00088148434251437242 -0.002700370681061865 0.0045251870089956219 -0.017337724904009269 -0.0078295413060015702 -0.017502607859998014 -0.027033594785696044 -0.0061319293326187671 -0.01466753662142615 -0.00021131874242036973 0.0054136730581338137 -0.035146206228915088 0.001222098968346039 -0.0013473545691367115 -0.038057377549650766 -0.0023427473744499329 0.0040591347533695237 -0.0086162308794537987 -0.021901453768406198 -0.0032322943269444339 -0.0091421061082874663 -0.011655065291410518 -0.0061316503982428942 0.0001614495113276955 -0.033577532671450874 -0.0072060783201414996 -0.03030500086045752 -0.033584676866574507 -0.0099713108059109289 0.0032751511630679793
leaf_weight=558.06280133128166 380.96148484945297 21.651106506586075 407.30868180096149 68.095316216349602 18.151511192321777 30.88071471452713 9.0754727274179476 160.00054819881916 54.267130315303802 86.34346604347229 407.83220435678959 16.926963791251183 146.93226033449173 105.17443233728409 4.7248411178588858 54.427295073866844 132.40567007660866 75.512282848358154 4.6314815878868094 55.779522210359573 37.76148347556591 57.33457937836647 47.106148064136505 20.960436418652534 3.9007826894521704 10.580096811056135 27.47213613986969 4.9739551544189444 22.117621749639511 4.3310845345258704
leaf_count=3497 2363 134 2543 414 112 188 55 987 331 536 2549 101 914 652 28 337 824 464 28 345 232 351 291 129 24 64 166 30 134 27
internal_value=0 -0.00723698 0.00362224 -0.00494405 0.00105615 -0.0033769 -0.018458 -0.00137744 -0.012825 0.0059685 0.00418636 -0.0234418 -0.00307984 -0.00642591 -0.0165409 0.00371563 0.00262581 -0.0122825 -0.00131555 -0.00453639 -0.0108371 -0.00750158 -0.00056315 -0.0075502 -0.01143 -0.0207725 -0.0250041 -0.0156416 -0.0149355 -0.0161051
internal_weight=0 1012.48 2023.2 840.692 966.332 692.753 171.789 504.596 80.6431 1056.87 498.807 91.1462 354.039 311.792 58.992 461.736 150.557 147.939 90.9749 218.289 93.5034 113.114 194.038 62.6227 41.6623 74.2193 43.0262 15.5541 31.1931 72.4264
internal_count=18850 6232 12618 5189 6008 4284 1043 3128 493 6610 3113 550 2192 1921 359 2880 936 905 564 1348 573 696 1205 385 256 449 260 94 189 441
is_linear=0
shrinkage=0.01


Tree=3
num_leaves=31
num_cat=0
split_feature=32 32 45 51 42 37 51 39 37 56 43 37 11 11 42 51 15 39 30 11 38 34 5 50 40 39 37 38 6 23
split_gain=778.232 250.794 120.158 93.6164 61.422 51.3315 45.798 33.6683 29.7224 33.1766 29.184 26.9506 26.4985 25.1443 22.4113 22.2747 22.0984 20.0707 19.9932 19.8868 19.7634 19.4006 18.8508 19.0078 17.7177 16.6619 17.8875 16.6608 16.6603 16.5564
threshold=376.50000000000006 589.50000000000011 97.500000000000014 131.50000000000003 11.500000000000002 50.500000000000007 127.50000000000001 53.500000000000007 37.500000000000007 28751.500000000004 10.500000000000002 148.50000000000003 2284053.0000000005 2736991.5000000005 16.500000000000004 126.50000000000001 10713397.000000002 91.500000000000014 300.50000000000006 4077831.0000000005 19.500000000000004 91.500000000000014 13365246.500000002 5.5000000000000009 69.500000000000014 107.50000000000001 46.500000000000007 35.500000000000007 4096131.0000000005 5126496.0000000009
decision_type=2 2 2 2 2 2 2 2 2 2 2 2 2 2 2 2 2 2 2 2 2 2 2 2 2 2 2 2 2 2
left_child=2 3 8 5 15 -2 10 16 -1 18 -3 24 -9 20 25 -4 -6 -15 -10 27 -7 -19 -14 -24 -8 -12 -27 29 -22 -5
right_child=1 6 4 19 7 13 11 12 9 -11 14 -13 22 17 -16 -17 -18 21 -20 -21 28 -23 23 -25 -26 26 -28 -29 -30 -31
leaf_value=0.0075201542552361094 -0.00087220858469056015 -0.0026690585739481522 0.0044921801332433366 -0.0021399565927343626 -0.007715233111246683 -0.015921474683975288 -0.018867685778460676 -0.006048504114204001 -0.0002091788670442783 0.0053770864797619278 -0.0035004661277180981 -0.03731533002833775 0.00073939875439479072 -0.0013328061739186657 -0.036873180357412036 -0.0023160757413172475 0.0040283646527164256 -0.0031938044079615215 -0.021408291569850461 -0.0084866425984206264 -0.013107567268173706 -0.01145946897995738 -0.0046563908911216026 -0.02761739799437896 -0.03178478224579602 -0.0044350866383236513 -0.020409320507368038 0.003248800550730787 -0.0018325390060426694 -0.01861188685558849
leaf_weight=555.52575288712978 381.16159148514271 21.68588000535965 406.20396813750267 6.767990678548812 18.235810071229935 40.595996201038361 68.450813293457031 160.58236031234264 86.354352355003357 406.50769707560539 11.170379161834715 11.365115046501158 165.45649273693562 105.25884109735489 4.827286720275878 54.503162786364555 132.08447086811066 55.886694565415382 4.6904891133308402 75.896729707717896 22.947058886289597 57.728065878152847 24.41615650057793 4.2299848645925513 12.568621978163717 8.7790185362100583 34.784790426492691 4.3225941359996787 30.556404769420624 62.017818361520767
leaf_count=3497 2363 134 2543 41 112 245 410 987 536 2549 68 66 1028 652 28 337 824 345 28 464 140 351 151 26 74 53 210 27 188 373
internal_value=0 -0.007134 0.00359395 -0.00488022 0.00104632 -0.00333637 -0.0180781 -0.00136249 0.00593022 0.00415503 -0.0126016 -0.0228944 -0.00304342 -0.00633741 -0.016218 0.00368674 0.00260371 -0.0044789 -0.00130132 -0.0120722 -0.0106603 -0.00739362 -0.000557303 -0.00804689 -0.0208715 -0.0143963 -0.0171902 -0.0157945 -0.00666828 -0.0169912
internal_weight=0 1016.77 2018.79 843.14 965.712 694.135 173.632 505.005 1053.08 497.553 81.2474 92.3846 354.685 312.973 59.5615 460.707 150.32 218.874 91.0448 149.005 94.0995 113.615 194.103 28.6461 81.0194 54.7342 43.5638 73.1084 53.5035 68.7858
internal_count=18850 6232 12618 5189 6008 4284 1043 3128 6610 3113 493 550 2192 1921 359 2880 936 1348 564 905 573 696 1205 177 484 331 263 441 328 414
is_linear=0
shrinkage=0.01


Tree=4
num_leaves=31
num_cat=0
split_feature=32 32 45 51 42 37 51 37 37 56 43 37 11 39 11 51 42 40 39 10 5 39 39 38 34 56 8 12 39 56
split_gain=761.177 241.593 118.523 90.6718 60.3216 49.9972 43.547 33.039 29.4445 32.6778 28.0878 25.3504 24.3362 22.7821 24.0481 21.9431 21.1665 19.8369 19.5185 19.1213 29.3583 20.0252 19.884 19.0054 18.7706 17.9178 20.0583 17.6797 17.2377 18.0621
threshold=376.50000000000006 589.50000000000011 97.500000000000014 131.50000000000003 11.500000000000002 50.500000000000007 127.50000000000001 45.500000000000007 37.500000000000007 28751.500000000004 10.500000000000002 129.50000000000003 2736991.5000000005 53.500000000000007 2284053.0000000005 125.50000000000001 16.500000000000004 9.5000000000000018 91.500000000000014 80092878.500000015 5808923.5000000009 84.500000000000014 100.50000000000001 18.500000000000004 91.500000000000014 44197.000000000007 14483330.500000002 19606756.500000004 74.500000000000014 27308.500000000004
decision_type=2 2 2 2 2 2 2 2 2 2 2 2 2 2 2 2 2 2 2 2 2 2 2 2 2 2 2 2 2 2
left_child=2 3 8 5 15 -2 10 13 -1 17 -3 -8 23 -6 -15 -4 -12 -10 -14 20 -5 -21 27 -7 -20 26 -25 -23 29 -9
right_child=1 6 4 19 7 12 11 28 9 -11 16 -13 18 14 -16 -17 -18 -19 24 21 -22 22 -24 25 -26 -27 -28 -29 -30 -31
leaf_value=0.0074790734702769816 -0.00086303590015227364 -0.0026381659530065877 0.004525070632993896 -0.012923345901261927 0.0050203229368566225 -0.016835479930530514 -0.019869282615524803 -0.0073012079759383888 0.0026882656173564108 0.0053406801769772866 -0.014133332284235285 -0.033195770239036915 -0.0013184268727674199 -0.0050674790419290043 0.0019981546545991377 -0.0018475174774029068 -0.03576692475782297 -0.006763684111554074 -0.0031558546627926936 -0.0021765755280316714 -0.030912890537195446 -0.031566424416585068 -0.0089301914291852365 -0.0088553193755624721 -0.011268946404992333 0.00021495212327611159 -0.032412273229263419 -0.0087471478950187139 -0.0094403732118659312 -0.00038758874151628448
leaf_weight=553.0040767043829 381.35962064564228 21.720254153013229 397.14255130290985 51.543636277318001 90.84034326672554 31.485316812992096 76.016768306493759 57.405351743102074 52.790544793009758 405.19264757633209 55.19211371243 17.574302405118942 105.34233659505844 84.401969343423843 112.21232597529888 62.543330267071724 4.9263160228729239 38.322731390595436 55.99260225892067 29.706022560596466 11.009427934885023 8.5955425351858121 43.585186824202538 38.179601654410362 58.115051105618477 21.026977181434631 3.9925570935010901 5.6119850575923911 49.968345314264297 110.57899975776672
leaf_count=3497 2363 134 2493 309 567 188 449 354 327 2549 331 101 652 517 699 387 28 237 345 180 66 52 264 232 351 129 24 34 307 684
internal_value=0 -0.00703323 0.00356586 -0.0048175 0.00103658 -0.00329645 -0.0177127 -0.00134772 0.00589213 0.0041239 -0.0123847 -0.0223717 -0.00625063 0.000878609 -0.00103496 0.00365804 -0.0159061 -0.00128728 -0.00442236 -0.0118676 -0.0160895 -0.00884928 -0.0122791 -0.010488 -0.00728785 -0.00732574 -0.0110855 -0.0225528 -0.00428399 -0.00275018
internal_weight=0 1020.98 2014.4 845.546 965.093 695.494 175.43 505.407 1049.31 496.306 81.8387 93.5911 314.134 287.455 196.614 459.686 60.1184 91.1133 219.45 150.052 62.5531 87.4987 57.7927 94.6845 114.108 63.1991 42.1722 14.2075 217.953 167.984
internal_count=18850 6232 12618 5189 6008 4284 1043 3128 6610 3113 493 550 1921 1783 1216 2880 359 564 1348 905 375 530 350 573 696 385 256 86 1345 1038
is_linear=0
shrinkage=0.01


Tree=5
num_leaves=31
num_cat=0
split_feature=32 32 45 51 42 37 51 11 43 37 56 43 37 11 51 34 39 11 40 51 11 46 38 3 56 8 51 38 40 4
split_gain=744.546 232.855 116.908 87.8382 59.2404 48.7033 41.4512 32.5507 33.8025 29.1689 32.1862 27.0475 24.0257 23.5667 21.5891 21.0615 21.9693 20.1398 19.38 19.1013 18.6843 17.2553 16.624 17.8876 17.3016 25.4288 16.2081 15.9282 16.1854 17.6723
threshold=376.50000000000006 589.50000000000011 97.500000000000014 131.50000000000003 11.500000000000002 50.500000000000007 127.50000000000001 2161240.5000000005 6.5000000000000009 37.500000000000007 28751.500000000004 10.500000000000002 148.50000000000003 2631246.5000000005 125.50000000000001 91.500000000000014 91.500000000000014 3049261.0000000005 9.5000000000000018 101.50000000000001 4077831.0000000005 34.500000000000007 18.500000000000004 11337585.000000002 44197.000000000007 14483330.500000002 142.50000000000003 35.500000000000007 15.500000000000002 117112670.50000001
decision_type=2 2 2 2 2 2 2 2 2 2 2 2 2 2 2 2 2 2 2 2 2 2 2 2 2 2 2 2 2 2
left_child=2 3 9 5 14 -2 11 8 -6 -1 18 -3 21 22 -4 -15 -17 -13 -11 -9 27 -8 23 -7 25 -24 -22 28 -5 -30
right_child=1 6 4 20 7 13 12 19 -10 10 -12 17 -14 15 -16 16 -18 -19 -20 -21 26 -23 24 -25 -26 -27 -28 -29 29 -31
leaf_value=0.0074381629802568947 -0.00085396525530924145 -0.0026076835953485235 0.0044921232908806301 -0.011389705117110696 0.002560105509264588 -0.0230762556630448 -0.018285804252268757 0.0045800053789262401 -0.0065743833951536473 0.0026656678920724463 0.005304450925584416 -0.032767203030928053 -0.035215327150622977 -0.0010083706592294644 -0.0018270252969387294 -0.0031341470389792936 -0.011457285533114344 -0.013670160996446357 -0.0066691057414705966 -0.00091243573844274159 -0.0049975753958042051 -0.032312185501962611 -0.0087686025289279278 -0.0072424745482667632 0.00041792159410768956 -0.037387598139379585 -0.014788620841949663 0.0033295628969292972 -0.024968523776130805 -0.0087350177929382492
leaf_weight=550.497772783041 381.55557233095169 21.754236936569214 396.06030128896236 33.600329875946045 54.10585929453373 17.585862398147587 72.990447402000427 93.266535967588425 161.23963651061058 52.706097319722176 403.88705585896969 6.1447456181049338 11.810823708772658 99.490149512887001 62.612037718296051 65.683979988098145 61.319472536444664 54.519486710429192 38.47676657140255 197.19249510765076 51.585732161998749 9.968488931655882 36.89113549888134 12.005732983350752 18.910335406661034 3.3899729698896399 25.150292798876762 4.3486198782920829 27.532698556780815 8.8654218912124616
leaf_count=3497 2363 134 2493 200 335 104 426 581 987 327 2549 36 66 613 387 406 368 323 237 1225 312 58 223 71 116 20 152 27 161 53
internal_value=0 -0.00693452 0.00353795 -0.0047558 0.00102694 -0.00325712 -0.0173605 -0.00133312 -0.00427933 0.00585422 0.00409294 -0.012174 -0.0218711 -0.00616548 0.00362951 -0.00445373 -0.0071527 -0.0156045 -0.00127336 0.00085119 -0.0116681 -0.0199712 -0.0105323 -0.0166523 -0.00747276 -0.0111771 -0.0082066 -0.0152408 -0.0163945 -0.0210146
internal_weight=0 1025.1 2010.04 847.915 964.477 696.832 177.188 505.805 215.345 1045.57 495.07 82.4185 94.7698 315.277 458.672 226.494 127.003 60.6642 91.1829 290.459 151.083 82.9589 88.783 29.5916 59.1914 40.2811 76.736 74.3471 69.9985 36.3981
internal_count=18850 6232 12618 5189 6008 4284 1043 3128 1322 6610 3113 493 550 1921 2880 1387 774 359 564 1806 905 484 534 175 359 243 464 441 414 214
is_linear=0
shrinkage=0.01


Tree=6
num_leaves=31
num_cat=0
split_feature=32 32 45 51 42 37 51 39 37 56 43 11 32 19 37 15 51 33 42 30 37 4 11 38 0 11 37 3 14 21
split_gain=728.33 224.543 115.312 85.1231 58.1785 47.4482 39.5054 32.2428 28.8953 31.7012 26.0561 24.6512 22.8747 22.8925 22.7709 21.5104 21.254 20.2499 19.7486 19.2215 18.439 18.4045 24.6309 19.1714 19.0785 17.9571 17.2188 17.008 17.7221 16.7002
threshold=376.50000000000006 589.50000000000011 97.500000000000014 131.50000000000003 11.500000000000002 50.500000000000007 127.50000000000001 53.500000000000007 37.500000000000007 28751.500000000004 10.500000000000002 2284053.0000000005 471.50000000000006 16557556.500000002 129.50000000000003 10713397.000000002 126.50000000000001 21.500000000000004 16.500000000000004 300.50000000000006 51.500000000000007 76180807.500000015 3023420.0000000005 17.500000000000004 2063417.0000000002 4077831.0000000005 54.500000000000007 11891462.000000002 3382409.0000000005 1.0000000180025095e-35
decision_type=2 2 2 2 2 2 2 2 2 2 2 2 2 2 2 2 2 2 2 2 2 2 2 2 2 2 2 2 2 2
left_child=2 3 8 5 16 -2 10 15 -1 19 -3 -9 13 -7 29 -6 -4 -15 -12 -10 -13 22 -14 26 -25 -5 -23 -28 -29 -8
right_child=1 6 4 25 7 12 14 11 9 -11 18 20 21 17 -16 -17 -18 -19 -20 -21 -22 23 -24 24 -26 -27 27 28 -30 -31
leaf_value=0.0073974221325785062 -0.00084499402333676531 -0.0025776065571534858 0.0043951211727475872 -0.0149585646062335 -0.007575188321993425 -0.012038713155750518 -0.013575075997793045 -0.0058353423309930839 -0.00018260711625619645 0.0052683989073694449 -0.013604566492336535 0.0011995497411879021 -0.030089488205142061 -0.0068388353996984702 -0.031466258773164786 0.0039847190636522487 -0.0022480595045224396 0.00028014978784597064 -0.034210678724631828 -0.020817840182261921 -0.0059727452269811481 -0.034806157323339894 -5.853702451868828e-05 -0.0042732215140319401 -0.021102180174197144 -0.0080856769067553635 -0.028696144028591719 -0.01976342449690081 0.0012983516027674409 -0.022969698311289248
leaf_weight=548.0068411231041 381.74948175251484 21.787828356027603 402.96908277273178 74.988171830773354 18.339596748352051 29.944201171398163 32.556772008538246 162.08050480484962 86.488420203328133 402.5908839404583 56.1307103484869 146.71745979785919 8.8792919963598234 66.220637768507004 18.181854352355003 131.62797859311104 54.697200939059258 100.74294798076153 5.0711746662855139 4.7626441121101371 47.432501822710037 4.0008569508790996 3.9443423599004737 73.923552721738815 7.4118427336215964 77.102336302399635 4.8332568407058742 6.7870820015668896 9.7115977108478528 45.180200666189194
leaf_count=3497 2363 134 2543 441 112 180 189 987 536 2549 331 914 53 401 101 824 337 617 28 28 291 24 24 448 45 464 29 41 59 260
internal_value=0 -0.00683786 0.00351023 -0.00469519 0.00101737 -0.00321836 -0.0170206 -0.00131871 0.00581649 0.00406217 -0.0119687 -0.00295624 -0.00608192 -0.00398734 -0.0213915 0.00257105 0.00360117 -0.00254336 -0.015312 -0.00125962 -0.000552703 -0.00953353 -0.0208525 -0.00817277 -0.00580679 -0.0114744 -0.0157692 -0.0121987 -0.00736586 -0.0190352
internal_weight=0 1029.15 2005.71 850.24 963.864 698.149 178.909 506.198 1041.85 493.842 82.9897 356.23 316.4 196.908 95.9188 149.968 457.666 166.964 61.2019 91.2511 194.15 119.492 12.8236 106.668 81.3354 152.091 25.3328 21.3319 16.4987 77.737
internal_count=18850 6232 12618 5189 6008 4284 1043 3128 6610 3113 493 2192 1921 1198 550 936 2880 1018 359 564 1205 723 77 646 493 905 153 129 100 449
is_linear=0
shrinkage=0.01


Tree=7
num_leaves=31
num_cat=0
split_feature=32 32 45 51 42 37 51 37 46 37 56 34 43 11 39 11 6 51 34 39 39 40 49 4 40 9 39 56 53 39
split_gain=712.51 216.648 113.735 82.5119 57.135 46.227 37.8618 31.8279 31.1657 28.6233 31.2227 27.4782 22.6789 22.2276 22.0246 22.5478 21.1916 20.9259 20.2846 21.0021 19.0032 18.8909 17.6982 17.3429 19.5613 18.2982 16.5027 17.3541 16.1424 15.9004
threshold=376.50000000000006 589.50000000000011 97.500000000000014 131.50000000000003 11.500000000000002 50.500000000000007 108.50000000000001 45.500000000000007 34.500000000000007 37.500000000000007 28751.500000000004 109.50000000000001 14.500000000000002 2631246.5000000005 53.500000000000007 2284053.0000000005 8703555.0000000019 125.50000000000001 91.500000000000014 91.500000000000014 101.50000000000001 9.5000000000000018 28.500000000000004 117112670.50000001 15.500000000000002 1610842.0000000002 74.500000000000014 27308.500000000004 3.5000000000000004 67.500000000000014
decision_type=2 2 2 2 2 2 2 2 2 2 2 2 2 2 2 2 2 2 2 2 2 2 2 2 2 2 2 2 2 2
left_child=2 3 9 5 17 -2 -3 14 11 -1 21 -8 16 -7 -6 -16 22 -4 -15 -20 -14 -11 -13 24 28 -25 27 -9 -5 -12
right_child=1 6 4 23 7 13 8 26 -10 10 29 12 20 18 15 -17 -18 -19 19 -21 -22 -23 -24 25 -26 -27 -28 -29 -30 -31
leaf_value=0.0073568473475322796 -0.00083612118636744621 -0.005582531850139915 0.0044272363175606975 -0.0047835896028419946 0.0049691089628264087 -0.010212797592951775 -0.010272020918708814 -0.0071142927650280985 -0.030549360595083001 0.002651572661110076 0.0062657220125644309 -0.013821277875288852 -0.0083055677174421454 -0.00095820267832872805 -0.0048688507048022054 0.0019591925303761564 -0.0075497866325927587 -0.001791265375028018 -0.0030468998447971828 -0.011154065175170796 -0.02717680025658931 -0.0065537114866527357 -0.031281621200395182 0.001936769383427818 -0.019241590125020885 -0.010370579078657639 -0.0091947623115687851 -0.00035671487243058421 -0.017072788748137252 0.0013976607375950289
leaf_weight=545.53138594329357 381.94134891033173 26.21882064640522 393.9358845949173 26.823577791452408 90.438724309206009 89.805110827088356 42.834427520632744 57.849848166108131 19.066851615905762 52.651917725801468 316.13127517700195 13.486489623785021 6.1213388741016379 99.768600597977638 85.166349858045578 111.91551052033901 21.066008776426315 62.731726914644241 65.971360698342323 61.969789937138557 41.599131807684898 38.664576053619385 10.192777812480925 15.775368288159369 41.141456991434097 51.575501561164856 50.436075136065483 110.77393434941769 17.769328638911247 85.172818660736084
leaf_count=3497 2363 156 2493 159 567 534 249 354 108 327 2008 78 35 613 517 699 122 387 406 368 236 237 59 94 239 308 307 684 105 541
internal_value=0 -0.00674309 0.00348271 -0.0046355 0.0010079 -0.00318009 -0.0166929 -0.00130448 -0.01858 0.00577896 0.0040316 -0.0168932 -0.0199605 -0.00599967 0.000883421 -0.000991457 -0.0148461 0.00357301 -0.00433807 -0.0069737 -0.0247561 -0.00124606 -0.0213371 -0.0112854 -0.0142686 -0.00748787 -0.00417613 -0.00267504 -0.00968058 0.00523252
internal_weight=0 1033.13 2001.4 852.541 963.248 699.456 180.586 506.58 154.367 1038.15 492.621 135.3 92.4657 317.515 287.521 197.082 44.7453 456.668 227.71 127.941 47.7205 91.3165 23.6793 153.085 85.7344 67.3509 219.06 168.624 44.5929 401.304
internal_count=18850 6232 12618 5189 6008 4284 1043 3128 887 6610 3113 779 530 1921 1783 1216 259 2880 1387 774 271 564 137 905 503 402 1345 1038 264 2549
is_linear=0
shrinkage=0.01


Tree=8
num_leaves=31
num_cat=0
split_feature=32 32 45 51 42 37 51 37 37 56 43 32 33 39 11 37 43 30 11 4 11 38 0 11 37 3 39 56 40 39
split_gain=697.076 209.098 112.177 79.9985 56.1095 45.0453 36.3806 31.1098 28.3534 30.7511 24.7603 21.8889 22.0044 21.6499 22.0486 21.1986 20.9026 18.5476 18.5381 17.4943 23.1908 18.4345 18.3381 16.9754 16.1704 16.109 16.0225 16.907 15.9747 15.7786
threshold=376.50000000000006 589.50000000000011 97.500000000000014 131.50000000000003 11.500000000000002 50.500000000000007 127.50000000000001 45.500000000000007 37.500000000000007 28751.500000000004 10.500000000000002 471.50000000000006 24.500000000000004 53.500000000000007 2284053.0000000005 148.50000000000003 12.500000000000002 300.50000000000006 3049261.0000000005 76180807.500000015 3023420.0000000005 17.500000000000004 2063417.0000000002 4077831.0000000005 54.500000000000007 12183447.500000002 74.500000000000014 27308.500000000004 69.500000000000014 82.500000000000014
decision_type=2 2 2 2 2 2 2 2 2 2 2 2 2 2 2 2 2 2 2 2 2 2 2 2 2 2 2 2 2 2
left_child=2 3 8 5 16 -2 10 13 -1 17 -3 12 -7 -6 -15 28 -4 -10 -12 20 -13 24 -23 -5 -21 -26 27 -9 -8 -25
right_child=1 6 4 23 7 11 15 26 9 -11 18 19 -14 14 -16 -17 -18 -19 -20 21 -22 22 -24 29 25 -27 -28 -29 -30 -31
leaf_value=0.0073164369904718312 -0.0008273470998789316 -0.0024235842363880596 0.0039605037032621037 -0.01445904464739981 0.0049342391415082253 -0.0071432083225416651 -0.016892192075601175 -0.0070136404112192451 -0.00016889247704626205 0.0051968357178205846 -0.030931347744538727 -0.029016747692670569 -0.00047410649696380823 -0.0048064253682024785 0.0019418930994377934 -0.032752310079792013 -0.0074956615376696647 -0.020312890208974334 -0.012930264491317144 -0.03355530554925993 -7.4619962586092645e-06 -0.0041303999949348479 -0.020508208238464377 -0.001664781739092569 -0.027088114289113962 -0.0069712347589689708 -0.0090538265382156882 -0.00035307270111110977 -0.028791465058712155 -0.011109912025235667
leaf_weight=543.07140724360943 382.13120901584625 21.960618168115616 439.15067914128304 76.145495727658272 90.168432176113129 100.89361959695816 72.337174221873283 58.092019453644753 86.556869864463806 400.02672092616558 6.3741077333688727 9.0834716409444791 97.074896171689034 85.408522427082062 111.78404350578785 12.369050845503805 16.525903910398483 4.8256770372390738 55.829686105251312 4.0987095236778286 3.9559188038110724 74.415900006890297 7.5282489508390418 27.141551434993744 5.2677229642868069 16.29089766740799 50.707595258951187 110.79737813770771 13.3668927103281 50.7744280397892
leaf_count=3497 2363 134 2776 441 567 606 410 354 536 2549 36 53 592 517 699 66 104 28 323 24 24 448 45 162 31 98 307 684 74 302
internal_value=0 -0.00665017 0.00345538 -0.00457686 0.000998517 -0.00314244 -0.0163752 -0.0012904 0.0057416 0.00400121 -0.0115521 -0.00591911 -0.00387298 0.000875121 -0.000980955 -0.0205143 0.00354503 -0.00123265 -0.0147749 -0.00927674 -0.0202158 -0.00795112 -0.00563504 -0.0111013 -0.0153482 -0.0118867 -0.00412416 -0.00264407 -0.0187481 -0.00781976
internal_weight=0 1037.04 1997.12 854.802 962.635 700.741 182.238 506.958 1034.48 491.409 84.1644 318.609 197.969 287.361 197.193 98.0731 455.677 91.3825 62.2038 120.641 13.0394 107.601 81.9441 154.061 25.6573 21.5586 219.597 168.889 85.7041 77.916
internal_count=18850 6232 12618 5189 6008 4284 1043 3128 6610 3113 493 1921 1198 1783 1216 550 2880 564 359 723 77 646 493 905 153 129 1345 1038 484 464
is_linear=0
shrinkage=0.01


Tree=9
num_leaves=31
num_cat=0
split_feature=32 32 51 37 56 37 39 39 51 46 6 32 34 5 19 53 21 10 12 39 51 3 39 37 7 38 40 16 19 33
split_gain=682.967 224.177 97.4798 88.4292 56.2782 53.3348 38.0527 36.3531 35.3024 28.9917 25.9983 28.5755 25.856 25.6159 23.8324 21.4837 21.0946 24.4125 19.9672 19.5104 19.4376 19.2489 19.2014 18.1634 17.052 16.9669 16.9088 18.2144 24.3448 17.2959
threshold=361.50000000000006 589.50000000000011 131.50000000000003 38.500000000000007 36932.000000000007 50.500000000000007 83.500000000000014 53.500000000000007 108.50000000000001 34.500000000000007 4345823.5000000009 471.50000000000006 109.50000000000001 7959536.5000000009 13915362.000000002 3.5000000000000004 1.0000000180025095e-35 64771852.500000007 22683949.500000004 52.500000000000007 122.50000000000001 5914172.5000000009 69.500000000000014 138.50000000000003 12075814.000000002 17.500000000000004 10.500000000000002 4190671.5000000005 32304497.500000004 23.500000000000004
decision_type=2 2 2 2 2 2 2 2 2 2 2 2 2 2 2 2 2 2 2 2 2 2 2 2 2 2 2 2 2 2
left_child=3 2 5 19 7 14 -6 -5 -3 12 15 -12 -10 -8 -2 21 17 -14 26 -1 -15 25 -16 -19 -21 -7 -4 29 -29 -28
right_child=1 8 18 4 6 10 13 -9 9 -11 11 -13 16 20 22 -17 -18 23 -20 24 -22 -23 -24 -25 -26 -27 27 28 -30 -31
leaf_value=0.0076116022592730729 -0.011672198265799436 -0.0053794169165820695 -0.0071466531100138966 0.002023783852892392 0.0048214658495355648 -0.021587861986085071 0.0014731234416099355 -0.0040466685877803997 -0.0098650629180776755 -0.029251655871799058 -0.0021744365433687442 -0.0085634823717921135 -0.02665454271903743 -0.0038811104464868767 0.003845730539563148 -0.022655121145703099 -0.023541229849103042 -0.0064812521878384547 -0.0049010299441516201 0.00054959896035036953 -0.020864640012112603 -0.021004702721809588 -0.0010930389614906978 -0.027932661864201395 0.0055781009596508743 -0.0014303507673636558 -0.022588966465417942 0.0095753402608936434 -0.014331653269752491 -0.012787058393290982
leaf_weight=435.67510069906712 18.159134104847908 26.449073851108551 36.151639074087143 187.26911956071854 487.66606223583221 4.9443783611059215 59.923890054225922 208.46894279122353 43.455024868249893 19.580476373434067 200.13144212961197 107.66312208771706 11.344469517469404 18.943395093083385 101.38564708828926 13.841899752616881 51.059903159737587 27.33914536237717 40.780085101723671 83.231057733297348 10.45981742441654 9.1763724237680417 352.1591399461031 4.6132032573223105 355.38166418671608 26.858891770243645 34.984675750136375 6.2715413868427303 13.276704162359236 37.084510862827301
leaf_count=2802 112 156 213 1174 3087 29 376 1289 249 108 1219 643 64 119 630 82 284 157 241 528 64 54 2182 25 2269 160 203 37 78 216
internal_value=0 -0.0059178 -0.0040569 0.00380475 0.00173035 -0.0026556 0.00372236 -0.00117404 -0.0160692 -0.0178655 -0.00553929 -0.00440925 -0.0162478 -0.00227799 -0.00043879 -0.0118839 -0.0191872 -0.0140526 -0.0109934 0.00611273 -0.00992278 -0.00824563 1.09762e-05 -0.00957836 0.00462389 -0.00456419 -0.0129379 -0.015223 -0.00666172 -0.0175452
internal_weight=0 1186.71 1002.87 1847.02 972.731 834.32 576.993 395.738 183.841 157.392 362.616 307.795 137.812 89.3271 471.704 54.8215 94.3567 43.2968 168.549 874.288 29.4032 40.9796 453.545 31.9523 438.613 31.8033 127.769 91.6174 19.5482 72.0692
internal_count=18850 7142 6099 11708 6109 5111 3646 2463 1043 887 2187 1862 779 559 2924 325 530 246 988 5599 183 243 2812 182 2797 189 747 534 115 419
is_linear=0
shrinkage=0.01


Tree=10
num_leaves=31
num_cat=0
split_feature=32 32 51 37 56 37 39 39 51 46 6 32 5 34 19 51 53 43 3 39 12 39 3 39 7 38 40 16 39 33
split_gain=668.634 216.697 94.5937 87.2939 55.3033 52.0123 37.4364 35.5619 33.8936 27.5053 25.1655 27.7638 24.9967 24.7503 23.1902 22.7083 20.5481 20.4899 20.1315 19.3419 19.257 18.8507 18.508 17.6527 16.8236 16.3722 16.2502 17.4659 23.8277 16.4617
threshold=361.50000000000006 589.50000000000011 131.50000000000003 38.500000000000007 36932.000000000007 50.500000000000007 83.500000000000014 53.500000000000007 108.50000000000001 34.500000000000007 4345823.5000000009 471.50000000000006 6953561.5000000009 109.50000000000001 13915362.000000002 122.50000000000001 3.5000000000000004 14.500000000000002 24379075.500000004 52.500000000000007 22683949.500000004 69.500000000000014 5914172.5000000009 101.50000000000001 12075814.000000002 17.500000000000004 10.500000000000002 4190671.5000000005 79.500000000000014 23.500000000000004
decision_type=2 2 2 2 2 2 2 2 2 2 2 2 2 2 2 2 2 2 2 2 2 2 2 2 2 2 2 2 2 2
left_child=3 2 5 19 7 14 -6 -5 -3 13 16 -12 -8 -10 -2 -14 22 18 -15 -1 26 -16 25 -19 -21 -7 -4 29 -29 -28
right_child=1 8 20 4 6 10 12 -9 9 -11 11 -13 15 17 21 -17 -18 23 -20 24 -22 -23 -24 -25 -26 -27 27 28 -30 -31
leaf_value=0.007571077937492344 -0.01147566938284335 -0.0053093612474236105 -0.0070465263166910701 0.0020059993790115748 0.0047873183666802682 -0.02111404839645814 0.0018729644530055144 -0.0039965508749367816 -0.0097136020224890315 -0.028521925538891508 -0.0021499416219327139 -0.0084361628022596308 -0.0033170933038761271 -0.017344186742264997 0.0038160747284714971 -0.020775763076249964 -0.022141584751160161 -0.0076125733958864062 -0.00090749339901444192 0.00054428554488761857 -0.0048384797771743723 -0.0010814012174441728 -0.020549488144219603 -0.025555035044803744 0.005541293109552101 -0.0014148824875737556 -0.022084459551662269 0.0083860860769709566 -0.014689496415710233 -0.012568921816431652
leaf_weight=433.63725762069225 18.284781098365784 26.529672399163246 36.297936856746674 187.041229814291 486.240269318223 5.0044729411602047 55.595681831240654 208.96982401609421 43.69008494913578 19.879093453288078 200.38620871305466 108.19242151081562 22.780252605676651 36.559536561369896 101.15299199521542 11.070661976933478 14.020396441221235 6.282351240515708 9.3591506481170637 83.203274086117744 40.893627762794495 352.38829021155834 9.285295292735098 43.115521475672722 354.17095719277859 26.880894407629967 35.4237961769104 6.9041756242513683 12.717414304614065 37.349492356181145
leaf_count=2802 112 156 213 1174 3087 29 349 1289 249 108 1219 643 143 206 630 67 82 35 53 528 241 2182 54 236 2269 160 203 41 74 216
internal_value=0 -0.00583922 -0.00400693 0.00377561 0.00171493 -0.00262493 0.00369359 -0.00116147 -0.0157725 -0.0175196 -0.00546634 -0.00435399 -0.00225204 -0.0159461 -0.000434261 -0.00902681 -0.0116856 -0.0188029 -0.0139941 0.00607449 -0.0108164 1.08794e-05 -0.00812486 -0.0232731 0.00459069 -0.00450671 -0.0127159 -0.0149432 -0.00656998 -0.0172008
internal_weight=0 1190.6 1005.18 1842.71 971.698 835.596 575.687 396.011 185.415 158.886 363.77 308.579 89.4466 139.007 471.826 33.8509 55.1911 95.3166 45.9187 871.011 169.586 453.541 41.1707 49.3979 437.374 31.8854 128.693 92.3949 19.6216 72.7733
internal_count=18850 7142 6099 11708 6109 5111 3646 2463 1043 887 2187 1862 559 779 2924 210 325 530 259 5599 988 2812 243 271 2797 189 747 534 115 419
is_linear=0
shrinkage=0.01


Tree=11
num_leaves=31
num_cat=0
split_feature=32 32 51 37 56 37 39 39 51 6 32 5 43 19 51 53 37 39 12 39 3 42 7 20 33 38 11 45 0 40
split_gain=654.636 209.549 91.8161 86.1705 54.3447 50.7275 36.8293 34.789 32.6304 24.3684 26.9796 24.3629 23.19 22.569 21.8315 19.6693 19.2977 19.1746 18.581 18.5063 17.8063 17.4256 16.5979 16.2636 16.1289 16.0147 15.9581 20.9647 15.9493 15.6276
threshold=361.50000000000006 589.50000000000011 131.50000000000003 38.500000000000007 36932.000000000007 50.500000000000007 83.500000000000014 53.500000000000007 127.50000000000001 4345823.5000000009 471.50000000000006 6953561.5000000009 10.500000000000002 13915362.000000002 122.50000000000001 3.5000000000000004 121.50000000000001 52.500000000000007 22683949.500000004 69.500000000000014 5914172.5000000009 16.500000000000004 12075814.000000002 13209599.000000002 24.500000000000004 17.500000000000004 1975033.0000000002 82.500000000000014 2063417.0000000002 10.500000000000002
decision_type=2 2 2 2 2 2 2 2 2 2 2 2 2 2 2 2 2 2 2 2 2 2 2 2 2 2 2 2 2 2
left_child=3 2 5 17 7 13 -6 26 12 15 24 -8 -3 -2 -13 20 -10 -1 29 -15 23 -14 -19 -7 -11 -12 27 -5 -27 -4
right_child=1 8 18 4 6 9 11 -9 16 10 25 14 21 19 -16 -17 -18 22 -20 -21 -22 -23 -24 -25 -26 28 -28 -29 -30 -31
leaf_value=0.0075307142604040533 -0.01128425847115988 -0.002166312579159248 -0.0069483164007318925 0.0057645374918476209 0.0047533483258013461 -0.01032636035011129 0.0018563381170088637 -0.0039471924383158484 -0.016888128142457347 -0.0048621465714781525 -0.014720147798936663 -0.0032773451850547988 -0.012438866967404606 0.003786597773066436 -0.020321152281448852 -0.021649695997937642 -0.027134832119865896 0.00053902185827512696 -0.0047769368776917958 -0.0010698956264967863 -0.020112274420597719 -0.03127744770381282 0.0055046562066223739 0.0042081693136496864 0.00081198990332269556 -0.0045570347435452234 0.0052501941751641815 -0.0037941904200429928 -0.019704374873504817 -0.014672260550133398
leaf_weight=431.61203689873219 18.4083621352911 22.252126708626747 36.442143335938454 34.296257644891739 484.82518850266933 19.042395636439327 55.533002838492393 209.46458770334721 76.914984866976738 103.87904399633408 28.699504181742668 22.825739189982414 58.275048315525055 100.92217740416527 11.204460084438322 14.194664075970648 24.150735482573509 83.175764366984367 41.00570310652256 352.61500371992588 9.3917297720909101 5.3618992120027533 352.96894720196724 12.923430666327475 96.759075522422791 72.323756113648415 83.194089129567146 69.32502968609333 7.6905141025781623 93.154847636818886
leaf_count=2802 112 134 213 216 3087 112 349 1289 423 627 168 143 331 630 67 82 127 528 241 2182 54 28 2269 77 592 430 525 433 45 534
internal_value=0 -0.00576213 -0.00395777 0.00374666 0.00169965 -0.0025947 0.003665 -0.00114904 -0.0154854 -0.00539468 -0.00429959 -0.00222644 -0.0109535 -0.000429783 -0.00888903 -0.0114929 -0.0193367 0.00603643 -0.0106439 1.07829e-05 -0.00800685 -0.0140262 0.00455768 -0.00445021 -0.00212576 -0.00831155 0.00198835 -0.000630472 -0.00601291 -0.0125003
internal_weight=0 1194.41 1007.45 1838.43 970.668 836.85 574.388 396.28 186.955 364.904 309.352 89.5632 85.8891 471.946 34.0302 55.5522 101.066 867.757 170.603 453.537 41.3576 63.6369 436.145 31.9658 200.638 108.714 186.815 103.621 80.0143 129.597
internal_count=18850 7142 6099 11708 6109 5111 3646 2463 1043 2187 1862 559 493 2924 210 325 550 5599 988 2812 243 359 2797 189 1219 643 1174 649 475 747
is_linear=0
shrinkage=0.01


Tree=12
num_leaves=31
num_cat=0
split_feature=32 51 32 37 19 56 32 39 11 39 37 5 43 39 37 56 3 11 39 51 39 46 43 7 56 49 11 45 51 40
split_gain=640.967 202.966 94.3379 85.0583 58.6359 53.4016 50.4745 36.2315 34.3856 34.0347 30.7972 23.7484 23.1019 22.2117 22.2034 21.8599 25.0445 21.6429 21.0019 21.0015 19.0085 18.9908 18.8327 16.3747 15.8994 15.9608 15.7034 20.5647 15.242 15.0338
threshold=361.50000000000006 131.50000000000003 480.50000000000006 38.500000000000007 14725772.000000002 36932.000000000007 629.50000000000011 83.500000000000014 2354783.0000000005 53.500000000000007 49.500000000000007 6953561.5000000009 10.500000000000002 66.500000000000014 92.500000000000014 52162.500000000007 6078587.0000000009 3939249.0000000005 124.50000000000001 122.50000000000001 52.500000000000007 4.5000000000000009 25.500000000000004 12075814.000000002 99723.500000000015 66.500000000000014 1975033.0000000002 82.500000000000014 131.50000000000003 15.500000000000002
decision_type=2 2 2 2 2 2 2 2 2 2 2 2 2 2 2 2 2 2 2 2 2 2 2 2 2 2 2 2 2 2
left_child=3 2 4 20 21 9 17 28 -4 26 -10 -9 -12 -6 15 16 -15 29 -14 -13 -1 -2 -20 -22 -8 -26 27 -5 -7 -3
right_child=1 6 8 5 13 7 24 11 10 -11 12 19 18 14 -16 -17 -18 -19 22 -21 23 -23 -24 -25 25 -27 -28 -29 -30 -31
leaf_value=0.0074905104872954624 -0.0068832029653240244 -0.0099684373120100776 -0.017711043796714978 0.0057269213374877559 0.0031155122589405378 0.0051235337497023796 -0.023535257251624652 0.001839842979791831 -0.0022866389051876272 -0.0038985780657519822 -0.0049813093579946155 -0.0032381621924763627 -0.0065964599282188662 0.0006652105036577962 -0.016620768671615986 0.00042849298141394202 -0.0073857482036287659 -0.0074786959033660838 -0.01452502059446378 -0.019884532135924088 0.0005338077137527872 -0.01913285075311125 -0.035227495380531944 0.0054681901190003204 -0.007240619504841582 -0.028492503175067727 0.0052143319438064965 -0.0037476818990186639 -0.0030852008619817379 -0.018051038867677682
leaf_weight=429.59947809576988 35.20624253153801 43.267875209450722 33.999558433890343 34.176911175251007 132.64014080166817 459.63005763292313 52.381343752145767 55.470889285206795 89.787258833646774 209.95332708954811 66.546523243188858 22.870691493153572 37.017246097326279 64.401257872581482 9.5455272793769819 290.61521965265274 96.586047470569611 95.476538255810738 58.565295100212097 11.335311487317083 83.148523211479187 19.759012579917908 4.7505178749561301 351.77559699118137 13.665286064147951 4.7666155248880377 82.929935961961746 69.482693210244179 23.79072992503643 49.157909959554672
leaf_count=2802 210 248 197 216 822 2937 281 349 545 1289 394 143 215 392 57 1786 591 555 333 67 528 117 26 2269 74 25 525 433 150 274
internal_value=0 -0.00568652 -0.00352659 0.0037179 -0.00140544 0.00168451 -0.0135294 0.00363661 -0.00826088 -0.00113674 -0.00700906 -0.00220122 -0.0095499 -0.000490756 -0.00152803 -0.00120901 -0.00416505 -0.0108179 -0.01258 -0.0087545 0.00599854 -0.0112867 -0.0160783 0.00452484 -0.0207245 -0.0127365 0.00197092 -0.000623874 0.00471955 -0.0142673
internal_weight=0 1198.14 939.42 1834.16 648.753 969.641 258.716 573.098 290.666 396.543 256.667 89.6769 166.88 593.788 461.148 451.603 160.987 187.902 100.333 34.206 864.524 54.9653 63.3158 434.924 70.8132 18.4319 186.59 103.66 483.421 92.4258
internal_count=18850 7142 5685 11708 3975 6109 1457 3646 1710 2463 1513 559 968 3648 2826 2769 983 1077 574 210 5599 327 359 2797 380 99 1174 649 3087 522
is_linear=0
shrinkage=0.01


Tree=13
num_leaves=31
num_cat=0
split_feature=32 32 51 37 56 37 39 39 51 46 5 6 32 34 19 51 21 10 39 53 39 12 3 37 7 38 33 11 45 38
split_gain=627.604 196.798 86.4873 83.9574 52.4746 48.7366 35.6431 33.2978 30.9253 25.3867 23.1526 23.0667 25.3733 22.7729 21.3991 20.2148 19.0449 22.4632 18.8434 18.4906 17.9147 17.6986 16.9861 16.5178 16.154 15.726 15.6812 15.4524 20.1727 15.3942
threshold=361.50000000000006 589.50000000000011 131.50000000000003 38.500000000000007 36932.000000000007 50.500000000000007 83.500000000000014 53.500000000000007 108.50000000000001 34.500000000000007 6953561.5000000009 4345823.5000000009 471.50000000000006 109.50000000000001 13915362.000000002 122.50000000000001 1.0000000180025095e-35 64771852.500000007 52.500000000000007 3.5000000000000004 69.500000000000014 22683949.500000004 5914172.5000000009 138.50000000000003 12075814.000000002 17.500000000000004 24.500000000000004 1975033.0000000002 82.500000000000014 19.500000000000004
decision_type=2 2 2 2 2 2 2 2 2 2 2 2 2 2 2 2 2 2 2 2 2 2 2 2 2 2 2 2 2 2
left_child=3 2 5 18 7 14 -6 27 -3 13 -8 19 26 -10 -2 -12 17 -15 -1 22 -16 -4 25 -19 -20 -7 29 28 -5 -13
right_child=1 8 21 4 6 11 10 -9 9 -11 15 12 -14 16 20 -17 -18 23 24 -21 -22 -23 -24 -25 -26 -27 -28 -29 -30 -31
leaf_value=0.0074504634632480173 -0.010906954828493312 -0.005015057201696602 -0.012102551705323674 0.0056894801733800692 0.0046859598793105124 -0.020432469198327745 0.0018234782272937007 -0.0038506927284206235 -0.009168364572039454 -0.026992093844539676 -0.003199534223847555 -0.0083836470347098003 -0.0080696072591332334 -0.024810882941885163 0.0037442814001891131 -0.019464818231238749 -0.021839382622749839 -0.0058043953796519951 0.00052864180583129649 -0.020908418770853098 -0.0010391514772679254 -0.0045990588284000895 -0.019503119174931131 -0.02583889554334845 0.0054318942375671652 -0.0012783979465864743 0.00080891722141962507 0.0051786461200138178 -0.0037018642753640051 -0.00068249771983594574
leaf_weight=427.59958963096142 18.655332997441292 26.868001326918602 131.28909742832184 34.058399528264999 482.02573744952679 5.0927396118640891 55.409338682889938 210.43612024188042 44.543512850999832 20.523912280797958 22.915115505456924 55.489744335412979 109.73090720176697 11.818810328841208 100.59099733829498 11.463280245661734 53.159269362688065 28.094958513975143 83.121547967195511 14.463407441973684 353.2203653305769 41.33088743686676 9.5429777204990369 4.8214813172817221 350.59086866676807 27.073926776647568 96.739825949072838 82.667706206440926 69.638456985354424 48.76911886036396
leaf_count=2802 112 156 747 216 3087 29 349 1289 249 108 143 332 643 64 630 67 284 157 528 82 2182 241 54 25 2269 160 592 525 433 295
internal_value=0 -0.00561215 -0.00385954 0.00368935 0.00166951 -0.0025338 0.00360842 -0.00112458 -0.0149554 -0.0165943 -0.00217636 -0.0052682 -0.00420212 -0.015096 -0.00041036 -0.0086231 -0.0177932 -0.0129851 0.00596082 -0.0111654 2.11355e-05 -0.010306 -0.00778684 -0.00873898 0.00449218 -0.00431094 -0.00209074 0.00195364 -0.000617353 -0.00478128
internal_weight=0 1201.82 1011.99 1829.93 968.614 839.369 571.813 396.801 189.83 162.962 89.7877 366.903 310.73 142.438 472.467 34.3784 97.8945 44.7353 861.312 56.1731 453.811 172.62 41.7096 32.9164 433.712 32.1667 200.999 186.365 103.697 104.259
internal_count=18850 7142 6099 11708 6109 5111 3646 2463 1043 887 559 2187 1862 779 2924 210 530 246 5599 325 2812 988 243 182 2797 189 1219 1174 649 627
is_linear=0
shrinkage=0.01


Tree=14
num_leaves=31
num_cat=0
split_feature=32 51 32 37 19 56 32 39 11 39 37 5 43 39 37 56 3 11 39 51 39 46 43 7 11 45 51 56 49 40
split_gain=614.555 190.875 89.5673 82.8685 55.8309 51.5629 46.9378 35.0634 32.7697 32.5779 28.9876 22.5747 21.9622 21.4967 21.3176 21.2679 24.4043 20.6163 19.9932 19.4685 18.6793 17.8879 17.5455 15.9359 15.2051 19.7885 15.0442 14.9694 15.025 14.2936
threshold=361.50000000000006 131.50000000000003 480.50000000000006 38.500000000000007 14725772.000000002 36932.000000000007 629.50000000000011 83.500000000000014 2354783.0000000005 53.500000000000007 49.500000000000007 6953561.5000000009 10.500000000000002 66.500000000000014 92.500000000000014 52162.500000000007 6078587.0000000009 3939249.0000000005 124.50000000000001 122.50000000000001 52.500000000000007 4.5000000000000009 25.500000000000004 12075814.000000002 1975033.0000000002 82.500000000000014 131.50000000000003 99723.500000000015 66.500000000000014 15.500000000000002
decision_type=2 2 2 2 2 2 2 2 2 2 2 2 2 2 2 2 2 2 2 2 2 2 2 2 2 2 2 2 2 2
left_child=3 2 4 20 21 9 17 26 -4 24 -10 -9 -12 -6 15 16 -15 29 -14 -13 -1 -2 -20 -22 25 -5 -7 -8 -29 -3
right_child=1 6 8 5 13 7 27 11 10 -11 12 19 18 14 -16 -17 -18 -19 22 -21 23 -23 -24 -25 -26 -27 -28 28 -30 -31
leaf_value=0.0074105708495687565 -0.0066838682578088419 -0.0096471881085840715 -0.017183012219400672 0.0056522125885795872 0.0030798666372415196 0.005056040965613089 -0.022644886679844049 0.0018072427870140608 -0.0022270441918968327 -0.0038035221474485405 -0.0048114351536647799 -0.0031614512040438391 -0.0063678654419413033 0.00068304181327459882 -0.016184716505425627 0.00043828622076825841 -0.0072533723247366335 -0.0072321240983078648 -0.014069742302211563 -0.019061011838076763 0.00052352472460502847 -0.018488516069991742 -0.033800973016376308 0.0053957670345458862 0.0051431366406175004 -0.0036567237034569838 -0.0031042035538343614 -0.0069261768602925091 -0.027335675478200438 -0.01747580233487862
leaf_weight=425.61241348087788 35.494409948587418 43.764117226004601 34.503117725253105 33.940723657608032 132.28930792212486 456.8748455196619 53.466475591063499 55.348341748118401 90.0546994805336 210.91304010152817 67.047424629330635 22.959019243717194 37.360500007867813 64.466332420706749 9.66835670173168 290.78272821009159 97.108966112136841 96.405532687902451 59.378032207489014 11.588428765535353 83.094832882285118 20.10929149389267 4.8768275380134574 349.4147684276104 82.407394796609879 69.792353197932243 23.767717704176903 13.82462337613106 4.8804031610488883 49.931021049618721
leaf_count=2802 210 248 197 216 822 2937 281 349 545 1289 394 143 215 392 57 1786 591 555 333 67 528 117 26 2269 525 433 150 74 25 274
internal_value=0 -0.00553924 -0.00344081 0.00366098 -0.00137089 0.00165463 -0.0130853 0.0035804 -0.00802877 -0.00111257 -0.00680794 -0.00215186 -0.00925383 -0.000474385 -0.00149205 -0.00117802 -0.00408685 -0.0104787 -0.012185 -0.00849472 0.00592328 -0.0109531 -0.0155673 0.0044597 0.0019365 -0.000610906 0.00465252 -0.0199511 -0.0122513 -0.0138191
internal_weight=0 1205.41 943.14 1825.71 649.919 967.592 262.272 570.538 293.221 397.054 258.717 89.8958 168.663 594.316 462.026 452.358 161.575 190.101 101.615 34.5474 858.122 55.6037 64.2549 432.51 186.14 103.733 480.643 72.1715 18.705 93.6951
internal_count=18850 7142 5685 11708 3975 6109 1457 3646 1710 2463 1513 559 968 3648 2826 2769 983 1077 574 210 5599 327 359 2797 1174 649 3087 380 99 522
is_linear=0
shrinkage=0.01


Tree=15
num_leaves=31
num_cat=0
split_feature=32 32 37 51 56 37 39 39 51 46 11 39 5 34 19 38 51 45 55 34 56 21 10 3 39 12 37 11 45 37
split_gain=601.798 185.072 81.7907 81.5325 50.6669 46.8411 34.4927 31.8744 29.0772 23.8549 22.0893 23.4368 22.014 21.4369 20.3024 20.014 18.7599 18.6554 18.1991 19.2649 20.9624 17.9711 21.2707 17.7481 17.3429 16.878 15.6248 14.9615 19.4119 14.8874
threshold=361.50000000000006 589.50000000000011 38.500000000000007 131.50000000000003 36932.000000000007 50.500000000000007 83.500000000000014 53.500000000000007 108.50000000000001 34.500000000000007 2631246.5000000005 91.500000000000014 6953561.5000000009 109.50000000000001 13915362.000000002 18.500000000000004 122.50000000000001 100.50000000000001 2822.0000000000005 91.500000000000014 35154.000000000007 1.0000000180025095e-35 64771852.500000007 10661157.500000002 69.500000000000014 22683949.500000004 138.50000000000003 1975033.0000000002 82.500000000000014 56.500000000000007
decision_type=2 2 2 2 2 2 2 2 2 2 2 2 2 2 2 2 2 2 2 2 2 2 2 2 2 2 2 2 2 2
left_child=2 3 17 5 7 14 29 27 -3 13 15 -12 -8 -10 -2 23 -14 -1 -13 -20 -21 22 -15 -7 -16 -5 -24 28 -4 -6
right_child=1 8 4 25 6 10 12 -9 9 -11 11 18 16 21 24 -17 -18 -19 19 20 -22 -23 26 -25 -26 -27 -28 -29 -30 -31
leaf_value=0.0067829021548957884 -0.01054833042980996 -0.0048466791490072983 0.0056151187503757439 -0.01172442229537923 0.0052287756258028988 -0.020134772960591726 0.0017911366458720022 -0.0037570519466760917 -0.0088575068862163011 -0.025997736108010872 -0.00059821961164226265 0.005186459820949724 -0.0031239031739542511 -0.023907269442998761 0.0037023153578823538 -0.0057769378129548443 -0.018672192678317722 0.0034533165935482081 -0.0038328972123182164 -0.033893037902265305 -0.010295740418542497 -0.021061601672101544 -0.0055550550949533973 -0.0061278589886571049 -0.0010092834601847104 -0.0044288170558734507 -0.024852537195836272 0.0051078022429613245 -0.0036122472160055779 -0.00047717227562371774
leaf_weight=624.62560504674911 18.894214078783989 27.064037635922432 33.823879405856133 132.92477488517761 428.07367354631424 23.540544524788857 55.287897035479546 211.38417369127274 45.03865958750248 20.95807458460331 131.72751970589161 11.869463577866552 23.002408087253571 12.061847552657126 100.2630390226841 70.95485831797123 11.710817486047743 230.32797968387604 59.371187627315521 4.054618388414382 52.627392545342445 54.155943989753723 28.377987951040268 14.692162811756132 353.80804841220379 41.644670844078064 4.9237755984067908 82.148992329835892 69.944400399923325 51.19455024600029
leaf_count=4121 112 156 216 747 2760 133 349 1289 249 108 803 70 143 64 630 414 67 1478 357 23 303 284 157 84 2182 241 25 525 433 327
internal_value=0 -0.00546756 0.0036328 -0.00376444 0.00163988 -0.00247466 0.00355258 -0.00110071 -0.014456 -0.0160273 -0.00514585 -0.00355889 -0.0021277 -0.0145818 -0.00039155 -0.00891967 -0.00836926 0.0058859 -0.00660762 -0.00781387 -0.0119837 -0.0171724 -0.0125293 -0.0147522 3.10805e-05 -0.00998401 -0.00840825 0.00191951 -0.000604533 0.00461928
internal_weight=0 1208.95 1821.52 1016.37 966.571 841.803 569.269 397.301 192.58 165.516 368.838 259.65 90.0011 144.558 472.965 109.188 34.7132 854.954 127.923 116.053 56.682 99.5196 45.3636 38.2327 454.071 174.569 33.3018 185.917 103.768 479.268
internal_count=18850 7142 11708 6099 6109 5111 3646 2463 1043 887 2187 1556 559 779 2924 631 210 5599 753 683 326 530 246 217 2812 988 182 1174 649 3087
is_linear=0
shrinkage=0.01


Tree=16
num_leaves=31
num_cat=0
split_feature=32 51 32 37 19 56 32 39 11 39 37 5 39 39 37 56 3 16 11 39 51 46 42 7 51 11 45 46 45 32
split_gain=589.336 179.718 85.4311 80.7236 53.3324 49.7859 43.7757 33.9308 31.2891 31.1871 27.4327 21.4698 20.8778 20.7667 20.5305 20.7199 23.7787 19.9847 19.6652 18.5365 18.0865 17.126 16.6161 15.7807 14.8181 14.7215 19.0427 14.541 14.414 14.144
threshold=361.50000000000006 131.50000000000003 480.50000000000006 38.500000000000007 14725772.000000002 36932.000000000007 629.50000000000011 83.500000000000014 2354783.0000000005 53.500000000000007 49.500000000000007 6953561.5000000009 202.50000000000003 66.500000000000014 92.500000000000014 52162.500000000007 6078587.0000000009 1057450.0000000002 3939249.0000000005 52.500000000000007 122.50000000000001 4.5000000000000009 18.500000000000004 12075814.000000002 131.50000000000003 1975033.0000000002 82.500000000000014 3.5000000000000004 210.50000000000003 445.50000000000006
decision_type=2 2 2 2 2 2 2 2 2 2 2 2 2 2 2 2 2 2 2 2 2 2 2 2 2 2 2 2 2 2
left_child=3 2 4 19 21 9 18 24 -4 25 -10 -9 22 -6 15 16 -15 -14 -3 -1 -13 -2 -12 -21 -7 26 -5 -19 -8 -18
right_child=1 6 8 5 13 7 28 11 10 -11 12 20 17 14 -16 -17 29 27 -20 23 -22 -23 -24 -25 -26 -27 -28 -29 -30 -31
leaf_value=0.0073374881337830468 -0.0064774792319111383 -0.01339410251138032 -0.016697686278889689 0.0055781962681806518 0.0030454614526745642 0.0049889467526038839 -8.6049706429528158e-05 0.0017751582965490796 -0.0021693671656496773 -0.0037112685771586414 -0.0065219295605280425 -0.0030868804892553625 -0.0034301219024065709 0.00070321335474044248 -0.01578424854172885 0.00045385851814377015 -0.0053393169138468699 -0.0041096369942091836 -0.0069965648938780023 0.00046383348315349744 -0.01829750909068599 -0.017956639030560207 -0.026599883923535704 0.0053228364356662288 -0.0031126113378365889 0.0050726424385737247 -0.0035684217315876217 -0.02356101621969215 -0.02025595860296454 -0.015256343268744628
leaf_weight=421.98176397383213 35.795603096485138 94.918461084365845 34.97443288564682 33.707867428660393 131.95012246072292 454.14749456942081 3.7327077239751807 55.227999597787857 90.3134585916996 211.84959861636162 129.58698877692223 23.04528971016407 9.7304666340351087 64.540064007043839 9.7829928547143918 291.04793284833431 80.112820938229561 4.6546104997396496 97.302418082952499 82.782613098621368 11.830506235361097 20.405780881643295 4.2572558671236029 347.04485583305359 23.757429823279381 81.892496258020401 70.094628781080246 22.046246364712715 69.728968933224678 17.528286948800087
leaf_count=2802 210 522 197 216 822 2937 20 349 545 1289 743 143 55 392 57 1786 486 26 555 528 67 117 23 2269 150 525 433 121 360 105
internal_value=0 -0.00539724 -0.00335766 0.0036048 -0.00133382 0.00162527 -0.012665 0.00352495 -0.00781643 -0.00108898 -0.00662445 -0.00210389 -0.00898741 -0.000454236 -0.00145159 -0.00114222 -0.00400651 -0.0156991 -0.0101557 0.00584866 -0.0082466 -0.0106454 -0.00716056 0.00438702 0.00458621 0.00190265 -0.000598233 -0.0201702 -0.0192311 -0.0071196
internal_weight=0 1212.41 946.727 1817.36 651.164 965.553 265.683 568.009 295.563 397.545 260.589 90.1038 170.276 594.962 463.012 453.229 162.181 36.4313 192.221 851.809 34.8758 56.2014 133.844 429.827 477.905 185.695 103.802 26.7009 73.4617 97.6411
internal_count=18850 7142 5685 11708 3975 6109 1457 3646 1710 2463 1513 559 968 3648 2826 2769 983 202 1077 5599 210 327 766 2797 3087 1174 649 147 380 591
is_linear=0
shrinkage=0.01


Tree=17
num_leaves=31
num_cat=0
split_feature=32 32 37 51 56 37 39 39 51 46 11 39 5 40 43 0 38 19 45 55 34 56 51 39 3 20 4 9 40 53
split_gain=577.149 174.311 79.6683 76.9021 48.9197 45.0044 33.3775 30.5154 27.4217 22.4959 21.067 22.5197 20.9416 20.6733 28.7392 24.656 19.3389 19.3003 18.4941 17.6749 18.4564 19.7097 17.4461 17.3433 16.9812 16.2874 16.2281 18.6328 17.9215 23.8455
threshold=361.50000000000006 589.50000000000011 38.500000000000007 131.50000000000003 36932.000000000007 50.500000000000007 83.500000000000014 53.500000000000007 108.50000000000001 34.500000000000007 2631246.5000000005 91.500000000000014 6953561.5000000009 25.500000000000004 10.500000000000002 769148.00000000012 18.500000000000004 13612096.500000002 100.50000000000001 2822.0000000000005 91.500000000000014 35154.000000000007 122.50000000000001 69.500000000000014 10661157.500000002 83826204.000000015 117112670.50000001 1610842.0000000002 13.500000000000002 3.5000000000000004
decision_type=2 2 2 2 2 2 2 2 2 2 2 2 2 2 2 2 2 2 2 2 2 2 2 2 2 2 2 2 2 2
left_child=2 3 18 5 7 17 -6 -4 -3 13 16 -12 -8 15 -15 -10 24 -2 -1 -13 -21 -22 -14 -19 -7 -17 28 -28 29 -5
right_child=1 8 4 26 6 10 12 -9 9 -11 11 19 22 14 -16 25 -18 23 -20 20 21 -23 -24 -25 -26 -27 27 -29 -30 -31
leaf_value=0.0067092121910040407 -0.010867295533940433 -0.0046824349608060555 0.0018859415416854178 -0.001858602931354842 0.0045533163711373231 -0.019610728929880961 0.0017593068135156589 -0.0036661587992460284 -0.028694646141994289 -0.025081510600686384 -0.00057324640087060377 0.0051786555061489768 -0.0030503737840074071 -0.0046851764802290641 -0.021274734261111209 -0.013262584913651376 -0.0056117003225199307 0.0036685917401870849 0.0033838608036919904 -0.0037396173433918234 -0.032675336224454413 -0.010048353770900815 -0.017936174315544319 -0.001025051398724048 -0.0059718117884466886 -0.0036968282379994362 0.0030469497147013955 -0.0088698668821446652 -0.015931574002650856 -0.016613655404554891
leaf_weight=619.60322080552578 16.902140349149704 27.257349297404289 185.47364516556263 28.294927895069122 476.55109851062298 23.861265227198601 55.168646454811096 212.30938738584518 6.8739777505397788 21.367935836315155 131.90789458155632 11.861222729086874 23.087670147418976 12.881468459963797 55.153025925159454 38.746687889099121 71.446185976266861 101.12465767562389 229.0815224647522 59.631967082619667 4.1506886780261985 53.087245374917984 11.947553113102911 355.40058922767639 14.785077244043348 32.925001055002213 17.185737416148186 55.470564723014832 57.639486417174339 17.870232716202736
leaf_count=4121 99 156 1174 160 3087 133 349 1289 36 108 803 70 143 71 287 208 414 637 1478 357 23 303 67 2188 84 177 98 316 314 100
internal_value=0 -0.00532805 0.003577 -0.00367212 0.00161078 -0.0024171 0.0034975 -0.00107739 -0.013986 -0.0154959 -0.00502633 -0.00347705 -0.00208041 -0.0140985 -0.0181337 -0.0106033 -0.00869419 -0.000373868 0.00581162 -0.00645252 -0.00763298 -0.0116892 -0.00812666 1.46349e-05 -0.0143928 -0.00886821 -0.0096759 -0.00605113 -0.012213 -0.00757019
internal_weight=0 1215.83 1813.22 1020.62 964.538 844.159 566.755 397.783 195.205 167.948 370.732 260.639 90.2039 146.58 68.0345 78.5457 110.093 473.427 848.685 128.731 116.87 57.2379 35.0352 456.525 38.6463 71.6717 176.461 72.6563 103.805 46.1652
internal_count=18850 7142 11708 6099 6109 5111 3646 2463 1043 887 2187 1556 559 779 358 421 631 2924 5599 753 683 326 210 2825 217 385 988 414 574 260
is_linear=0
shrinkage=0.01


Tree=18
num_leaves=31
num_cat=0
split_feature=32 51 32 45 19 11 32 11 37 39 37 56 43 42 43 39 37 56 3 40 11 39 39 51 46 43 56 30 39 56
split_gain=565.24 169.43 81.5056 78.6273 51.0113 46.6746 41.0423 29.9164 25.9566 24.8398 24.793 28.6322 20.5421 21.1673 20.1949 20.06 19.7839 20.1892 23.1732 19.2907 18.7462 18.2002 17.1581 16.7321 16.4359 15.8997 14.3113 13.8968 13.7558 13.7178
threshold=361.50000000000006 131.50000000000003 480.50000000000006 97.500000000000014 14725772.000000002 2301735.5000000005 629.50000000000011 2354783.0000000005 49.500000000000007 201.50000000000003 37.500000000000007 28751.500000000004 6.5000000000000009 11.500000000000002 10.500000000000002 66.500000000000014 92.500000000000014 52162.500000000007 6078587.0000000009 8.5000000000000018 3939249.0000000005 124.50000000000001 52.500000000000007 125.50000000000001 4.5000000000000009 25.500000000000004 45194.000000000007 291.50000000000006 67.500000000000014 99723.500000000015
decision_type=2 2 2 2 2 2 2 2 2 2 2 2 2 2 2 2 2 2 2 2 2 2 2 2 2 2 2 2 2 2
left_child=3 2 4 10 24 12 20 -4 -9 22 -1 19 -5 -14 -10 -6 17 18 -17 -12 -3 -16 -7 26 -2 -23 -24 -21 -13 -8
right_child=1 6 7 5 15 9 29 8 14 -11 11 28 13 -15 21 16 -18 -19 -20 27 -22 25 23 -25 -26 -27 -28 -29 -30 -31
leaf_value=0.0069533363583560827 -0.0062811202105021481 -0.012984632391681792 -0.016236556281602806 0.0024941284419982071 0.0030112748986617921 0.0065556021974313905 -0.021094462715040355 -0.0021142911933895708 -0.0044930664537328651 -0.016137134851593168 0.0036915540932095838 0.0059389785383876072 0.00091774142811915343 -0.0053905942387834516 -0.0059853229050514638 0.00072274705809596915 -0.015400708807393242 0.00046904305919587627 -0.0069891193610077283 -0.0040034028988805105 -0.0067716973753610037 -0.013261263557749231 0.00063179495554146581 -0.0032757403291352738 -0.017461372538141118 -0.031689137368288781 0.0049522780053260504 -0.023909829209949027 0.0011832118287824316 -0.011296516853531875
leaf_weight=519.06972980499268 36.08451583981514 96.1139105707407 35.429444372653961 85.319941177964211 131.61312061548233 129.65753614902496 55.419877395033836 90.561350330710411 67.991376325488091 6.5714514702558509 42.008669927716255 304.09592621028423 80.887059271335602 155.34393422305584 37.937079459428787 64.610682114958763 9.8944696485996229 291.30562052130699 98.162287682294846 44.724648669362068 98.165858447551727 60.849145650863647 131.90220838785172 46.621369391679764 20.687199994921684 5.0723640024662009 183.08886003494263 3.8053282648324958 76.0246572047472 19.253705024719238
leaf_count=3480 210 522 197 540 822 844 281 545 394 39 263 1991 517 943 215 392 57 1786 591 277 555 333 834 286 117 26 1180 22 492 99
internal_value=0 -0.00526016 -0.00327682 0.00354934 -0.00129787 0.00125812 -0.0122672 -0.0076113 -0.00644676 0.00317624 0.00544622 0.00378408 -0.00171159 -0.00323058 -0.00872989 -0.000434521 -0.00141197 -0.00110716 -0.00392799 -0.00126971 -0.00984535 -0.0115035 0.00343458 0.00231552 -0.0103551 -0.0146792 0.00314308 -0.0055643 0.00498782 -0.0185682
internal_weight=0 1219.15 950.199 1809.12 652.358 819.392 268.953 297.841 262.411 497.841 989.729 470.659 321.551 236.231 171.85 595.586 463.973 454.079 162.773 90.5386 194.28 103.859 491.27 361.612 56.7717 65.9215 314.991 48.53 380.121 74.6736
internal_count=18850 7142 5685 11708 3975 5183 1457 1710 1513 3183 6525 3045 2000 1460 968 3648 2826 2769 983 562 1077 574 3144 2300 327 359 2014 299 2483 380
is_linear=0
shrinkage=0.01


Tree=19
num_leaves=31
num_cat=0
split_feature=32 51 32 37 19 56 32 39 39 11 50 5 39 37 47 39 56 0 56 11 39 49 56 3 5 5 46 7 42 51
split_gain=553.597 164.371 79.3693 77.9153 49.6645 47.5544 39.6422 32.5813 29.5191 28.8697 23.0663 20.3666 19.7867 19.5057 18.9385 18.3126 17.1122 17.0507 16.9992 16.6893 16.4821 16.1157 15.88 25.4269 19.1298 16.0766 15.8172 15.6006 14.7393 14.558
threshold=361.50000000000006 131.50000000000003 480.50000000000006 38.500000000000007 14725772.000000002 36932.000000000007 603.50000000000011 83.500000000000014 53.500000000000007 2553206.0000000005 6.5000000000000009 6953561.5000000009 55.500000000000007 92.500000000000014 10.500000000000002 52.500000000000007 47260.500000000007 1922555.5000000002 99723.500000000015 3939249.0000000005 69.500000000000014 66.500000000000014 52162.500000000007 3316660.0000000005 8260871.0000000009 9130150.0000000019 4.5000000000000009 12075814.000000002 12.500000000000002 131.50000000000003
decision_type=2 2 2 2 2 2 2 2 2 2 2 2 2 2 2 2 2 2 2 2 2 2 2 2 2 2 2 2 2 2
left_child=3 2 4 15 26 8 19 28 29 -4 14 -9 -6 22 20 -1 -13 -16 -8 -3 -11 -20 23 -14 -25 -26 -2 -17 -7 -5
right_child=1 6 9 5 12 7 18 11 -10 10 -12 16 13 -15 17 27 -18 -19 21 -21 -22 -23 -24 24 25 -27 -28 -29 -30 -31
leaf_value=0.0072321698585694752 -0.0061964893637771017 -0.012468177162819765 -0.015013809111802858 0.0026410430817540133 0.0062261518218972387 0.0054868015888464442 -0.020289318546311823 0.0017350050061300138 -0.003609254934654269 0.0061503337133103743 -0.013882559145427244 -0.026702338548429592 0.0033071251742504454 -0.013206347380888063 -0.0092878511604445099 0.00037336141866732927 -0.0054036420621973403 -0.030651466734681113 -0.0047044209759043902 -0.0064791776667861099 -0.0047201931220979248 -0.025226729902500012 0.00068931701105230409 -0.0027728332565854093 -0.028324413689058577 -0.0085195691654028211 -0.017124714704532962 0.0052203063257283203 0.0013650578388237421 -0.0081144180848436252
leaf_weight=416.77464289963245 36.210938781499863 93.649475336074829 43.716134086251259 171.44485639035702 41.545730471611023 359.72324141860008 64.003044188022614 55.075967147946358 212.8819275945425 15.157187476754187 34.039988026022911 4.2968164831399909 50.549259498715401 12.645327702164648 26.956136137247089 82.306884497404099 30.899471834301949 4.3369527012109748 15.359081313014032 92.475940883159637 174.8295547068119 5.0960616320371619 337.45811840891838 113.4751368612051 4.6352255642414084 35.413112461566925 20.881961464881897 343.72131843864918 114.33434149622917 13.581637397408484
leaf_count=2802 210 506 243 1089 261 2351 323 349 1289 90 189 25 309 73 154 528 185 24 80 523 1010 25 2076 687 28 214 117 2269 736 85
internal_value=0 -0.00519338 -0.0032383 0.00352188 -0.00128392 0.00157746 -0.0120709 0.00344418 -0.00106999 -0.00750483 -0.00621913 -0.00206207 -0.000430037 -0.000929041 -0.00504025 0.00574185 -0.00800382 -0.0122487 -0.0177531 -0.00949256 -0.00385294 -0.00981722 -0.000642353 -0.00284442 -0.00486989 -0.0108118 -0.0101935 0.0042839 0.00449271 0.00185155
internal_weight=0 1222.43 951.851 1805.04 652.815 962.238 270.584 564.33 397.908 299.036 255.32 90.2723 595.722 554.176 221.28 842.803 35.1963 31.2931 84.4582 186.125 189.987 20.4551 541.531 204.073 153.523 40.0483 57.0929 426.028 474.058 185.026
internal_count=18850 7142 5685 11708 3975 6109 1457 3646 2463 1710 1467 559 3648 3387 1278 5599 210 178 428 1029 1100 105 3314 1238 929 242 327 2797 3087 1174
is_linear=0
shrinkage=0.01


Tree=20
num_leaves=31
num_cat=0
split_feature=32 32 45 51 11 37 51 37 56 39 46 37 11 39 40 43 0 40 38 19 43 55 34 56 39 39 51 3 12 20
split_gain=542.205 160.102 77.0231 70.609 45.6265 42.7691 25.3144 24.3357 28.0254 23.9963 21.0915 20.0271 19.6952 21.3788 19.3321 26.9433 23.1361 18.9116 18.6971 17.9445 17.4424 17.0856 17.555 18.4628 16.8366 16.6306 16.3542 16.2399 15.511 15.5004
threshold=361.50000000000006 589.50000000000011 97.500000000000014 131.50000000000003 2301735.5000000005 50.500000000000007 108.50000000000001 37.500000000000007 28751.500000000004 201.50000000000003 34.500000000000007 40.500000000000007 2631246.5000000005 91.500000000000014 25.500000000000004 10.500000000000002 769148.00000000012 9.5000000000000018 18.500000000000004 13612096.500000002 6.5000000000000009 2822.0000000000005 91.500000000000014 35154.000000000007 52.500000000000007 69.500000000000014 125.50000000000001 10661157.500000002 22683949.500000004 83826204.000000015
decision_type=2 2 2 2 2 2 2 2 2 2 2 2 2 2 2 2 2 2 2 2 2 2 2 2 2 2 2 2 2 2
left_child=2 3 7 5 11 19 -3 -1 17 24 14 -4 18 -14 16 -16 -8 -9 27 -2 -13 -15 -23 -24 -6 -21 -26 -7 -5 -18
right_child=1 6 4 28 9 12 10 8 -10 -11 -12 20 13 21 15 -17 29 -19 -20 25 -22 22 23 -25 26 -27 -28 -29 -30 -31
leaf_value=0.0068810334051687388 -0.010365945161919313 -0.0044417486980397091 0.0013742865132464149 -0.010882094932981446 0.006489236757562614 -0.019002939504636017 -0.02735273001420796 0.0026735987910841519 0.0049282134657111318 -0.015742512031882313 -0.023938164220392674 0.0016473455126150972 -0.00053539867062120286 0.0051877111199032811 -0.0043411746255807102 -0.02027774145223258 -0.012637838186730881 -0.006567472083839703 -0.0053683280318795089 0.0036251283226610234 -0.0053988489631157915 -0.0036087850828857649 -0.031371331282612845 -0.0097365411691612246 0.003098005791291868 -0.0009758491930289949 -0.0032454583761946697 -0.0057426369952204397 -0.0039655543308332432 -0.003379066262625879
leaf_weight=514.80584973096848 17.200404241681099 27.541888266801834 127.36960400640965 136.65221783518791 128.75595691800117 24.239170461893082 7.0631897896528235 51.95198754966259 378.06399966776371 6.6478814780712119 21.889957070350647 46.049964100122452 132.17858678102493 11.868121802806852 13.062894210219381 56.466314882040024 39.475884154438972 38.598754063248634 72.171226009726524 100.77797199785709 148.17030662298203 59.997638300061226 4.2573864161968222 53.67224970459938 313.89383228123188 356.36422558128834 46.686965793371201 14.921368151903151 42.510032221674919 33.363179013133049
leaf_count=3480 99 156 809 747 844 133 36 326 2483 39 108 288 803 70 71 287 208 236 414 637 903 357 23 303 2014 2188 286 84 241 177
internal_value=0 -0.00512766 0.00349458 -0.00353713 0.0012265 -0.00233154 -0.0133402 0.00538018 0.00373139 0.00312872 -0.0147708 -0.00170729 -0.00486358 -0.00336621 -0.0134278 -0.0172836 -0.0100726 -0.00126556 -0.00838703 -0.000338833 -0.00372818 -0.00624901 -0.00739999 -0.0113265 0.0033851 3.84461e-05 0.00227667 -0.0139504 -0.009241 -0.00839695
internal_weight=0 1225.67 1801 1026.81 817.575 847.648 198.863 983.421 468.615 495.985 171.321 321.59 373.306 261.974 149.431 69.5292 79.9023 90.5507 111.332 474.343 194.22 129.795 117.927 57.9296 489.337 457.142 360.581 39.1605 179.162 72.8391
internal_count=18850 7142 11708 6099 5183 5111 1043 6525 3045 3183 887 2000 2187 1556 779 358 421 562 631 2924 1191 753 683 326 3144 2825 2300 217 988 385
is_linear=0
shrinkage=0.01


Tree=21
num_leaves=31
num_cat=0
split_feature=32 32 37 51 56 37 39 39 51 46 5 6 32 34 39 19 21 10 39 56 53 3 7 12 20 44 33 37 38 0
split_gain=531.077 155.345 76.0511 68.6639 46.2878 41.746 31.8555 28.6648 24.4557 20.2417 19.7946 19.3036 20.975 19.0494 18.108 17.4835 16.5669 19.1807 16.3266 16.3083 16.1295 15.4289 15.423 15.0169 14.8804 14.7657 14.778 14.7345 14.5428 14.7304
threshold=361.50000000000006 589.50000000000011 38.500000000000007 131.50000000000003 36932.000000000007 50.500000000000007 83.500000000000014 53.500000000000007 108.50000000000001 34.500000000000007 6953561.5000000009 4345823.5000000009 471.50000000000006 109.50000000000001 52.500000000000007 13612096.500000002 1.0000000180025095e-35 64771852.500000007 69.500000000000014 47260.500000000007 3.5000000000000004 5914172.5000000009 12075814.000000002 22683949.500000004 13209599.000000002 33.500000000000007 24.500000000000004 56.500000000000007 17.500000000000004 2063417.0000000002
decision_type=2 2 2 2 2 2 2 2 2 2 2 2 2 2 2 2 2 2 2 2 2 2 2 2 2 2 2 2 2 2
left_child=2 3 14 5 7 15 27 -4 -3 13 -8 20 25 -10 -1 -2 17 -15 -17 -12 21 24 -16 -5 -7 26 -13 -6 -14 -30
right_child=1 8 4 23 6 11 10 -9 9 -11 19 12 28 16 22 18 -18 -19 -20 -21 -22 -23 -24 -25 -26 -27 -28 -29 29 -31
leaf_value=0.0071602971633950218 -0.010203649558246675 -0.0043867489684065756 0.0018225197347624704 -0.01071283842188942 0.0050491504265164659 -0.0091539592588765414 0.0017084405840552552 -0.0035586609444676477 -0.0078985884643233036 -0.023456616886374994 -0.025973816030678189 -0.0040429991468926155 -0.013240913926241238 -0.021748969761238458 0.0003251418580777944 0.0035968128234033416 -0.019245792011623335 -0.0073628022443372812 -0.00096553162159286013 -0.0053332071035616128 -0.018944421360598103 -0.017874240451797557 0.0051533208007520552 -0.0039174379857640808 0.0045357461040318884 -0.016823932991503622 0.0014470675029306041 -0.00066020099483863552 -0.0037418916543929619 -0.01797041422901163
leaf_weight=413.24521060287952 17.298748359084129 27.607993274927139 184.64603500068188 137.41923166811466 421.10337328910828 19.853578999638557 54.974563837051392 213.39267855882645 46.598003745079041 22.114799097180367 4.3673474341630927 102.45877084136009 30.035887062549591 12.665293514728544 82.055207848548889 100.55673639476299 56.558237701654434 34.548026278614998 356.56946560740471 30.991748362779617 15.208170861005781 9.9623831808567029 341.56669016182423 42.601380497217178 13.231969401240347 6.4228332340717307 94.022492930293083 50.637931048870087 75.028596043586731 8.0573961287736875
leaf_count=2802 99 156 1174 747 2760 112 349 1289 249 108 25 608 168 64 528 637 284 182 2188 185 82 54 2269 241 77 38 573 327 430 45
internal_value=0 -0.00506321 0.00346746 -0.00349513 0.00154681 -0.00230527 0.00339453 -0.00106239 -0.0131251 -0.0145238 -0.00204576 -0.00480223 -0.00382718 -0.0132101 0.00567096 -0.000335365 -0.0155952 -0.011222 3.80741e-05 -0.00788261 -0.0100917 -0.00696414 0.00421811 -0.00910473 -0.00367901 -0.00190357 -0.00141583 0.00443629 -0.00727752 -0.00512173
internal_weight=0 1228.82 1796.98 1028.73 960.114 848.707 562.075 398.039 200.092 172.484 90.3337 374.282 316.026 150.37 836.867 474.425 103.772 47.2133 457.126 35.3591 58.2561 43.0479 423.622 180.021 33.0855 202.904 196.481 471.741 113.122 83.086
internal_count=18850 7142 11708 6099 6109 5111 3646 2463 1043 887 559 2187 1862 779 5599 2924 530 246 2825 210 325 243 2797 988 189 1219 1181 3087 643 475
is_linear=0
shrinkage=0.01


Tree=22
num_leaves=31
num_cat=0
split_feature=32 51 45 32 19 11 32 11 37 56 39 50 43 42 39 37 40 47 11 39 0 51 39 56 3 5 5 46 56 38
split_gain=520.196 151.041 75.4582 73.9815 46.5449 44.6285 36.3979 27.5098 23.8808 27.4308 23.1883 21.6427 19.5431 20.3125 19.1789 18.6338 18.5491 18.0168 17.2114 16.5157 16.0275 15.9713 15.8654 15.4489 24.8003 18.5384 15.3253 14.9642 13.8285 13.6886
threshold=361.50000000000006 131.50000000000003 97.500000000000014 480.50000000000006 14725772.000000002 2301735.5000000005 629.50000000000011 2553206.0000000005 37.500000000000007 28751.500000000004 201.50000000000003 6.5000000000000009 6.5000000000000009 11.500000000000002 55.500000000000007 92.500000000000014 8.5000000000000018 10.500000000000002 3939249.0000000005 52.500000000000007 1922555.5000000002 125.50000000000001 69.500000000000014 52162.500000000007 3316660.0000000005 8260871.0000000009 9130150.0000000019 4.5000000000000009 45194.000000000007 21.500000000000004
decision_type=2 2 2 2 2 2 2 2 2 2 2 2 2 2 2 2 2 2 2 2 2 2 2 2 2 2 2 2 2 2
left_child=2 3 8 4 27 12 18 -5 -1 16 19 17 -4 -14 -6 23 -10 22 -3 -7 -19 28 -9 24 -16 -26 -27 -2 -21 -17
right_child=1 6 5 7 14 10 -8 11 9 -11 -12 -13 13 -15 15 29 -18 20 -20 21 -22 -23 -24 -25 25 26 -28 -29 -30 -31
leaf_value=0.0068092821170913399 -0.005918867890707509 -0.012233130345253168 0.0024145127781800006 -0.014485440464943383 0.0061710186324628116 0.0064232991315873664 -0.017369060721866468 0.0061535333935343094 0.0036275944626068825 0.0048694815091277592 -0.015363967999250929 -0.013319992936548394 0.00089227503121299572 -0.0052862916741071367 0.0033034817163505193 -0.019714581127014449 -0.0054505676544758363 -0.0089317874024031525 -0.0063393550761203076 0.00058466404364105869 -0.029405725182832368 -0.0032122981801279596 -0.0045090272592179159 0.00070444281592070156 -0.0027047611770619298 -0.027532614552578629 -0.0083509644311906394 -0.016464823216896723 0.0048441015752308577 0.0026825829343172514
leaf_weight=510.59817583858967 36.623978435993195 98.357625797390938 84.824900150299072 44.387325629591942 41.319681689143181 127.8646282106638 76.90786549448967 15.153806284070013 41.797037854790688 376.04819612205029 6.7222034931182852 34.613545030355453 80.740740239620209 156.04576098918915 50.525160416960716 8.8586677610874158 48.770006954669952 27.295471444725994 99.846793979406357 131.49332675337791 4.4463697075843802 46.759147316217422 176.39853385090828 337.75068302452564 113.84742239117622 4.7163838744163504 35.642515987157822 21.268623068928719 181.32746568322182 3.9435883462429038
leaf_count=3480 210 522 540 243 261 844 380 90 263 2483 39 189 517 943 309 50 299 154 555 834 24 286 1010 2076 687 28 214 117 1180 23
internal_value=0 -0.00499986 0.0034405 -0.00312225 -0.00123245 0.00119521 -0.0115298 -0.00721383 0.00531487 0.0036796 0.00308211 -0.00596234 -0.00170407 -0.00317949 -0.000401741 -0.000890831 -0.00126096 -0.00482181 -0.0092641 0.0033365 -0.0117998 0.00223885 -0.00366551 -0.000609419 -0.00277693 -0.00476915 -0.0105926 -0.00979325 0.00305366 -0.0128154
internal_weight=0 1231.9 1792.99 956.792 654.497 815.778 275.112 302.295 977.213 466.615 494.167 257.908 321.611 236.787 596.604 555.284 90.567 223.294 198.204 487.445 31.7418 359.58 191.552 542.482 204.731 154.206 40.3589 57.8926 312.821 12.8023
internal_count=18850 7142 11708 5685 3975 5183 1457 1710 6525 3045 3183 1467 2000 1460 3648 3387 562 1278 1077 3144 178 2300 1100 3314 1238 929 242 327 2014 73
is_linear=0
shrinkage=0.01


Tree=23
num_leaves=31
num_cat=0
split_feature=32 32 45 51 11 37 37 56 51 39 46 37 11 39 40 43 0 40 38 0 43 55 34 56 39 51 3 55 14 5
split_gain=509.545 147.087 74.4276 64.932 43.8126 40.2717 23.6487 27.0076 23.1562 22.6164 19.2992 19.1876 18.358 20.3064 18.265 25.4668 21.7103 18.1473 17.9209 16.9544 16.5979 16.4807 16.7535 17.3559 16.3103 15.6741 15.4523 15.3909 18.2688 21.678
threshold=361.50000000000006 589.50000000000011 97.500000000000014 131.50000000000003 2301735.5000000005 50.500000000000007 37.500000000000007 28751.500000000004 108.50000000000001 201.50000000000003 34.500000000000007 40.500000000000007 2631246.5000000005 91.500000000000014 25.500000000000004 10.500000000000002 769148.00000000012 8.5000000000000018 18.500000000000004 522833.50000000006 6.5000000000000009 2822.0000000000005 91.500000000000014 35154.000000000007 52.500000000000007 125.50000000000001 10559806.000000002 8219.5000000000018 2536293.0000000005 35153299.500000007
decision_type=2 2 2 2 2 2 2 2 2 2 2 2 2 2 2 2 2 2 2 2 2 2 2 2 2 2 2 2 2 2
left_child=2 3 6 5 11 19 -1 17 -3 24 14 -4 18 -14 16 -16 -10 -8 26 -2 -13 -15 -23 -24 -6 -26 -7 -21 29 -29
right_child=1 8 4 -5 9 12 7 -9 10 -11 -12 20 13 21 15 -17 -18 -19 -20 27 -22 22 23 -25 25 -27 -28 28 -30 -31
leaf_value=0.0067709490807521741 -0.0095026555030051779 -0.0042517896645613276 0.0013381910227118429 -0.0088358645161482358 0.0063849197908397914 -0.018458834066323794 0.0035992270589131313 0.0048356332246088634 -0.026084709646147265 -0.015081894866589245 -0.022737394277412816 0.0016006757150015692 -0.00049145961157929141 0.0051912218388135986 -0.0040076139547353612 -0.019385464123837071 -0.0079491296988137977 -0.0053787220381095414 -0.0051305935926463436 0.0015899346895007253 -0.0052767641002631404 -0.0034694357456772642 -0.030172445840734061 -0.0094321112260008708 0.0030288907713506281 -0.0031741678580460421 -0.0056654770869752 0.0020710518653525032 -0.0051879308773425227 -0.024189905080421546
leaf_weight=508.36521475017071 19.271270349621773 27.769946575164795 127.05149579048157 181.72362414002419 127.34947420656681 24.258975848555565 41.705656930804253 374.89941850304604 7.247723937034606 6.7791578173637381 22.452466174960136 45.905010402202606 132.49379402399063 11.869553402066229 13.242060005664824 57.668157950043678 73.964054882526398 48.926439419388771 72.885685220360756 271.06575646996498 148.96496963500977 60.388676181435585 4.3589259237051001 54.249615073204041 312.22945949435234 46.847196355462074 15.456494152545927 85.70338736474514 95.635636225342751 3.2630720883607855
leaf_count=3480 113 156 809 988 844 131 263 2483 36 39 108 288 803 70 71 287 385 299 414 1678 903 357 23 303 2014 286 86 527 586 20
internal_value=0 -0.0049374 0.00341374 -0.00340971 0.00118427 -0.00225087 0.00527976 0.00365136 -0.0127336 0.00305731 -0.0140829 -0.00168536 -0.00469603 -0.00325113 -0.0128055 -0.0165137 -0.00956763 -0.00124739 -0.00807547 -0.000315282 -0.00365666 -0.00604512 -0.0071659 -0.0109746 0.00331011 0.0022196 -0.0134799 7.32738e-05 -0.00215376 0.00110786
internal_weight=0 1234.97 1789.02 1032.62 815.127 850.901 973.897 465.532 202.344 493.205 174.574 321.921 375.962 263.361 152.122 70.9102 81.2118 90.6321 112.601 474.939 194.87 130.867 118.997 58.6085 486.426 359.077 39.7155 455.668 184.602 88.9665
internal_count=18850 7142 11708 6099 5183 5111 6525 3045 1043 3183 887 2000 2187 1556 779 358 421 562 631 2924 1191 753 683 326 3144 2300 217 2811 1133 547
is_linear=0
shrinkage=0.01


Tree=24
num_leaves=31
num_cat=0
split_feature=32 32 37 51 56 37 39 39 51 5 46 22 53 39 34 39 0 51 44 6 21 56 51 7 55 14 5 42 31 12
split_gain=499.135 142.839 73.5484 63.1703 44.5333 39.3175 31.0008 27.557 22.4007 19.1873 18.5691 18.0313 23.0128 20.9685 17.9154 17.8348 16.5258 16.1226 17.0418 17.5736 15.741 18.104 15.6672 15.2154 15.0798 17.8397 20.9845 14.9253 14.5856 14.6838
threshold=361.50000000000006 589.50000000000011 38.500000000000007 131.50000000000003 36932.000000000007 50.500000000000007 83.500000000000014 53.500000000000007 108.50000000000001 6953561.5000000009 34.500000000000007 26889090.000000004 3.5000000000000004 74.500000000000014 109.50000000000001 52.500000000000007 522833.50000000006 114.50000000000001 16.500000000000004 4067250.0000000005 1.0000000180025095e-35 79002.500000000015 122.50000000000001 12075814.000000002 8219.5000000000018 2536293.0000000005 35153299.500000007 20.500000000000004 498.50000000000006 20784358.500000004
decision_type=2 2 2 2 2 2 2 2 2 2 2 2 2 2 2 2 2 2 2 2 2 2 2 2 2 2 2 2 2 2
left_child=2 3 15 5 7 16 -6 -4 -3 -8 14 12 17 -13 -10 -1 -2 -7 19 -19 21 27 -11 -17 -18 26 -26 -16 29 -5
right_child=1 8 4 28 6 11 9 -9 10 22 -12 13 -14 -15 20 23 24 18 -20 -21 -22 -23 -24 -25 25 -27 -28 -29 -30 -31
leaf_value=0.0070572393213962645 -0.0093574357330174166 -0.0041996729298324591 0.0017794773724976141 -0.010901389410956482 0.0043539795917409037 0.00069913100648225893 0.0016648946426737136 -0.0034975811947469434 -0.007487540239355793 -0.0029387753418439249 -0.0223041909666091 0.0004744473275312407 -0.016942873094817797 -0.005274766612192938 -0.010300740463322853 0.00024746765381484332 0.0015755312463964228 -0.013891199954226051 -0.026590589382439484 0.0045919129926873317 -0.018413197663978472 0.00036990546849226778 -0.016902548726517114 0.0050569224044238349 0.0020528658449044941 -0.0051203275556208549 -0.023609665838266475 -0.024850294053484958 0.007592411981636204 -0.004333464084871232
leaf_weight=408.21080636978149 19.374119207262993 27.833096921443939 184.07689836621284 131.25821350514889 468.37041752040386 24.427624896168709 54.80649122595787 214.00216929614544 47.282143265008926 23.214291229844093 22.658610686659813 90.862497508525848 24.610276415944099 210.18423262238503 27.142802342772484 81.646886870265007 270.80967399477959 12.993396490812307 5.3016318529844275 8.5153328180313093 57.694462925195694 11.355466857552527 12.288251802325247 338.47250701487064 85.598515197634697 95.927850648760796 3.3095955699682227 9.5246708393096906 5.329205557703971 45.957869619131088
leaf_count=2802 113 156 1174 703 3087 139 349 1289 249 143 108 546 137 1212 140 528 1678 73 30 50 284 59 67 2269 527 586 20 47 29 256
internal_value=0 -0.00487608 0.00338714 -0.00336952 0.00149846 -0.00222562 0.00331961 -0.0010574 -0.0125348 -0.00204495 -0.0138555 -0.00463742 -0.00899502 -0.00353953 -0.0126043 0.00556864 -0.000312032 -0.00517756 -0.010532 -0.00657371 -0.0148927 -0.0106633 -0.00777196 0.00412224 7.25803e-05 -0.00212945 0.00109758 -0.0140801 -0.00870793 -0.00919811
internal_weight=0 1237.95 1785.09 1034.46 956.759 851.915 558.679 398.079 203.491 90.309 175.658 376.895 75.8483 301.047 153 828.33 475.02 51.238 26.8104 21.5087 105.717 48.0229 35.5025 420.119 455.646 184.836 88.9081 36.6675 182.545 177.216
internal_count=18850 7142 11708 6099 6109 5111 3646 2463 1043 559 887 2187 429 1758 779 5599 2924 292 153 123 530 246 210 2797 2811 1133 547 187 988 959
is_linear=0
shrinkage=0.01


Tree=25
num_leaves=31
num_cat=0
split_feature=32 51 45 32 19 11 32 11 37 56 37 39 43 42 39 43 37 40 11 39 39 51 56 3 5 5 46 43 39 56
split_gain=488.949 138.941 72.9159 69.2398 44.1395 42.8684 33.4232 26.3416 23.1984 26.435 22.6483 21.8227 18.6956 19.6394 18.6809 18.0123 17.8956 17.8201 16.447 16.2489 15.9916 15.25 15.0342 24.1337 17.9642 14.5731 14.2269 14.0332 13.582 13.5179
threshold=361.50000000000006 131.50000000000003 97.500000000000014 480.50000000000006 14725772.000000002 2301735.5000000005 629.50000000000011 2354783.0000000005 37.500000000000007 28751.500000000004 49.500000000000007 201.50000000000003 6.5000000000000009 11.500000000000002 55.500000000000007 10.500000000000002 92.500000000000014 9.5000000000000018 3939249.0000000005 124.50000000000001 52.500000000000007 125.50000000000001 52162.500000000007 3316660.0000000005 8260871.0000000009 9130150.0000000019 4.5000000000000009 25.500000000000004 67.500000000000014 45194.000000000007
decision_type=2 2 2 2 2 2 2 2 2 2 2 2 2 2 2 2 2 2 2 2 2 2 2 2 2 2 2 2 2 2
left_child=2 3 8 4 26 12 18 -5 -1 17 -9 20 -4 -14 -6 -12 22 -10 -3 -17 -7 29 23 -16 -25 -26 -2 -21 -11 -22
right_child=1 6 5 7 14 11 -8 10 9 28 15 -13 13 -15 16 19 -18 -19 -20 27 21 -23 -24 24 25 -27 -28 -29 -30 -31
leaf_value=0.0066999876258644212 -0.0056991372335856083 -0.011740763351354051 0.0023574777357311095 -0.014879642613098669 0.0061314030697631663 0.0063192771256346675 -0.016558805951376133 -0.0018306105689973825 0.0026060837094307211 0.0057352635382200336 -0.0039880779686085385 -0.014706563597411083 0.00088767142677969061 -0.0051838582886504156 0.0032967925362669742 -0.0053644805619815737 -0.012472355295414812 -0.0063504367189947189 -0.0060191521635145299 -0.012143924054383528 0.00054218705827112715 -0.0031303151288699605 0.00072269945234525504 -0.0026323497095885112 -0.02673427360962868 -0.0081815861284961714 -0.015915506044757079 -0.029043586315415121 0.00097318269852546117 0.0047632660800369098
leaf_weight=504.24187016487122 36.954273402690887 99.856942072510719 84.474463388323784 36.804612040519714 41.158349573612213 126.46930775046349 78.443340122699738 91.848687782883644 51.694815576076508 297.98294508457184 69.510156765580177 6.8543002903461447 80.707812756299973 156.74479238688946 50.489572107791901 38.883051857352257 12.940916836261747 38.953267961740494 101.11113096773624 62.938703939318657 131.13338039815426 46.940556272864342 338.10435542464256 114.24742175638676 4.8003973215818396 35.875000327825546 21.596616685390472 5.3296923637390128 74.957997605204582 180.02353385090828
leaf_count=3480 210 522 540 197 261 844 380 545 326 1991 394 39 517 943 309 215 73 236 555 333 834 286 2076 687 28 214 117 26 492 1180
internal_value=0 -0.00481571 0.00336071 -0.00301187 -0.00118135 0.00115362 -0.0110229 -0.00694592 0.0052155 0.00360084 -0.00585845 0.00301178 -0.00168285 -0.0031202 -0.000369522 -0.00795258 -0.000850363 -0.00124271 -0.0088621 -0.0105244 0.00326241 0.00218281 -0.000573648 -0.00270741 -0.00466419 -0.0103711 -0.00946747 -0.0134633 0.00477813 0.00298434
internal_weight=0 1240.89 1781.18 961.482 656.167 813.348 279.411 305.315 967.831 463.589 268.51 491.421 321.927 237.453 597.616 176.662 556.458 90.6481 200.968 107.151 484.567 358.097 543.517 205.412 154.923 40.6754 58.5509 68.2684 372.941 311.157
internal_count=18850 7142 11708 5685 3975 5183 1457 1710 6525 3045 1513 3183 2000 1460 3648 968 3387 562 1077 574 3144 2300 3314 1238 929 242 327 359 2483 2014
is_linear=0
shrinkage=0.01


Tree=26
num_leaves=31
num_cat=0
split_feature=32 32 45 51 11 37 37 56 39 51 37 46 40 20 13 40 49 11 39 38 55 34 56 0 43 39 34 51 3 55
split_gain=478.991 135.155 71.9136 59.7617 42.083 37.7931 22.9702 26.0256 21.2934 21.2656 18.4024 17.7101 17.4494 17.3648 19.9938 25.3785 19.1139 17.3359 19.2904 17.3167 15.9499 16.047 16.4145 15.8848 15.7976 15.7914 15.5591 14.9659 14.7282 14.7167
threshold=361.50000000000006 589.50000000000011 97.500000000000014 131.50000000000003 2301735.5000000005 50.500000000000007 37.500000000000007 28751.500000000004 201.50000000000003 108.50000000000001 40.500000000000007 34.500000000000007 8.5000000000000018 83826204.000000015 61131459.500000007 25.500000000000004 29.500000000000004 2631246.5000000005 91.500000000000014 18.500000000000004 2822.0000000000005 91.500000000000014 35154.000000000007 522833.50000000006 6.5000000000000009 52.500000000000007 180.50000000000003 125.50000000000001 10661157.500000002 8219.5000000000018
decision_type=2 2 2 2 2 2 2 2 2 2 2 2 2 2 2 2 2 2 2 2 2 2 2 2 2 2 2 2 2 2
left_child=2 3 6 5 10 23 -1 12 25 -3 -4 13 -8 16 -15 -16 -11 19 -19 28 -20 -22 -23 -2 -12 -6 -18 -27 -7 -25
right_child=1 9 4 -5 8 17 7 -9 -10 11 24 -13 -14 14 15 -17 26 18 20 -21 21 22 -24 29 -26 27 -28 -29 -30 -31
leaf_value=0.0066620507140490153 -0.0091276067575569511 -0.0040625800476326119 0.0013034797820529363 -0.0084558238205516747 0.0062813138918885857 -0.017791110052257555 0.0035439354919684042 0.0047447704385289178 -0.014444591543715682 -0.0094540692072578002 0.0015535513820926761 -0.021631011649608536 -0.0052593459581373892 -0.00038827622228579704 -0.0043552083505026965 -0.01974331335977848 -0.016152863298866556 -0.00044023965791261581 0.005211358791506763 -0.0049129281923779656 -0.0033225908078622119 -0.02909933682685914 -0.0091346591000002145 0.0015671103956962323 -0.0051601900522834114 0.0029600386837028282 -0.029603529753344526 -0.0030933315195440631 -0.0053062874043177978 -0.002091327099421972
leaf_weight=502.05312231183052 19.536150977015495 27.997280418872833 126.74479988217354 184.16256193816662 125.96387180685997 25.014958992600441 41.525604665279388 371.81361076235771 6.9085497707128516 36.394504711031914 45.75898078083992 22.979154452681541 49.185047954320908 21.512683525681496 21.018367573618889 21.868633985519409 43.131132811307907 132.86671252548695 11.887399867177008 73.545198500156403 60.807029277086258 4.4526481926441184 54.821943372488022 270.64506031572819 149.7272327542305 310.57894824445248 10.741828382015226 47.026320829987526 15.184808686375616 185.19740700721741
leaf_count=3480 113 156 809 988 844 133 263 2483 39 182 288 108 299 112 107 107 219 803 70 414 357 23 303 1678 903 2014 52 286 84 1133
internal_value=0 -0.00475639 0.00333448 -0.00328922 0.00114304 -0.00217501 0.00518088 0.00357312 0.00298747 -0.0121629 -0.0016644 -0.0134395 -0.00122937 -0.0122225 -0.0082555 -0.0122018 -0.0150526 -0.00453238 -0.00312998 -0.00779763 -0.00583801 -0.00693183 -0.0106344 -0.000297649 -0.00358865 0.00323651 -0.0188348 0.002164 -0.0130752 8.07786e-05
internal_weight=0 1243.77 1777.29 1038.12 812.709 853.959 964.577 462.524 490.478 205.644 322.231 177.646 90.7107 154.667 64.3997 42.887 90.2675 378.581 264.836 113.745 131.969 120.082 59.2746 475.379 195.486 483.569 53.873 357.605 40.1998 455.842
internal_count=18850 7142 11708 6099 5183 5111 6525 3045 3183 1043 2000 887 562 779 326 214 453 2187 1556 631 753 683 326 2924 1191 3144 271 2300 217 2811
is_linear=0
shrinkage=0.01


Tree=27
num_leaves=31
num_cat=0
split_feature=32 51 37 32 56 19 39 32 43 11 47 50 39 39 37 47 37 10 5 55 23 39 56 6 39 7 0 56 3 5
split_gain=469.249 131.431 71.1013 66.2358 42.8991 42.4508 37.5542 31.5961 28.312 25.4418 21.0372 19.8283 18.3015 17.5556 17.2869 16.8826 16.7015 16.9242 16.3606 29.0253 15.951 17.0733 15.2727 15.2344 15.0536 15.0117 14.9285 14.6682 23.5284 17.4289
threshold=361.50000000000006 131.50000000000003 38.500000000000007 480.50000000000006 39661.500000000007 14725772.000000002 53.500000000000007 603.50000000000011 12.500000000000002 2553206.0000000005 14.500000000000002 6.5000000000000009 55.500000000000007 52.500000000000007 92.500000000000014 10.500000000000002 57.500000000000007 200143651.50000003 1673049.5000000002 1339.0000000000002 5572812.0000000009 86.500000000000014 99723.500000000015 3819558.0000000005 69.500000000000014 12075814.000000002 1922555.5000000002 52162.500000000007 3316660.0000000005 8260871.0000000009
decision_type=2 2 2 2 2 2 2 2 2 2 2 2 2 2 2 2 2 2 2 2 2 2 2 2 2 2 2 2 2 2
left_child=2 3 13 5 6 -2 23 -3 10 -5 16 15 -7 -1 27 24 -6 -18 -8 -20 -21 -22 -9 -4 -11 -15 -17 28 -14 -30
right_child=1 7 4 9 8 12 18 22 -10 11 -12 -13 14 25 -16 26 17 -19 19 20 21 -23 -24 -25 -26 -27 -28 -29 29 -31
leaf_value=0.0069549940139011848 -0.0092415517235882386 -0.0084291957033969175 -0.0020389753799646602 -0.013682428917534135 0.0046961339135909034 0.0060955101981829832 -0.001274754817632101 -0.01796387123213402 -0.0095933567298811025 0.006186273475738001 -0.019767974546421575 -0.01253265880044209 0.0032788667885747724 0.00017150357618899025 -0.012198105808188931 -0.0084145400667937631 0.00033942051498786464 -0.020632623850181046 0.0064849918721452604 -0.019368559477417661 -0.0055053416659725241 -0.022427555061788691 -0.0082792852412630919 0.0040362694714132412 -0.0041833892734649252 0.0049622477708389477 -0.027893572054453385 0.00072789399219755715 -0.0025805317439333906 -0.010181819173069435
leaf_weight=403.25669004023075 59.011713057756424 193.14379781484604 57.09523269534111 45.431352153420448 434.36118167638779 41.013092756271362 143.46190199255943 67.568983048200607 16.089535728096962 15.188557788729666 3.7301407754421225 35.425391122698784 50.416684299707413 81.248644039034843 13.054066792130468 27.791177049279213 44.809722572565079 4.209392011165618 14.639286682009695 12.142385125160216 67.416022628545761 6.5405874103307715 21.453923240303993 148.97510987520218 178.82237960398197 335.45402590930462 4.583277389407157 338.19655369222164 114.53553803265095 40.949015662074089
leaf_count=2802 327 1029 358 243 2869 261 866 323 96 90 24 189 309 528 73 154 289 26 89 72 414 39 105 967 1010 2269 24 2076 687 242
internal_value=0 -0.00469802 0.00330839 -0.00294169 0.00145155 -0.00114979 -0.000790799 -0.010701 0.00345804 -0.00677447 0.00388914 -0.00557575 -0.000351502 0.00546757 -0.00082608 -0.00448711 0.00407169 -0.0014615 -0.00344374 -0.0065326 -0.00874596 -0.00700191 -0.01563 0.00235302 -0.00337158 0.00402815 -0.0111722 -0.000553241 -0.00265753 -0.00458244
