tree
version=v3
num_class=1
num_tree_per_iteration=1
label_index=0
max_feature_idx=56
objective=binary sigmoid:1
feature_names=checkpoint_elapsed_time cutscene_click_elapsed_time map_click_elapsed_time map_hover_elapsed_time navigate_click_elapsed_time notebook_click_elapsed_time notification_click_elapsed_time object_click_elapsed_time object_hover_elapsed_time observation_click_elapsed_time person_click_elapsed_time capitol_0_hall_elapsed_time capitol_1_hall_elapsed_time drycleaner_frontdesk_elapsed_time historicalsociety_basement_elapsed_time historicalsociety_closet_dirty_elapsed_time historicalsociety_collection_elapsed_time historicalsociety_entry_elapsed_time historicalsociety_frontdesk_elapsed_time historicalsociety_stacks_elapsed_time humanecology_frontdesk_elapsed_time kohlcenter_halloffame_elapsed_time library_frontdesk_elapsed_time library_microfiche_elapsed_time historicalsociety_closet_elapsed_time historicalsociety_cage_elapsed_time historicalsociety_collection_flag_elapsed_time wildlife_center_elapsed_time flaghouse_entry_elapsed_time capitol_2_hall_elapsed_time fullscreen hq music level_5_counts level_6_counts level_7_counts level_8_counts level_9_counts level_10_counts level_11_counts level_12_counts checkpoint_counts cutscene_click_counts map_click_counts map_hover_counts navigate_click_counts notebook_click_counts notification_click_counts object_click_counts object_hover_counts observation_click_counts person_click_counts notebook_next_counts notebook_open_counts notebook_prev_counts map_hover_duration object_hover_duration
feature_infos=[893:1987924809] [13702:29808532874] [3387:15900865410] [0:35512194686] [36074:159026259786] [0:24497192047] [3621:25836640659] [7623:73253611907] [0:31800103876] [88:3974610185] [42656:252413795296] [3187:17488994704] [8019:29606388194] [12804:93408941675] [1043:6556656123] [20860:99368325810] [0:6657116094] [5423:31808906827] [21926:117274545313] [9700:54474663546] [0:81014281078] [0:21663591743] [20344:81489177324] [6449:42013684061] none none none none none none [0:1459] [0:1684] [0:14255] [9:1436] [55:3132] [0:1121] [18:440] [22:2656] [10:1569] [34:2948] [5:953] [1:2] [11:114] [4:616] [0:197] [50:7871] [0:2588] [8:54] [13:2709] [0:136] [1:38] [85:363] [0:23] [0:31] [0:36] [0:47596873] [0:245241631]
tree_sizes=3382 3469

Tree=0
num_leaves=31
num_cat=0
split_feature=39 32 32 21 37 42 42 32 39 48 5 40 20 6 39 10 40 20 55 9 12 6 33 4 39 16 23 4 19 18
split_gain=753.911 153.635 127.47 32.9816 29.6795 29.3959 28.6427 26.3043 25.3047 23.4035 21.0666 18.7474 18.2029 19.8398 18.1385 17.6699 16.4174 16.046 15.9787 15.4943 15.2288 15.1732 14.8829 14.463 14.2172 13.8773 13.1904 13.1231 12.9257 12.3957
threshold=73.500000000000014 475.50000000000006 310.50000000000006 469832.00000000006 43.500000000000007 14.500000000000002 12.500000000000002 595.50000000000011 57.500000000000007 17.500000000000004 1881510.0000000002 8.5000000000000018 15936271.500000002 2881829.0000000005 134.50000000000003 33860982.000000007 35.500000000000007 533485636.00000006 10359.500000000002 888081.00000000012 35928059.000000007 8174260.0000000009 27.500000000000004 117068810.00000001 98.500000000000014 606382.50000000012 17008239.500000004 83646466.500000015 12717407.000000002 49026068.500000007
decision_type=2 2 2 2 2 2 2 2 2 2 2 2 2 2 2 2 2 2 2 2 2 2 2 2 2 2 2 2 2 2
left_child=2 3 5 4 14 9 8 19 -4 -1 18 28 13 -12 17 -7 -10 -2 -8 20 29 27 -14 -21 -6 26 -13 -16 -11 -3
right_child=1 7 6 -5 24 15 10 -9 16 11 12 25 22 -15 21 -17 -18 -19 -20 23 -22 -23 -24 -25 -26 -27 -28 -29 -30 -31
leaf_value=0.030553148391757948 0.021661414180877532 0.015766779082544008 0.025907462769582487 0.014421683201590509 0.019209414559977395 0.028519862042102641 0.023377370610633538 0.010173753115665079 0.022797927121654633 0.029946296927640607 0.031640234763472719 0.025538994118276721 0.021989959253162647 0.010553378637439208 0.016272545469670736 0.019769128401755723 0.015722840509463199 0.037196453996681547 0.012352216568190638 0.0099854742389144779 0.033640473687427896 0.0098850588379808275 0.015853225074404988 0.014819525454271528 0.015924071789539172 0.021353291725988943 0.030276435497139639 0.031051929197603551 0.026985152747090686 0.031205400214786808
leaf_weight=183.9780216217041 446.94660687446594 54.493490099906921 320.96165728569031 145.4826203584671 327.2109107375145 31.246267259120941 215.72422915697098 242.4710339307785 431.44845831394196 215.47425901889801 4.9994027614593497 537.18582671880722 113.98638296127319 41.49504292011261 20.497551321983341 88.239458739757538 35.495759606361389 6.7491937279701224 13.99832773208618 86.239697635173798 6.2492534518241873 24.24710339307785 60.492773413658142 219.22381108999252 220.47366178035736 69.991638660430908 65.992116451263428 8.4989846944808942 466.69424778223038 5.7493131756782523
leaf_count=736 1788 218 1284 582 1309 125 863 970 1726 862 20 2149 456 166 82 353 142 27 56 345 25 97 242 877 882 280 264 34 1867 23
internal_value=0.0218576 0.0168031 0.0250231 0.0188851 0.0195008 0.0268356 0.0225958 0.0127364 0.0237459 0.0272064 0.0205851 0.0267522 0.0183807 0.0128208 0.0212445 0.0220575 0.0222601 0.0218925 0.0227055 0.014407 0.0187816 0.0157228 0.0198623 0.0134548 0.0178869 0.0255682 0.0260573 0.0206044 0.0279205 0.0172402
internal_weight=0 1814.53 2897.4 1200.11 1054.62 1658.8 1238.6 614.427 787.906 1539.32 450.696 1355.34 220.974 46.4944 506.939 119.486 466.944 453.696 229.723 371.956 66.4921 53.2436 174.479 305.464 547.685 673.17 603.178 28.9965 682.169 60.2428
internal_count=18850 7259 11591 4801 4219 6636 4955 2458 3152 6158 1803 5422 884 186 2028 478 1868 1815 919 1488 266 213 698 1222 2191 2693 2413 116 2729 241
is_linear=0
shrinkage=1


Tree=1
num_leaves=31
num_cat=0
split_feature=39 32 32 39 45 42 42 32 39 21 37 10 5 32 20 6 48 40 55 9 12 33 4 54 18 11 18 45 38 43
split_gain=738.9 150.556 124.947 32.4049 29.0292 28.0732 26.2273 25.7754 24.8031 21.6641 22.4697 21.3808 20.6467 19.381 17.8387 19.4433 16.7321 16.0899 15.6597 15.1832 14.9268 14.5856 14.1725 12.2126 12.149 11.2794 13.6069 10.8863 13.911 10.8556
threshold=73.500000000000014 475.50000000000006 310.50000000000006 113.50000000000001 73.500000000000014 12.500000000000002 15.500000000000002 595.50000000000011 57.500000000000007 469832.00000000006 43.500000000000007 33454818.000000004 1881510.0000000002 269.50000000000006 15936271.500000002 2881829.0000000005 26.500000000000004 35.500000000000007 10359.500000000002 888081.00000000012 35928059.000000007 27.500000000000004 117068810.00000001 1.0000000180025095e-35 49026068.500000007 1618828.5000000002 38739242.000000007 166.50000000000003 21.500000000000004 7.5000000000000009
decision_type=2 2 2 2 2 2 2 2 2 2 2 2 2 2 2 2 2 2 2 2 2 2 2 2 2 2 2 2 2 2
left_child=2 3 4 9 13 8 16 19 -4 10 -2 -8 18 -1 15 -14 -6 -10 -7 20 24 -16 -21 -12 -3 -5 -27 28 -25 -24
right_child=1 7 5 25 6 12 11 -9 17 -11 23 -13 14 -15 21 -17 -18 -19 -20 22 -22 -23 29 27 -26 26 -28 -29 -30 -31
leaf_value=0.008362386735970128 0.00022635759673823741 -0.0060295987222117745 0.0040095253826819242 -0.01135198333475272 0.0053459766520723663 0.0015045654597219608 0.0065515954372783918 -0.011565952564927153 0.00093090018763043487 -0.0071244506970468647 -0.0037761994031376613 -0.0059624727525745052 0.00968604785376132 0.0035938948813483617 0.00013100195694619641 -0.011190182166394665 0.0028061718008640098 -0.0060730934677432537 -0.0094095934499898639 -0.011752321188387418 0.011666927530649929 -0.0059440266719029836 0.00010497826421828681 0.002166597795369873 0.0092554415882651429 -0.0026275068244053894 -0.007039577491612139 0.010036125201767512 -0.010884597214389075 -0.007667409725664041
leaf_weight=327.43515694141388 393.20267125964165 54.49661186337471 320.94614034891129 31.747584402561188 757.61022353172302 215.72052556276321 19.745984598994255 242.49372690916061 431.44393169879913 74.496127843856812 361.96894294023514 44.245597913861275 4.9987488985061637 115.22918836772442 113.98621988296509 41.498844832181931 394.43198281526566 35.497805744409561 13.999465942382811 86.247851103544235 6.2482319772243491 60.496199190616608 19.748915806412697 33.997028768062592 5.7486003041267386 126.48962005972862 156.23943808674812 11.24901247024536 10.749065816402434 199.48904827237129
leaf_count=1310 1573 218 1284 127 3031 863 79 970 1726 298 1448 177 20 461 456 166 1578 142 56 345 25 242 79 136 23 506 625 45 43 798
internal_value=0 -0.00500378 0.00313394 -0.00294271 0.00492846 0.000730758 0.00413028 -0.0090293 0.00186942 -0.00196356 -0.00148959 -0.00210099 -0.00125978 0.00712111 -0.00344203 -0.00894587 0.00447641 0.000398443 0.000839441 -0.00737566 -0.00304525 -0.00197532 -0.00831824 -0.00310388 -0.0045711 -0.0057003 -0.00506567 0.00124216 -0.000968607 -0.00696727
internal_weight=0 1814.61 2897.29 1200.14 1658.7 1238.59 1216.03 614.473 787.888 885.663 811.167 63.9916 450.7 442.664 220.98 46.4976 1152.04 466.942 229.72 371.979 66.4934 174.482 305.486 417.964 60.2452 314.477 282.729 55.9951 44.7461 219.238
internal_count=18850 7259 11591 4801 6636 4955 4865 2458 3152 3543 3245 256 1803 1771 884 186 4609 1868 919 1488 266 698 1222 1672 241 1258 1131 224 179 877
is_linear=0
shrinkage=0.01


end of trees

feature_importances:
music=7
level_11_counts=7
cutscene_click_counts=4
navigate_click_elapsed_time=3
notification_click_elapsed_time=3
historicalsociety_frontdesk_elapsed_time=3
humanecology_frontdesk_elapsed_time=3
level_12_counts=3
notebook_click_elapsed_time=2
observation_click_elapsed_time=2
person_click_elapsed_time=2
capitol_1_hall_elapsed_time=2
kohlcenter_halloffame_elapsed_time=2
level_5_counts=2
level_9_counts=2
navigate_click_counts=2
object_click_counts=2
map_hover_duration=2
capitol_0_hall_elapsed_time=1
historicalsociety_collection_elapsed_time=1
historicalsociety_stacks_elapsed_time=1
library_microfiche_elapsed_time=1
level_10_counts=1
map_click_counts=1
notebook_prev_counts=1

parameters:
[boosting: gbdt]
[objective: binary]
[metric: binary_logloss]
[tree_learner: serial]
[device_type: cpu]
[data: ]
[valid: ]
[num_iterations: 1000]
[learning_rate: 0.01]
[num_leaves: 31]
[num_threads: 0]
[deterministic: 0]
[force_col_wise: 0]
[force_row_wise: 1]
[histogram_pool_size: -1]
[max_depth: -1]
[min_data_in_leaf: 20]
[min_sum_hessian_in_leaf: 0.001]
[bagging_fraction: 1]
[pos_bagging_fraction: 1]
[neg_bagging_fraction: 1]
[bagging_freq: 0]
[bagging_seed: 7719]
[feature_fraction: 1]
[feature_fraction_bynode: 1]
[feature_fraction_seed: 2437]
[extra_trees: 0]
[extra_seed: 11797]
[early_stopping_round: 0]
[first_metric_only: 0]
[max_delta_step: 0]
[lambda_l1: 0]
[lambda_l2: 0]
[linear_lambda: 0]
[min_gain_to_split: 0]
[drop_rate: 0.1]
[max_drop: 50]
[skip_drop: 0.5]
[xgboost_dart_mode: 0]
[uniform_drop: 0]
[drop_seed: 21238]
[top_rate: 0.2]
[other_rate: 0.1]
[min_data_per_group: 100]
[max_cat_threshold: 32]
[cat_l2: 10]
[cat_smooth: 10]
[max_cat_to_onehot: 4]
[top_k: 20]
[monotone_constraints: ]
[monotone_constraints_method: basic]
[monotone_penalty: 0]
[feature_contri: ]
[forcedsplits_filename: ]
[refit_decay_rate: 0.9]
[cegb_tradeoff: 1]
[cegb_penalty_split: 0]
[cegb_penalty_feature_lazy: ]
[cegb_penalty_feature_coupled: ]
[path_smooth: 0]
[interaction_constraints: ]
[verbosity: 1]
[saved_feature_importance_type: 0]
[linear_tree: 0]
[max_bin: 255]
[max_bin_by_feature: ]
[min_data_in_bin: 3]
[bin_construct_sample_cnt: 200000]
[data_random_seed: 38]
[is_enable_sparse: 1]
[enable_bundle: 1]
[use_missing: 1]
[zero_as_missing: 0]
[feature_pre_filter: 1]
[pre_partition: 0]
[two_round: 0]
[header: 0]
[label_column: ]
[weight_column: ]
[group_column: ]
[ignore_column: ]
[categorical_feature: ]
[forcedbins_filename: ]
[precise_float_parser: 0]
[objective_seed: 8855]
[num_class: 1]
[is_unbalance: 0]
[scale_pos_weight: 1]
[sigmoid: 1]
[boost_from_average: 1]
[reg_sqrt: 0]
[alpha: 0.9]
[fair_c: 1]
[poisson_max_delta_step: 0.7]
[tweedie_variance_power: 1.5]
[lambdarank_truncation_level: 30]
[lambdarank_norm: 1]
[label_gain: ]
[eval_at: ]
[multi_error_top_k: 1]
[auc_mu_weights: ]
[num_machines: 1]
[local_listen_port: 12400]
[time_out: 120]
[machine_list_filename: ]
[machines: ]
[gpu_platform_id: -1]
[gpu_device_id: -1]
[gpu_use_dp: 0]
[num_gpu: 1]

end of parameters

pandas_categorical:[]
